{"learner":{"attributes":{"niter":"99"},"feature_names":[],"feature_types":[],"gradient_booster":{"model":{"gbtree_model_param":{"num_parallel_tree":"1","num_trees":"100","size_leaf_vector":"0"},"tree_info":[0,0,0,0,0,0,0,0,0,0,0,0,0,0,0,0,0,0,0,0,0,0,0,0,0,0,0,0,0,0,0,0,0,0,0,0,0,0,0,0,0,0,0,0,0,0,0,0,0,0,0,0,0,0,0,0,0,0,0,0,0,0,0,0,0,0,0,0,0,0,0,0,0,0,0,0,0,0,0,0,0,0,0,0,0,0,0,0,0,0,0,0,0,0,0,0,0,0,0,0],"trees":[{"base_weights":[-9.3470585E-1,2.631579E-2,-9.5610344E-1,-6.666667E-1,2.3333333E-1,-1.6216215E-1,-9.73571E-1,-8.75E-1,5E-1,-7.5E-1,3.7037036E-1,8.333333E-1,-3.4375E-1,-9.76E-1,6.666667E-1,4.8E-1,-6.666667E-1,-5.3571427E-1,8E-1,-9.78435E-1,6.666667E-1,-1.6666667E-1,6.5E-1,7.5E-1,-7.2E-1,-9.80876E-1,6.666667E-1,6.666667E-1,-7.5E-1,8.235294E-1,-2.5E-1,-8.695652E-1,6.666667E-1,-9.833024E-1,-0E0],"categories":[],"categories_nodes":[],"categories_segments":[],"categories_sizes":[],"default_left":[0,0,0,1,0,0,1,0,0,0,1,0,1,1,0,0,0,0,0,1,0,0,1,0,1,1,0,0,0,0,0,0,0,0,0],"id":0,"left_children":[1,3,5,7,9,11,13,-1,-1,-1,15,-1,17,19,-1,21,-1,23,-1,25,-1,27,29,-1,31,33,-1,-1,-1,-1,-1,-1,-1,-1,-1],"loss_changes":[3.4983154E1,5.6070175E0,2.290503E1,2.625E0,4.3203707E0,6.9749436E0,7.1329346E0,0E0,0E0,0E0,3.38963E0,0E0,7.454464E0,7.1520996E0,0E0,2.8566666E0,0E0,7.174286E0,0E0,7.171509E0,0E0,3.4166667E0,3.3294115E0,0E0,5.764638E0,3.8579102E0,0E0,0E0,0E0,0E0,0E0,0E0,0E0,0E0,0E0],"parents":[2147483647,0,0,1,1,2,2,3,3,4,4,5,5,6,6,10,10,12,12,13,13,15,15,17,17,19,19,21,21,22,22,24,24,25,25],"right_children":[2,4,6,8,10,12,14,-1,-1,-1,16,-1,18,20,-1,22,-1,24,-1,26,-1,28,30,-1,32,34,-1,-1,-1,-1,-1,-1,-1,-1,-1],"split_conditions":[4.000001E0,1.5E0,4.000001E0,7.5E0,2.000001E0,4.000001E0,2.5E0,-2.6250002E-1,1.5E-1,-2.2500001E-1,2E0,2.5E-1,-9.536743E-7,-9.536743E-7,2.0000002E-1,2.000001E0,-2.0000002E-1,2.000001E0,2.4000001E-1,-9.536743E-7,2.0000002E-1,2.000001E0,1.5E0,2.2500001E-1,1.5E0,-9.536743E-7,2.0000002E-1,2.0000002E-1,-2.2500001E-1,2.4705884E-1,-7.5E-2,-2.6086956E-1,2.0000002E-1,-2.9499075E-1,-0E0],"split_indices":[864,755,1354,11,230,25,2828,0,0,0,10,0,17015,9554,0,711,0,3613,0,24679,0,238,93,0,253,9209,0,0,0,0,0,0,0,0,0],"split_type":[0,0,0,0,0,0,0,0,0,0,0,0,0,0,0,0,0,0,0,0,0,0,0,0,0,0,0,0,0,0,0,0,0,0,0],"sum_hessian":[1.699E3,3.7E1,1.662E3,8E0,2.9E1,3.6E1,1.626E3,7E0,1E0,3E0,2.6E1,5E0,3.1E1,1.624E3,2E0,2.4E1,2E0,2.7E1,4E0,1.622E3,2E0,5E0,1.9E1,3E0,2.4E1,1.62E3,2E0,2E0,3E0,1.6E1,3E0,2.2E1,2E0,1.616E3,4E0],"tree_param":{"num_deleted":"0","num_feature":"27232","num_nodes":"35","size_leaf_vector":"0"}},{"base_weights":[-9.3470585E-1,2.631579E-2,-9.5610344E-1,-6.666667E-1,2.3333333E-1,-1.6216215E-1,-9.73571E-1,-8.75E-1,5E-1,-7.5E-1,3.7037036E-1,8.333333E-1,-3.4375E-1,-9.76E-1,6.666667E-1,4.8E-1,-6.666667E-1,-5.3571427E-1,8E-1,-9.78435E-1,6.666667E-1,-1.6666667E-1,6.5E-1,7.5E-1,-7.2E-1,-9.80876E-1,6.666667E-1,6.666667E-1,-7.5E-1,8.235294E-1,-2.5E-1,-8.695652E-1,6.666667E-1,-9.833024E-1,-0E0],"categories":[],"categories_nodes":[],"categories_segments":[],"categories_sizes":[],"default_left":[0,0,0,1,0,0,1,0,0,0,1,0,1,1,0,0,0,0,0,1,0,0,1,0,1,1,0,0,0,0,0,0,0,0,0],"id":1,"left_children":[1,3,5,7,9,11,13,-1,-1,-1,15,-1,17,19,-1,21,-1,23,-1,25,-1,27,29,-1,31,33,-1,-1,-1,-1,-1,-1,-1,-1,-1],"loss_changes":[3.4983154E1,5.6070175E0,2.290503E1,2.625E0,4.3203707E0,6.9749436E0,7.1329346E0,0E0,0E0,0E0,3.38963E0,0E0,7.454464E0,7.1520996E0,0E0,2.8566666E0,0E0,7.174286E0,0E0,7.171509E0,0E0,3.4166667E0,3.3294115E0,0E0,5.764638E0,3.8579102E0,0E0,0E0,0E0,0E0,0E0,0E0,0E0,0E0,0E0],"parents":[2147483647,0,0,1,1,2,2,3,3,4,4,5,5,6,6,10,10,12,12,13,13,15,15,17,17,19,19,21,21,22,22,24,24,25,25],"right_children":[2,4,6,8,10,12,14,-1,-1,-1,16,-1,18,20,-1,22,-1,24,-1,26,-1,28,30,-1,32,34,-1,-1,-1,-1,-1,-1,-1,-1,-1],"split_conditions":[4.000001E0,1.5E0,4.000001E0,7.5E0,2.000001E0,4.000001E0,2.5E0,-2.6250002E-1,1.5E-1,-2.2500001E-1,2E0,2.5E-1,-9.536743E-7,-9.536743E-7,2.0000002E-1,2.000001E0,-2.0000002E-1,2.000001E0,2.4000001E-1,-9.536743E-7,2.0000002E-1,2.000001E0,1.5E0,2.2500001E-1,1.5E0,-9.536743E-7,2.0000002E-1,2.0000002E-1,-2.2500001E-1,2.4705884E-1,-7.5E-2,-2.6086956E-1,2.0000002E-1,-2.9499075E-1,-0E0],"split_indices":[864,755,1354,11,230,25,2828,0,0,0,10,0,17015,9554,0,711,0,3613,0,24679,0,238,93,0,253,9209,0,0,0,0,0,0,0,0,0],"split_type":[0,0,0,0,0,0,0,0,0,0,0,0,0,0,0,0,0,0,0,0,0,0,0,0,0,0,0,0,0,0,0,0,0,0,0],"sum_hessian":[1.699E3,3.7E1,1.662E3,8E0,2.9E1,3.6E1,1.626E3,7E0,1E0,3E0,2.6E1,5E0,3.1E1,1.624E3,2E0,2.4E1,2E0,2.7E1,4E0,1.622E3,2E0,5E0,1.9E1,3E0,2.4E1,1.62E3,2E0,2E0,3E0,1.6E1,3E0,2.2E1,2E0,1.616E3,4E0],"tree_param":{"num_deleted":"0","num_feature":"27232","num_nodes":"35","size_leaf_vector":"0"}},{"base_weights":[-9.40413E-1,2.631579E-2,-9.620024E-1,-6.666667E-1,2.3333333E-1,-9.6789825E-1,3.75E-1,-8.75E-1,5E-1,-7.5E-1,3.7037036E-1,-9.70285E-1,6.666667E-1,8.333333E-1,-6.666667E-1,4.8E-1,-6.666667E-1,-9.726776E-1,6.666667E-1,-1.6666667E-1,6.5E-1,-9.7507596E-1,6.666667E-1,6.666667E-1,-7.5E-1,8.235294E-1,-2.5E-1,-9.7748023E-1,6.666667E-1],"categories":[],"categories_nodes":[],"categories_segments":[],"categories_sizes":[],"default_left":[0,0,1,1,0,1,0,0,0,0,1,1,0,0,0,0,0,1,0,0,1,1,0,0,0,0,0,0,0],"id":2,"left_children":[1,3,5,7,9,11,13,-1,-1,-1,15,17,-1,-1,-1,19,-1,21,-1,23,25,27,-1,-1,-1,-1,-1,-1,-1],"loss_changes":[3.5401855E1,5.6070175E0,1.3432617E1,2.625E0,4.3203707E0,7.0880127E0,4.375E0,0E0,0E0,0E0,3.38963E0,7.1068115E0,0E0,0E0,0E0,2.8566666E0,0E0,7.1257324E0,0E0,3.4166667E0,3.3294115E0,7.1447754E0,0E0,0E0,0E0,0E0,0E0,0E0,0E0],"parents":[2147483647,0,0,1,1,2,2,3,3,4,4,5,5,6,6,10,10,11,11,15,15,17,17,19,19,20,20,21,21],"right_children":[2,4,6,8,10,12,14,-1,-1,-1,16,18,-1,-1,-1,20,-1,22,-1,24,26,28,-1,-1,-1,-1,-1,-1,-1],"split_conditions":[4.000001E0,1.5E0,-9.536743E-7,7.5E0,2.000001E0,-9.536743E-7,4.000001E0,-2.6250002E-1,1.5E-1,-2.2500001E-1,2E0,-9.536743E-7,2.0000002E-1,2.5E-1,-2.0000002E-1,2.000001E0,-2.0000002E-1,-9.536743E-7,2.0000002E-1,2.000001E0,1.5E0,-9.536743E-7,2.0000002E-1,2.0000002E-1,-2.2500001E-1,2.4705884E-1,-7.5E-2,-2.932441E-1,2.0000002E-1],"split_indices":[864,755,1355,11,230,9554,119,0,0,0,10,15881,0,0,0,711,0,20608,0,238,93,21702,0,0,0,0,0,0,0],"split_type":[0,0,0,0,0,0,0,0,0,0,0,0,0,0,0,0,0,0,0,0,0,0,0,0,0,0,0,0,0],"sum_hessian":[1.694E3,3.7E1,1.657E3,8E0,2.9E1,1.65E3,7E0,7E0,1E0,3E0,2.6E1,1.648E3,2E0,5E0,2E0,2.4E1,2E0,1.646E3,2E0,5E0,1.9E1,1.644E3,2E0,2E0,3E0,1.6E1,3E0,1.642E3,2E0],"tree_param":{"num_deleted":"0","num_feature":"27232","num_nodes":"29","size_leaf_vector":"0"}},{"base_weights":[-9.6710527E-1,-3.8709676E-1,-9.774665E-1,8.5714287E-1,-7.2E-1,-9.7985345E-1,-0E0,6.666667E-1,-8.695652E-1,-9.8106295E-1,5E-1,6.666667E-1,-6.666667E-1,5E-1,-9.5454544E-1,-9.822738E-1,5E-1,-9.8348624E-1,5E-1,-9.8470014E-1,5E-1],"categories":[],"categories_nodes":[],"categories_segments":[],"categories_sizes":[],"default_left":[0,0,1,0,0,1,0,0,0,1,0,0,0,0,0,1,0,1,0,0,0],"id":3,"left_children":[1,3,5,-1,7,9,11,-1,13,15,-1,-1,-1,-1,-1,17,-1,19,-1,-1,-1],"loss_changes":[9.669678E0,1.3457697E1,3.8310547E0,0E0,5.764638E0,3.4222412E0,2.6666667E0,0E0,3.15415E0,3.427002E0,0E0,0E0,0E0,0E0,0E0,3.4318848E0,0E0,3.4365234E0,0E0,0E0,0E0],"parents":[2147483647,0,0,1,1,2,2,4,4,5,5,6,6,8,8,9,9,15,15,17,17],"right_children":[2,4,6,-1,8,10,12,-1,14,16,-1,-1,-1,-1,-1,18,-1,20,-1,-1,-1],"split_conditions":[4.000001E0,4.000001E0,-9.536743E-7,2.5714287E-1,2.000001E0,1.5E0,2.5E0,2.0000002E-1,2.000001E0,3.5E0,1.5E-1,2.0000002E-1,-2.0000002E-1,1.5E-1,-2.8636363E-1,-9.536743E-7,1.5E-1,-9.536743E-7,1.5E-1,-2.9541007E-1,1.5E-1],"split_indices":[1354,25,9209,0,1635,498,11,0,7,503,0,0,0,0,0,1338,0,1380,0,0,0],"split_type":[0,0,0,0,0,0,0,0,0,0,0,0,0,0,0,0,0,0,0,0,0],"sum_hessian":[1.671E3,3E1,1.641E3,6E0,2.4E1,1.637E3,4E0,2E0,2.2E1,1.636E3,1E0,2E0,2E0,1E0,2.1E1,1.635E3,1E0,1.634E3,1E0,1.633E3,1E0],"tree_param":{"num_deleted":"0","num_feature":"27232","num_nodes":"21","size_leaf_vector":"0"}},{"base_weights":[-9.358446E-1,-0E0,-9.5610344E-1,-8.75E-1,2.3333333E-1,-1.6216215E-1,-9.73571E-1,-7.5E-1,3.7037036E-1,8.333333E-1,-3.4375E-1,-9.76E-1,6.666667E-1,4.8E-1,-6.666667E-1,-5.3571427E-1,8E-1,-9.78435E-1,6.666667E-1,-1.6666667E-1,6.5E-1,7.5E-1,-7.2E-1,-9.80876E-1,6.666667E-1,6.666667E-1,-7.5E-1,8.235294E-1,-2.5E-1,-8.695652E-1,6.666667E-1,-9.833024E-1,-0E0],"categories":[],"categories_nodes":[],"categories_segments":[],"categories_sizes":[],"default_left":[0,0,0,0,0,0,1,0,1,0,1,1,0,0,0,0,0,1,0,0,1,0,1,1,0,0,0,0,0,0,0,0,0],"id":4,"left_children":[1,3,5,-1,7,9,11,-1,13,-1,15,17,-1,19,-1,21,-1,23,-1,25,27,-1,29,31,-1,-1,-1,-1,-1,-1,-1,-1,-1],"loss_changes":[3.2211548E1,7.758333E0,2.290503E1,0E0,4.3203707E0,6.9749436E0,7.1329346E0,0E0,3.38963E0,0E0,7.454464E0,7.1520996E0,0E0,2.8566666E0,0E0,7.174286E0,0E0,7.171509E0,0E0,3.4166667E0,3.3294115E0,0E0,5.764638E0,3.8579102E0,0E0,0E0,0E0,0E0,0E0,0E0,0E0,0E0,0E0],"parents":[2147483647,0,0,1,1,2,2,4,4,5,5,6,6,8,8,10,10,11,11,13,13,15,15,17,17,19,19,20,20,22,22,23,23],"right_children":[2,4,6,-1,8,10,12,-1,14,-1,16,18,-1,20,-1,22,-1,24,-1,26,28,-1,30,32,-1,-1,-1,-1,-1,-1,-1,-1,-1],"split_conditions":[4.000001E0,1.5E0,4.000001E0,-2.6250002E-1,2.000001E0,4.000001E0,2.5E0,-2.2500001E-1,2E0,2.5E-1,-9.536743E-7,-9.536743E-7,2.0000002E-1,2.000001E0,-2.0000002E-1,2.000001E0,2.4000001E-1,-9.536743E-7,2.0000002E-1,2.000001E0,1.5E0,2.2500001E-1,1.5E0,-9.536743E-7,2.0000002E-1,2.0000002E-1,-2.2500001E-1,2.4705884E-1,-7.5E-2,-2.6086956E-1,2.0000002E-1,-2.9499075E-1,-0E0],"split_indices":[864,755,1354,0,230,25,2828,0,10,0,17015,9554,0,711,0,3613,0,24679,0,238,93,0,253,9209,0,0,0,0,0,0,0,0,0],"split_type":[0,0,0,0,0,0,0,0,0,0,0,0,0,0,0,0,0,0,0,0,0,0,0,0,0,0,0,0,0,0,0,0,0],"sum_hessian":[1.698E3,3.6E1,1.662E3,7E0,2.9E1,3.6E1,1.626E3,3E0,2.6E1,5E0,3.1E1,1.624E3,2E0,2.4E1,2E0,2.7E1,4E0,1.622E3,2E0,5E0,1.9E1,3E0,2.4E1,1.62E3,2E0,2E0,3E0,1.6E1,3E0,2.2E1,2E0,1.616E3,4E0],"tree_param":{"num_deleted":"0","num_feature":"27232","num_nodes":"33","size_leaf_vector":"0"}},{"base_weights":[-9.7537535E-1,-9.7772425E-1,-0E0,-9.789157E-1,5E-1,6.666667E-1,-6.666667E-1,-9.801085E-1,5E-1,-9.813028E-1,5E-1,-9.8249847E-1,5E-1,-9.836956E-1,5E-1],"categories":[],"categories_nodes":[],"categories_segments":[],"categories_sizes":[],"default_left":[1,1,0,1,0,0,0,1,0,1,0,1,0,0,0],"id":5,"left_children":[1,3,5,7,-1,-1,-1,9,-1,11,-1,13,-1,-1,-1],"loss_changes":[3.8145752E0,3.4136963E0,2.6666667E0,3.418457E0,0E0,0E0,0E0,3.4232178E0,0E0,3.4279785E0,0E0,3.4326172E0,0E0,0E0,0E0],"parents":[2147483647,0,0,1,1,2,2,3,3,7,7,9,9,11,11],"right_children":[2,4,6,8,-1,-1,-1,10,-1,12,-1,14,-1,-1,-1],"split_conditions":[-9.536743E-7,1.5E0,2.5E0,3.5E0,1.5E-1,2.0000002E-1,-2.0000002E-1,-9.536743E-7,1.5E-1,1.5E0,1.5E-1,-9.536743E-7,1.5E-1,-2.951087E-1,1.5E-1],"split_indices":[9209,498,11,503,0,0,0,1338,0,1354,0,1380,0,0,0],"split_type":[0,0,0,0,0,0,0,0,0,0,0,0,0,0,0],"sum_hessian":[1.664E3,1.66E3,4E0,1.659E3,1E0,2E0,2E0,1.658E3,1E0,1.657E3,1E0,1.656E3,1E0,1.655E3,1E0],"tree_param":{"num_deleted":"0","num_feature":"27232","num_nodes":"15","size_leaf_vector":"0"}},{"base_weights":[5.846154E-1,1.15384616E-1,8.75E-1,-4.4444445E-1,3.888889E-1,9.722222E-1,-0E0,6.666667E-1,-8.5714287E-1,-6.666667E-1,5.625E-1,6.666667E-1,-6.666667E-1,-2.5E-1,7.692308E-1,5E-1,-6.666667E-1,9.166667E-1,-5E-1],"categories":[],"categories_nodes":[],"categories_segments":[],"categories_sizes":[],"default_left":[0,0,1,0,0,0,0,0,0,0,0,0,0,0,1,0,0,0,0],"id":6,"left_children":[1,3,5,7,9,-1,11,-1,-1,-1,13,-1,-1,15,17,-1,-1,-1,-1],"loss_changes":[8.755768E0,4.1538463E0,3.4027786E0,4.698413E0,3.6736112E0,0E0,2.6666667E0,0E0,0E0,0E0,2.8798075E0,0E0,0E0,1.5833334E0,2.8910255E0,0E0,0E0,0E0,0E0],"parents":[2147483647,0,0,1,1,2,2,3,3,4,4,6,6,10,10,13,13,14,14],"right_children":[2,4,6,8,10,-1,12,-1,-1,-1,14,-1,-1,16,18,-1,-1,-1,-1],"split_conditions":[1.5E0,1.5E0,-9.536743E-7,2.000001E0,2.000001E0,2.916667E-1,2.5E0,2.0000002E-1,-2.5714287E-1,-2.0000002E-1,2.5E0,2.0000002E-1,-2.0000002E-1,2.000001E0,2.5E0,1.5E-1,-2.0000002E-1,2.75E-1,-1.5E-1],"split_indices":[864,65,9209,195,282,0,11,0,0,0,0,0,0,31,93,0,0,0,0],"split_type":[0,0,0,0,0,0,0,0,0,0,0,0,0,0,0,0,0,0,0],"sum_hessian":[6.4E1,2.5E1,3.9E1,8E0,1.7E1,3.5E1,4E0,2E0,6E0,2E0,1.5E1,2E0,2E0,3E0,1.2E1,1E0,2E0,1.1E1,1E0],"tree_param":{"num_deleted":"0","num_feature":"27232","num_nodes":"19","size_leaf_vector":"0"}},{"base_weights":[-9.752266E-1,-9.776164E-1,6.666667E-1,-9.7998786E-1,-0E0,-9.811893E-1,5E-1,6.666667E-1,-6.666667E-1,-9.8239225E-1,5E-1,-9.835966E-1,5E-1,-9.848024E-1,5E-1],"categories":[],"categories_nodes":[],"categories_segments":[],"categories_sizes":[],"default_left":[1,1,0,1,0,1,0,0,0,1,0,1,0,0,0],"id":7,"left_children":[1,3,-1,5,7,9,-1,-1,-1,11,-1,13,-1,-1,-1],"loss_changes":[7.145874E0,3.8321533E0,0E0,3.4227295E0,2.6666667E0,3.4274902E0,0E0,0E0,0E0,3.432251E0,0E0,3.4370117E0,0E0,0E0,0E0],"parents":[2147483647,0,0,1,1,3,3,4,4,5,5,9,9,11,11],"right_children":[2,4,-1,6,8,10,-1,-1,-1,12,-1,14,-1,-1,-1],"split_conditions":[-9.536743E-7,-9.536743E-7,2.0000002E-1,1.5E0,2.5E0,3.5E0,1.5E-1,2.0000002E-1,-2.0000002E-1,-9.536743E-7,1.5E-1,-9.536743E-7,1.5E-1,-2.9544073E-1,1.5E-1],"split_indices":[22645,9209,0,498,11,503,0,0,0,1338,0,1380,0,0,0],"split_type":[0,0,0,0,0,0,0,0,0,0,0,0,0,0,0],"sum_hessian":[1.654E3,1.652E3,2E0,1.648E3,4E0,1.647E3,1E0,2E0,2E0,1.646E3,1E0,1.645E3,1E0,1.644E3,1E0],"tree_param":{"num_deleted":"0","num_feature":"27232","num_nodes":"15","size_leaf_vector":"0"}},{"base_weights":[8E-1,8.679245E-1,-6.666667E-1,-5E-1,9.0384614E-1,9.411765E-1,-5E-1,-5E-1,9.8E-1],"categories":[],"categories_nodes":[],"categories_segments":[],"categories_sizes":[],"default_left":[1,0,0,0,1,0,0,0,0],"id":8,"left_children":[1,3,-1,-1,5,7,-1,-1,-1],"loss_changes":[6.0578613E0,3.05624E0,0E0,0E0,3.1957016E0,3.3435287E0,0E0,0E0,0E0],"parents":[2147483647,0,0,1,1,4,4,5,5],"right_children":[2,4,-1,-1,6,8,-1,-1,-1],"split_conditions":[-9.536743E-7,1.5E0,-2.0000002E-1,-1.5E-1,2.5E0,1.5E0,-1.5E-1,-1.5E-1,2.9400003E-1],"split_indices":[606,78,0,0,93,2384,0,0,0],"split_type":[0,0,0,0,0,0,0,0,0],"sum_hessian":[5.4E1,5.2E1,2E0,1E0,5.1E1,5E1,1E0,1E0,4.9E1],"tree_param":{"num_deleted":"0","num_feature":"27232","num_nodes":"9","size_leaf_vector":"0"}},{"base_weights":[-9.717159E-1,-9.741976E-1,6.666667E-1,-9.766856E-1,6.666667E-1,-9.791798E-1,6.666667E-1,-9.804293E-1,5E-1,-9.8168033E-1,5E-1,-9.82933E-1,5E-1],"categories":[],"categories_nodes":[],"categories_segments":[],"categories_sizes":[],"default_left":[1,1,0,1,0,1,0,1,0,1,0,0,0],"id":9,"left_children":[1,3,-1,5,-1,7,-1,9,-1,11,-1,-1,-1],"loss_changes":[7.118408E0,7.1381836E0,0E0,7.157715E0,0E0,3.4196777E0,0E0,3.4245605E0,0E0,3.4295654E0,0E0,0E0,0E0],"parents":[2147483647,0,0,1,1,3,3,5,5,7,7,9,9],"right_children":[2,4,-1,6,-1,8,-1,10,-1,12,-1,-1,-1],"split_conditions":[2.5E0,-9.536743E-7,2.0000002E-1,-9.536743E-7,2.0000002E-1,1.5E0,2.0000002E-1,3.5E0,1.5E-1,-9.536743E-7,1.5E-1,-2.948799E-1,1.5E-1],"split_indices":[2653,9554,0,15881,0,498,0,503,0,1380,0,0,0],"split_type":[0,0,0,0,0,0,0,0,0,0,0,0,0],"sum_hessian":[1.59E3,1.588E3,2E0,1.586E3,2E0,1.584E3,2E0,1.583E3,1E0,1.582E3,1E0,1.581E3,1E0],"tree_param":{"num_deleted":"0","num_feature":"27232","num_nodes":"13","size_leaf_vector":"0"}},{"base_weights":[9.3333334E-1,-5E-1,9.7727275E-1],"categories":[],"categories_nodes":[],"categories_segments":[],"categories_sizes":[],"default_left":[0,0,0],"id":10,"left_children":[1,-1,-1],"loss_changes":[3.3227272E0,0E0,0E0],"parents":[2147483647,0,0],"right_children":[2,-1,-1],"split_conditions":[1.5E0,-1.5E-1,2.9318184E-1],"split_indices":[2384,0,0],"split_type":[0,0,0],"sum_hessian":[4.4E1,1E0,4.3E1],"tree_param":{"num_deleted":"0","num_feature":"27232","num_nodes":"3","size_leaf_vector":"0"}},{"base_weights":[-9.791798E-1,-9.804293E-1,5E-1,-9.8168033E-1,5E-1,-9.82933E-1,5E-1,-9.8418725E-1,5E-1,-9.8544306E-1,5E-1,-9.867004E-1,5E-1],"categories":[],"categories_nodes":[],"categories_segments":[],"categories_sizes":[],"default_left":[1,1,0,1,0,1,0,1,0,1,0,0,0],"id":11,"left_children":[1,3,-1,5,-1,7,-1,9,-1,11,-1,-1,-1],"loss_changes":[3.4196777E0,3.4245605E0,0E0,3.4295654E0,0E0,3.4344482E0,0E0,3.4395752E0,0E0,3.444458E0,0E0,0E0,0E0],"parents":[2147483647,0,0,1,1,3,3,5,5,7,7,9,9],"right_children":[2,4,-1,6,-1,8,-1,10,-1,12,-1,-1,-1],"split_conditions":[1.5E0,3.5E0,1.5E-1,-9.536743E-7,1.5E-1,1.5E0,1.5E-1,-9.536743E-7,1.5E-1,-9.536743E-7,1.5E-1,-2.9601014E-1,1.5E-1],"split_indices":[498,503,0,1380,0,1529,0,2670,0,2843,0,0,0],"split_type":[0,0,0,0,0,0,0,0,0,0,0,0,0],"sum_hessian":[1.584E3,1.583E3,1E0,1.582E3,1E0,1.581E3,1E0,1.58E3,1E0,1.579E3,1E0,1.578E3,1E0],"tree_param":{"num_deleted":"0","num_feature":"27232","num_nodes":"13","size_leaf_vector":"0"}},{"base_weights":[9.3333334E-1,-5E-1,9.7727275E-1],"categories":[],"categories_nodes":[],"categories_segments":[],"categories_sizes":[],"default_left":[0,0,0],"id":12,"left_children":[1,-1,-1],"loss_changes":[3.3227272E0,0E0,0E0],"parents":[2147483647,0,0],"right_children":[2,-1,-1],"split_conditions":[1.5E0,-1.5E-1,2.9318184E-1],"split_indices":[2384,0,0],"split_type":[0,0,0],"sum_hessian":[4.4E1,1E0,4.3E1],"tree_param":{"num_deleted":"0","num_feature":"27232","num_nodes":"3","size_leaf_vector":"0"}},{"base_weights":[-9.8168033E-1,-9.82933E-1,5E-1,-9.8418725E-1,5E-1,-9.8544306E-1,5E-1,-9.867004E-1,5E-1,-9.8795944E-1,5E-1,-9.8922E-1,5E-1],"categories":[],"categories_nodes":[],"categories_segments":[],"categories_sizes":[],"default_left":[1,1,0,1,0,1,0,1,0,1,0,0,0],"id":13,"left_children":[1,3,-1,5,-1,7,-1,9,-1,11,-1,-1,-1],"loss_changes":[3.4295654E0,3.4344482E0,0E0,3.4395752E0,0E0,3.444458E0,0E0,3.449463E0,0E0,3.4544678E0,0E0,0E0,0E0],"parents":[2147483647,0,0,1,1,3,3,5,5,7,7,9,9],"right_children":[2,4,-1,6,-1,8,-1,10,-1,12,-1,-1,-1],"split_conditions":[2.5E0,1.5E0,1.5E-1,-9.536743E-7,1.5E-1,-9.536743E-7,1.5E-1,1.5E0,1.5E-1,-9.536743E-7,1.5E-1,-2.96766E-1,1.5E-1],"split_indices":[219,1529,0,2670,0,2843,0,4060,0,4147,0,0,0],"split_type":[0,0,0,0,0,0,0,0,0,0,0,0,0],"sum_hessian":[1.582E3,1.581E3,1E0,1.58E3,1E0,1.579E3,1E0,1.578E3,1E0,1.577E3,1E0,1.576E3,1E0],"tree_param":{"num_deleted":"0","num_feature":"27232","num_nodes":"13","size_leaf_vector":"0"}},{"base_weights":[9.3333334E-1,9.7727275E-1,-5E-1],"categories":[],"categories_nodes":[],"categories_segments":[],"categories_sizes":[],"default_left":[1,0,0],"id":14,"left_children":[1,-1,-1],"loss_changes":[3.3227272E0,0E0,0E0],"parents":[2147483647,0,0],"right_children":[2,-1,-1],"split_conditions":[1.5E0,2.9318184E-1,-1.5E-1],"split_indices":[1167,0,0],"split_type":[0,0,0],"sum_hessian":[4.4E1,4.3E1,1E0],"tree_param":{"num_deleted":"0","num_feature":"27232","num_nodes":"3","size_leaf_vector":"0"}},{"base_weights":[-9.814815E-1,-9.8401535E-1,6.666667E-1,-9.852847E-1,5E-1,-9.865557E-1,5E-1,-9.878283E-1,5E-1,-9.8910254E-1,5E-1,-9.9037844E-1,5E-1],"categories":[],"categories_nodes":[],"categories_segments":[],"categories_sizes":[],"default_left":[1,1,0,1,0,1,0,1,0,1,0,0,0],"id":15,"left_children":[1,3,-1,5,-1,7,-1,9,-1,11,-1,-1,-1],"loss_changes":[7.196045E0,3.4388428E0,0E0,3.4438477E0,0E0,3.4488525E0,0E0,3.4541016E0,0E0,3.4589844E0,0E0,0E0,0E0],"parents":[2147483647,0,0,1,1,3,3,5,5,7,7,9,9],"right_children":[2,4,-1,6,-1,8,-1,10,-1,12,-1,-1,-1],"split_conditions":[1.5E0,1.5E0,2.0000002E-1,-9.536743E-7,1.5E-1,1.5E0,1.5E-1,-9.536743E-7,1.5E-1,-9.536743E-7,1.5E-1,-2.9711354E-1,1.5E-1],"split_indices":[1167,1529,0,2843,0,4060,0,4147,0,5725,0,0,0],"split_type":[0,0,0,0,0,0,0,0,0,0,0,0,0],"sum_hessian":[1.565E3,1.563E3,2E0,1.562E3,1E0,1.561E3,1E0,1.56E3,1E0,1.559E3,1E0,1.558E3,1E0],"tree_param":{"num_deleted":"0","num_feature":"27232","num_nodes":"13","size_leaf_vector":"0"}},{"base_weights":[9.3333334E-1,9.7727275E-1,-5E-1],"categories":[],"categories_nodes":[],"categories_segments":[],"categories_sizes":[],"default_left":[1,0,0],"id":16,"left_children":[1,-1,-1],"loss_changes":[3.3227272E0,0E0,0E0],"parents":[2147483647,0,0],"right_children":[2,-1,-1],"split_conditions":[1.5E0,2.9318184E-1,-1.5E-1],"split_indices":[1167,0,0],"split_type":[0,0,0],"sum_hessian":[4.4E1,4.3E1,1E0],"tree_param":{"num_deleted":"0","num_feature":"27232","num_nodes":"3","size_leaf_vector":"0"}},{"base_weights":[-9.8275864E-1,-9.8402554E-1,5E-1,-9.852941E-1,5E-1,-9.865643E-1,5E-1,-9.878361E-1,5E-1,-9.891095E-1,5E-1,-9.9038464E-1,5E-1],"categories":[],"categories_nodes":[],"categories_segments":[],"categories_sizes":[],"default_left":[1,1,0,1,0,1,0,1,0,1,0,0,0],"id":17,"left_children":[1,3,-1,5,-1,7,-1,9,-1,11,-1,-1,-1],"loss_changes":[3.433838E0,3.4388428E0,0E0,3.4438477E0,0E0,3.4489746E0,0E0,3.4541016E0,0E0,3.4591064E0,0E0,0E0,0E0],"parents":[2147483647,0,0,1,1,3,3,5,5,7,7,9,9],"right_children":[2,4,-1,6,-1,8,-1,10,-1,12,-1,-1,-1],"split_conditions":[2.5E0,1.5E0,1.5E-1,-9.536743E-7,1.5E-1,1.5E0,1.5E-1,-9.536743E-7,1.5E-1,-9.536743E-7,1.5E-1,-2.9711542E-1,1.5E-1],"split_indices":[1167,1529,0,2843,0,4060,0,4147,0,6785,0,0,0],"split_type":[0,0,0,0,0,0,0,0,0,0,0,0,0],"sum_hessian":[1.565E3,1.564E3,1E0,1.563E3,1E0,1.562E3,1E0,1.561E3,1E0,1.56E3,1E0,1.559E3,1E0],"tree_param":{"num_deleted":"0","num_feature":"27232","num_nodes":"13","size_leaf_vector":"0"}},{"base_weights":[9.777778E-1],"categories":[],"categories_nodes":[],"categories_segments":[],"categories_sizes":[],"default_left":[0],"id":18,"left_children":[-1],"loss_changes":[0E0],"parents":[2147483647],"right_children":[-1],"split_conditions":[2.9333335E-1],"split_indices":[0],"split_type":[0],"sum_hessian":[4.4E1],"tree_param":{"num_deleted":"0","num_feature":"27232","num_nodes":"1","size_leaf_vector":"0"}},{"base_weights":[-9.8402554E-1,-9.852941E-1,5E-1,-9.865643E-1,5E-1,-9.878361E-1,5E-1,-9.891095E-1,5E-1,-9.9038464E-1,5E-1,-9.916613E-1,5E-1],"categories":[],"categories_nodes":[],"categories_segments":[],"categories_sizes":[],"default_left":[1,1,0,1,0,1,0,1,0,1,0,0,0],"id":19,"left_children":[1,3,-1,5,-1,7,-1,9,-1,11,-1,-1,-1],"loss_changes":[3.4388428E0,3.4438477E0,0E0,3.4489746E0,0E0,3.4541016E0,0E0,3.4591064E0,0E0,3.4641113E0,0E0,0E0,0E0],"parents":[2147483647,0,0,1,1,3,3,5,5,7,7,9,9],"right_children":[2,4,-1,6,-1,8,-1,10,-1,12,-1,-1,-1],"split_conditions":[1.5E0,-9.536743E-7,1.5E-1,1.5E0,1.5E-1,-9.536743E-7,1.5E-1,-9.536743E-7,1.5E-1,-9.536743E-7,1.5E-1,-2.974984E-1,1.5E-1],"split_indices":[1529,2843,0,4060,0,4147,0,6785,0,11689,0,0,0],"split_type":[0,0,0,0,0,0,0,0,0,0,0,0,0],"sum_hessian":[1.564E3,1.563E3,1E0,1.562E3,1E0,1.561E3,1E0,1.56E3,1E0,1.559E3,1E0,1.558E3,1E0],"tree_param":{"num_deleted":"0","num_feature":"27232","num_nodes":"13","size_leaf_vector":"0"}},{"base_weights":[9.777778E-1],"categories":[],"categories_nodes":[],"categories_segments":[],"categories_sizes":[],"default_left":[0],"id":20,"left_children":[-1],"loss_changes":[0E0],"parents":[2147483647],"right_children":[-1],"split_conditions":[2.9333335E-1],"split_indices":[0],"split_type":[0],"sum_hessian":[4.4E1],"tree_param":{"num_deleted":"0","num_feature":"27232","num_nodes":"1","size_leaf_vector":"0"}},{"base_weights":[-9.865643E-1,-9.878361E-1,5E-1,-9.891095E-1,5E-1,-9.9038464E-1,5E-1,-9.916613E-1,5E-1,-9.9293965E-1,5E-1,-9.9421966E-1,5E-1],"categories":[],"categories_nodes":[],"categories_segments":[],"categories_sizes":[],"default_left":[1,1,0,1,0,1,0,1,0,1,0,0,0],"id":21,"left_children":[1,3,-1,5,-1,7,-1,9,-1,11,-1,-1,-1],"loss_changes":[3.4489746E0,3.4541016E0,0E0,3.4591064E0,0E0,3.4641113E0,0E0,3.4692383E0,0E0,3.4743652E0,0E0,0E0,0E0],"parents":[2147483647,0,0,1,1,3,3,5,5,7,7,9,9],"right_children":[2,4,-1,6,-1,8,-1,10,-1,12,-1,-1,-1],"split_conditions":[1.5E0,-9.536743E-7,1.5E-1,-9.536743E-7,1.5E-1,-9.536743E-7,1.5E-1,-9.536743E-7,1.5E-1,-9.536743E-7,1.5E-1,-2.982659E-1,1.5E-1],"split_indices":[4060,4147,0,6785,0,11689,0,11704,0,12244,0,0,0],"split_type":[0,0,0,0,0,0,0,0,0,0,0,0,0],"sum_hessian":[1.562E3,1.561E3,1E0,1.56E3,1E0,1.559E3,1E0,1.558E3,1E0,1.557E3,1E0,1.556E3,1E0],"tree_param":{"num_deleted":"0","num_feature":"27232","num_nodes":"13","size_leaf_vector":"0"}},{"base_weights":[9.7727275E-1],"categories":[],"categories_nodes":[],"categories_segments":[],"categories_sizes":[],"default_left":[0],"id":22,"left_children":[-1],"loss_changes":[0E0],"parents":[2147483647],"right_children":[-1],"split_conditions":[2.9318184E-1],"split_indices":[0],"split_type":[0],"sum_hessian":[4.3E1],"tree_param":{"num_deleted":"0","num_feature":"27232","num_nodes":"1","size_leaf_vector":"0"}},{"base_weights":[-5.833333E-1,-9.5454544E-1,-0E0,5E-1,-8.333333E-1,-6.666667E-1,8.75E-1],"categories":[],"categories_nodes":[],"categories_segments":[],"categories_sizes":[],"default_left":[0,0,1,0,0,0,0],"id":23,"left_children":[1,-1,3,5,-1,-1,-1],"loss_changes":[7.795454E0,0E0,6.6666665E0,4.9583335E0,0E0,0E0,0E0],"parents":[2147483647,0,0,2,2,3,3],"right_children":[2,-1,4,6,-1,-1,-1],"split_conditions":[1.5E0,-2.8636363E-1,1.5E0,1.5E0,-2.5E-1,-2.0000002E-1,2.6250002E-1],"split_indices":[1354,0,273,755,0,0,0],"split_type":[0,0,0,0,0,0,0],"sum_hessian":[3.5E1,2.1E1,1.4E1,9E0,5E0,2E0,7E0],"tree_param":{"num_deleted":"0","num_feature":"27232","num_nodes":"7","size_leaf_vector":"0"}},{"base_weights":[-9.597135E-1,9.230769E-1,-9.809955E-1,-9.9E-1,8.333333E-1,-9.9181074E-1,5E-1,-9.9362475E-1,5E-1,-9.954421E-1,5E-1,-9.972628E-1,5E-1],"categories":[],"categories_nodes":[],"categories_segments":[],"categories_sizes":[],"default_left":[0,0,1,1,0,1,0,1,0,1,0,0,0],"id":24,"left_children":[1,-1,3,5,-1,7,-1,9,-1,11,-1,-1,-1],"loss_changes":[4.5663086E1,0E0,1.8877563E1,3.463745E0,0E0,3.4709473E0,0E0,3.4781494E0,0E0,3.4853516E0,0E0,0E0,0E0],"parents":[2147483647,0,0,2,2,3,3,5,5,7,7,9,9],"right_children":[2,-1,4,6,-1,8,-1,10,-1,12,-1,-1,-1],"split_conditions":[1.5E0,2.769231E-1,1.5E0,-9.536743E-7,2.5E-1,-9.536743E-7,1.5E-1,-9.536743E-7,1.5E-1,-9.536743E-7,1.5E-1,-2.9917884E-1,1.5E-1],"split_indices":[1354,0,273,490,0,3314,0,3383,0,3822,0,0,0],"split_type":[0,0,0,0,0,0,0,0,0,0,0,0,0],"sum_hessian":[1.116E3,1.2E1,1.104E3,1.099E3,5E0,1.098E3,1E0,1.097E3,1E0,1.096E3,1E0,1.095E3,1E0],"tree_param":{"num_deleted":"0","num_feature":"27232","num_nodes":"13","size_leaf_vector":"0"}},{"base_weights":[-4.722222E-1,-9.5454544E-1,2.6666668E-1,9E-1,-8.333333E-1],"categories":[],"categories_nodes":[],"categories_segments":[],"categories_sizes":[],"default_left":[0,0,1,0,0],"id":25,"left_children":[1,-1,3,-1,-1],"loss_changes":[1.3084344E1,0E0,1.12E1,0E0,0E0],"parents":[2147483647,0,0,2,2],"right_children":[2,-1,4,-1,-1],"split_conditions":[1.5E0,-2.8636363E-1,1.5E0,2.7E-1,-2.5E-1],"split_indices":[1354,0,273,0,0],"split_type":[0,0,0,0,0],"sum_hessian":[3.5E1,2.1E1,1.4E1,9E0,5E0],"tree_param":{"num_deleted":"0","num_feature":"27232","num_nodes":"5","size_leaf_vector":"0"}},{"base_weights":[-9.581478E-1,9.230769E-1,-9.7929794E-1,-9.882459E-1,8.333333E-1,-9.9004525E-1,5E-1,-9.918478E-1,5E-1,-9.9365366E-1,5E-1,-9.954628E-1,5E-1],"categories":[],"categories_nodes":[],"categories_segments":[],"categories_sizes":[],"default_left":[0,0,1,1,0,1,0,1,0,1,0,0,0],"id":26,"left_children":[1,-1,3,5,-1,7,-1,9,-1,11,-1,-1,-1],"loss_changes":[4.558606E1,0E0,1.8843262E1,3.456665E0,0E0,3.4638672E0,0E0,3.4710693E0,0E0,3.4782715E0,0E0,0E0,0E0],"parents":[2147483647,0,0,2,2,3,3,5,5,7,7,9,9],"right_children":[2,-1,4,6,-1,8,-1,10,-1,12,-1,-1,-1],"split_conditions":[1.5E0,2.769231E-1,1.5E0,1.5E0,2.5E-1,-9.536743E-7,1.5E-1,-9.536743E-7,1.5E-1,-9.536743E-7,1.5E-1,-2.9863885E-1,1.5E-1],"split_indices":[1354,0,273,538,0,3822,0,6895,0,12591,0,0,0],"split_type":[0,0,0,0,0,0,0,0,0,0,0,0,0],"sum_hessian":[1.122E3,1.2E1,1.11E3,1.105E3,5E0,1.104E3,1E0,1.103E3,1E0,1.102E3,1E0,1.101E3,1E0],"tree_param":{"num_deleted":"0","num_feature":"27232","num_nodes":"13","size_leaf_vector":"0"}},{"base_weights":[-5.1428574E-1,-9.5454544E-1,2.1428572E-1,8.888889E-1,-8.333333E-1],"categories":[],"categories_nodes":[],"categories_segments":[],"categories_sizes":[],"default_left":[0,0,1,0,0],"id":27,"left_children":[1,-1,3,-1,-1],"loss_changes":[1.1431168E1,0E0,1.063492E1,0E0,0E0],"parents":[2147483647,0,0,2,2],"right_children":[2,-1,4,-1,-1],"split_conditions":[1.5E0,-2.8636363E-1,1.5E0,2.6666668E-1,-2.5E-1],"split_indices":[1354,0,273,0,0],"split_type":[0,0,0,0,0],"sum_hessian":[3.4E1,2.1E1,1.3E1,8E0,5E0],"tree_param":{"num_deleted":"0","num_feature":"27232","num_nodes":"5","size_leaf_vector":"0"}},{"base_weights":[-9.5989305E-1,9.230769E-1,-9.8108107E-1,-9.9004525E-1,8.333333E-1,-9.918478E-1,5E-1,-9.9365366E-1,5E-1,-9.954628E-1,5E-1,5E-1,-9.9727523E-1],"categories":[],"categories_nodes":[],"categories_segments":[],"categories_sizes":[],"default_left":[0,0,1,1,0,1,0,1,0,0,0,0,0],"id":28,"left_children":[1,-1,3,5,-1,7,-1,9,-1,11,-1,-1,-1],"loss_changes":[4.5669434E1,0E0,1.8878784E1,3.4638672E0,0E0,3.4710693E0,0E0,3.4782715E0,0E0,3.4854736E0,0E0,0E0,0E0],"parents":[2147483647,0,0,2,2,3,3,5,5,7,7,9,9],"right_children":[2,-1,4,6,-1,8,-1,10,-1,12,-1,-1,-1],"split_conditions":[1.5E0,2.769231E-1,1.5E0,1.5E0,2.5E-1,1.5E0,1.5E-1,-9.536743E-7,1.5E-1,2.000001E0,1.5E-1,1.5E-1,-2.991826E-1],"split_indices":[1354,0,273,538,0,1529,0,13257,0,14360,0,0,0],"split_type":[0,0,0,0,0,0,0,0,0,0,0,0,0],"sum_hessian":[1.121E3,1.2E1,1.109E3,1.104E3,5E0,1.103E3,1E0,1.102E3,1E0,1.101E3,1E0,1E0,1.1E3],"tree_param":{"num_deleted":"0","num_feature":"27232","num_nodes":"13","size_leaf_vector":"0"}},{"base_weights":[-5.1428574E-1,-9.5454544E-1,2.1428572E-1,8.888889E-1,-8.333333E-1],"categories":[],"categories_nodes":[],"categories_segments":[],"categories_sizes":[],"default_left":[0,0,1,0,0],"id":29,"left_children":[1,-1,3,-1,-1],"loss_changes":[1.1431168E1,0E0,1.063492E1,0E0,0E0],"parents":[2147483647,0,0,2,2],"right_children":[2,-1,4,-1,-1],"split_conditions":[1.5E0,-2.8636363E-1,1.5E0,2.6666668E-1,-2.5E-1],"split_indices":[1354,0,273,0,0],"split_type":[0,0,0,0,0],"sum_hessian":[3.4E1,2.1E1,1.3E1,8E0,5E0],"tree_param":{"num_deleted":"0","num_feature":"27232","num_nodes":"5","size_leaf_vector":"0"}},{"base_weights":[-9.6160716E-1,9.230769E-1,-9.82852E-1,-9.918404E-1,8.333333E-1,-9.9364793E-1,5E-1,-9.9545866E-1,5E-1,5E-1,-9.9727273E-1,-9.990901E-1,5E-1],"categories":[],"categories_nodes":[],"categories_segments":[],"categories_sizes":[],"default_left":[0,0,1,1,0,1,0,0,0,0,1,0,0],"id":30,"left_children":[1,-1,3,5,-1,7,-1,9,-1,-1,11,-1,-1],"loss_changes":[4.575183E1,0E0,1.8914307E1,3.4709473E0,0E0,3.4782715E0,0E0,3.4854736E0,0E0,0E0,3.4926758E0,0E0,0E0],"parents":[2147483647,0,0,2,2,3,3,5,5,7,7,10,10],"right_children":[2,-1,4,6,-1,8,-1,10,-1,-1,12,-1,-1],"split_conditions":[1.5E0,2.769231E-1,1.5E0,1.5E0,2.5E-1,-9.536743E-7,1.5E-1,2.000001E0,1.5E-1,1.5E-1,-9.536743E-7,-2.9972702E-1,1.5E-1],"split_indices":[1354,0,273,538,0,13257,0,14360,0,0,14727,0,0],"split_type":[0,0,0,0,0,0,0,0,0,0,0,0,0],"sum_hessian":[1.119E3,1.2E1,1.107E3,1.102E3,5E0,1.101E3,1E0,1.1E3,1E0,1E0,1.099E3,1.098E3,1E0],"tree_param":{"num_deleted":"0","num_feature":"27232","num_nodes":"13","size_leaf_vector":"0"}},{"base_weights":[-4.722222E-1,-7.916667E-1,1.5384616E-1,-9.5454544E-1,6.666667E-1,8.75E-1,-8.333333E-1],"categories":[],"categories_nodes":[],"categories_segments":[],"categories_sizes":[],"default_left":[0,1,1,0,0,0,0],"id":31,"left_children":[1,3,5,-1,-1,-1,-1],"loss_changes":[7.321582E0,6.337121E0,9.9839735E0,0E0,0E0,0E0,0E0],"parents":[2147483647,0,0,1,1,2,2],"right_children":[2,4,6,-1,-1,-1,-1],"split_conditions":[1.5E0,1.5E0,1.5E0,-2.8636363E-1,2.0000002E-1,2.6250002E-1,-2.5E-1],"split_indices":[1354,253,273,0,0,0,0],"split_type":[0,0,0,0,0,0,0],"sum_hessian":[3.5E1,2.3E1,1.2E1,2.1E1,2E0,7E0,5E0],"tree_param":{"num_deleted":"0","num_feature":"27232","num_nodes":"7","size_leaf_vector":"0"}},{"base_weights":[-9.65085E-1,9.0909094E-1,-9.828365E-1,-9.9183303E-1,8.333333E-1,-9.9364215E-1,5E-1,-9.9545455E-1,5E-1,5E-1,-9.972702E-1,-9.9908924E-1,5E-1],"categories":[],"categories_nodes":[],"categories_segments":[],"categories_sizes":[],"default_left":[0,0,1,1,0,1,0,0,0,0,1,0,0],"id":32,"left_children":[1,-1,3,5,-1,7,-1,9,-1,-1,11,-1,-1],"loss_changes":[3.8055298E1,0E0,1.8914062E1,3.4710693E0,0E0,3.4781494E0,0E0,3.4854736E0,0E0,0E0,3.4926758E0,0E0,0E0],"parents":[2147483647,0,0,2,2,3,3,5,5,7,7,10,10],"right_children":[2,-1,4,6,-1,8,-1,10,-1,-1,12,-1,-1],"split_conditions":[1.5E0,2.7272728E-1,1.5E0,-9.536743E-7,2.5E-1,-9.536743E-7,1.5E-1,2.000001E0,1.5E-1,1.5E-1,-9.536743E-7,-2.9972678E-1,1.5E-1],"split_indices":[1354,0,273,3822,0,13257,0,14360,0,0,14727,0,0],"split_type":[0,0,0,0,0,0,0,0,0,0,0,0,0],"sum_hessian":[1.116E3,1E1,1.106E3,1.101E3,5E0,1.1E3,1E0,1.099E3,1E0,1E0,1.098E3,1.097E3,1E0],"tree_param":{"num_deleted":"0","num_feature":"27232","num_nodes":"13","size_leaf_vector":"0"}},{"base_weights":[-2.0454545E-1,-8.695652E-1,5E-1,5E-1,-9.5454544E-1,9.411765E-1,-8.333333E-1],"categories":[],"categories_nodes":[],"categories_segments":[],"categories_sizes":[],"default_left":[0,0,1,0,0,0,0],"id":33,"left_children":[1,3,5,-1,-1,-1,-1],"loss_changes":[2.1050394E1,3.15415E0,1.3725491E1,0E0,0E0,0E0,0E0],"parents":[2147483647,0,0,1,1,2,2],"right_children":[2,4,6,-1,-1,-1,-1],"split_conditions":[1.5E0,2.000001E0,1.5E0,1.5E-1,-2.8636363E-1,2.8235295E-1,-2.5E-1],"split_indices":[1354,7,273,0,0,0,0],"split_type":[0,0,0,0,0,0,0],"sum_hessian":[4.3E1,2.2E1,2.1E1,1E0,2.1E1,1.6E1,5E0],"tree_param":{"num_deleted":"0","num_feature":"27232","num_nodes":"7","size_leaf_vector":"0"}},{"base_weights":[-9.6860987E-1,9E-1,-9.846293E-1,-9.9364215E-1,8.333333E-1,-9.9545455E-1,5E-1,5E-1,-9.972702E-1,-9.9908924E-1,5E-1],"categories":[],"categories_nodes":[],"categories_segments":[],"categories_sizes":[],"default_left":[0,0,1,1,0,0,0,0,1,0,0],"id":34,"left_children":[1,-1,3,5,-1,7,-1,-1,9,-1,-1],"loss_changes":[3.4262695E1,0E0,1.894983E1,3.4781494E0,0E0,3.4854736E0,0E0,0E0,3.4926758E0,0E0,0E0],"parents":[2147483647,0,0,2,2,3,3,5,5,8,8],"right_children":[2,-1,4,6,-1,8,-1,-1,10,-1,-1],"split_conditions":[1.5E0,2.7E-1,1.5E0,-9.536743E-7,2.5E-1,2.000001E0,1.5E-1,1.5E-1,-9.536743E-7,-2.9972678E-1,1.5E-1],"split_indices":[1354,0,273,13257,0,14360,0,0,14727,0,0],"split_type":[0,0,0,0,0,0,0,0,0,0,0],"sum_hessian":[1.114E3,9E0,1.105E3,1.1E3,5E0,1.099E3,1E0,1E0,1.098E3,1.097E3,1E0],"tree_param":{"num_deleted":"0","num_feature":"27232","num_nodes":"11","size_leaf_vector":"0"}},{"base_weights":[-2.6190478E-1,-8.695652E-1,4.5E-1,5E-1,-9.5454544E-1,9.3333334E-1,-8.333333E-1],"categories":[],"categories_nodes":[],"categories_segments":[],"categories_sizes":[],"default_left":[0,0,1,0,0,0,0],"id":35,"left_children":[1,3,5,-1,-1,-1,-1],"loss_changes":[1.856035E1,3.15415E0,1.3183333E1,0E0,0E0,0E0,0E0],"parents":[2147483647,0,0,1,1,2,2],"right_children":[2,4,6,-1,-1,-1,-1],"split_conditions":[1.5E0,1.5E0,1.5E0,1.5E-1,-2.8636363E-1,2.8E-1,-2.5E-1],"split_indices":[1354,193,273,0,0,0,0],"split_type":[0,0,0,0,0,0,0],"sum_hessian":[4.1E1,2.2E1,1.9E1,1E0,2.1E1,1.4E1,5E0],"tree_param":{"num_deleted":"0","num_feature":"27232","num_nodes":"7","size_leaf_vector":"0"}},{"base_weights":[-9.756976E-1,8.75E-1,-9.882246E-1,-9.972702E-1,8.333333E-1,5E-1,-9.9908924E-1],"categories":[],"categories_nodes":[],"categories_segments":[],"categories_sizes":[],"default_left":[0,0,1,0,0,0,0],"id":36,"left_children":[1,-1,3,5,-1,-1,-1],"loss_changes":[2.6621948E1,0E0,1.9021729E1,3.4926758E0,0E0,0E0,0E0],"parents":[2147483647,0,0,2,2,3,3],"right_children":[2,-1,4,6,-1,-1,-1],"split_conditions":[1.5E0,2.6250002E-1,1.5E0,2.000001E0,2.5E-1,1.5E-1,-2.9972678E-1],"split_indices":[1354,0,273,14360,0,0,0],"split_type":[0,0,0,0,0,0,0],"sum_hessian":[1.11E3,7E0,1.103E3,1.098E3,5E0,1E0,1.097E3],"tree_param":{"num_deleted":"0","num_feature":"27232","num_nodes":"7","size_leaf_vector":"0"}},{"base_weights":[-2.9268292E-1,5.882353E-1,-8.8E-1,9.285714E-1,-7.5E-1,-9.583333E-1,5E-1],"categories":[],"categories_nodes":[],"categories_segments":[],"categories_sizes":[],"default_left":[0,1,0,0,0,0,0],"id":37,"left_children":[1,3,5,-1,-1,-1,-1],"loss_changes":[2.1730158E1,8.439075E0,3.1816654E0,0E0,0E0,0E0,0E0],"parents":[2147483647,0,0,1,1,2,2],"right_children":[2,4,6,-1,-1,-1,-1],"split_conditions":[4.000001E0,1.5E0,1.25E1,2.7857143E-1,-2.2500001E-1,-2.875E-1,1.5E-1],"split_indices":[864,273,0,0,0,0,0],"split_type":[0,0,0,0,0,0,0],"sum_hessian":[4E1,1.6E1,2.4E1,1.3E1,3E0,2.3E1,1E0],"tree_param":{"num_deleted":"0","num_feature":"27232","num_nodes":"7","size_leaf_vector":"0"}},{"base_weights":[-4.3055555E-1,7.7272725E-1,-9.411765E-1,-0E0,9.444444E-1,-9.8E-1,5E-1,6.666667E-1,-6.666667E-1],"categories":[],"categories_nodes":[],"categories_segments":[],"categories_sizes":[],"default_left":[0,0,1,0,0,0,0,0,0],"id":38,"left_children":[1,3,5,7,-1,-1,-1,-1,-1],"loss_changes":[4.4965614E1,2.9191914E0,3.3435287E0,2.6666667E0,0E0,0E0,0E0,0E0,0E0],"parents":[2147483647,0,0,1,1,2,2,3,3],"right_children":[2,4,6,8,-1,-1,-1,-1,-1],"split_conditions":[1.15E1,1.5E0,-9.536743E-7,3.5E0,2.8333333E-1,-2.9400003E-1,1.5E-1,2.0000002E-1,-2.0000002E-1],"split_indices":[0,864,6,0,0,0,0,0,0],"split_type":[0,0,0,0,0,0,0,0,0],"sum_hessian":[7.1E1,2.1E1,5E1,4E0,1.7E1,4.9E1,1E0,2E0,2E0],"tree_param":{"num_deleted":"0","num_feature":"27232","num_nodes":"9","size_leaf_vector":"0"}},{"base_weights":[-5.9375E-1,-8.8E-1,3.75E-1,-9.583333E-1,5E-1,8.333333E-1,-6.666667E-1],"categories":[],"categories_nodes":[],"categories_segments":[],"categories_sizes":[],"default_left":[0,1,1,0,0,0,0],"id":39,"left_children":[1,3,5,-1,-1,-1,-1],"loss_changes":[9.203751E0,3.1816654E0,4.375E0,0E0,0E0,0E0,0E0],"parents":[2147483647,0,0,1,1,2,2],"right_children":[2,4,6,-1,-1,-1,-1],"split_conditions":[1.05E1,2.5E0,-9.536743E-7,-2.875E-1,1.5E-1,2.5E-1,-2.0000002E-1],"split_indices":[0,63,5,0,0,0,0],"split_type":[0,0,0,0,0,0,0],"sum_hessian":[3.1E1,2.4E1,7E0,2.3E1,1E0,5E0,2E0],"tree_param":{"num_deleted":"0","num_feature":"27232","num_nodes":"7","size_leaf_vector":"0"}},{"base_weights":[-5.76E-1,9.6153843E-1,-9.7E-1,-9.89899E-1,5E-1],"categories":[],"categories_nodes":[],"categories_segments":[],"categories_sizes":[],"default_left":[0,0,1,0,0],"id":40,"left_children":[1,-1,3,-1,-1],"loss_changes":[7.6656456E1,0E0,3.420105E0,0E0,0E0],"parents":[2147483647,0,0,2,2],"right_children":[2,-1,4,-1,-1],"split_conditions":[1.05E1,2.8846154E-1,-9.536743E-7,-2.969697E-1,1.5E-1],"split_indices":[0,0,5,0,0],"split_type":[0,0,0,0,0],"sum_hessian":[1.24E2,2.5E1,9.9E1,9.8E1,1E0],"tree_param":{"num_deleted":"0","num_feature":"27232","num_nodes":"5","size_leaf_vector":"0"}},{"base_weights":[-5.833333E-1,-9.62963E-1,5E-1,-6.666667E-1,8.75E-1],"categories":[],"categories_nodes":[],"categories_segments":[],"categories_sizes":[],"default_left":[0,0,0,0,0],"id":41,"left_children":[1,-1,3,-1,-1],"loss_changes":[1.5287037E1,0E0,4.9583335E0,0E0,0E0],"parents":[2147483647,0,0,2,2],"right_children":[2,-1,4,-1,-1],"split_conditions":[1.05E1,-2.888889E-1,2.5E0,-2.0000002E-1,2.6250002E-1],"split_indices":[0,0,203,0,0],"split_type":[0,0,0,0,0],"sum_hessian":[3.5E1,2.6E1,9E0,2E0,7E0],"tree_param":{"num_deleted":"0","num_feature":"27232","num_nodes":"5","size_leaf_vector":"0"}},{"base_weights":[-5.350877E-1,9.6153843E-1,-9.6629214E-1,-9.886364E-1,5E-1],"categories":[],"categories_nodes":[],"categories_segments":[],"categories_sizes":[],"default_left":[0,0,1,0,0],"id":42,"left_children":[1,-1,3,-1,-1],"loss_changes":[7.449923E1,0E0,3.4102402E0,0E0,0E0],"parents":[2147483647,0,0,2,2],"right_children":[2,-1,4,-1,-1],"split_conditions":[1.05E1,2.8846154E-1,1.5E0,-2.9659092E-1,1.5E-1],"split_indices":[0,0,94,0,0],"split_type":[0,0,0,0,0],"sum_hessian":[1.13E2,2.5E1,8.8E1,8.7E1,1E0],"tree_param":{"num_deleted":"0","num_feature":"27232","num_nodes":"5","size_leaf_vector":"0"}},{"base_weights":[-4.722222E-1,-9.62963E-1,9E-1],"categories":[],"categories_nodes":[],"categories_segments":[],"categories_sizes":[],"default_left":[0,0,0],"id":43,"left_children":[1,-1,-1],"loss_changes":[2.510926E1,0E0,0E0],"parents":[2147483647,0,0],"right_children":[2,-1,-1],"split_conditions":[1.05E1,-2.888889E-1,2.7E-1],"split_indices":[0,0,0],"split_type":[0,0,0],"sum_hessian":[3.5E1,2.6E1,9E0],"tree_param":{"num_deleted":"0","num_feature":"27232","num_nodes":"3","size_leaf_vector":"0"}},{"base_weights":[-3.7804878E-1,9.6153843E-1,-9.8245615E-1],"categories":[],"categories_nodes":[],"categories_segments":[],"categories_sizes":[],"default_left":[0,0,0],"id":44,"left_children":[1,-1,-1],"loss_changes":[6.7336494E1,0E0,0E0],"parents":[2147483647,0,0],"right_children":[2,-1,-1],"split_conditions":[1.05E1,2.8846154E-1,-2.9473686E-1],"split_indices":[0,0,0],"split_type":[0,0,0],"sum_hessian":[8.1E1,2.5E1,5.6E1],"tree_param":{"num_deleted":"0","num_feature":"27232","num_nodes":"3","size_leaf_vector":"0"}},{"base_weights":[-4.722222E-1,-9.62963E-1,9E-1],"categories":[],"categories_nodes":[],"categories_segments":[],"categories_sizes":[],"default_left":[0,0,0],"id":45,"left_children":[1,-1,-1],"loss_changes":[2.510926E1,0E0,0E0],"parents":[2147483647,0,0],"right_children":[2,-1,-1],"split_conditions":[1.05E1,-2.888889E-1,2.7E-1],"split_indices":[0,0,0],"split_type":[0,0,0],"sum_hessian":[3.5E1,2.6E1,9E0],"tree_param":{"num_deleted":"0","num_feature":"27232","num_nodes":"3","size_leaf_vector":"0"}},{"base_weights":[-3.7804878E-1,9.6153843E-1,-9.8245615E-1],"categories":[],"categories_nodes":[],"categories_segments":[],"categories_sizes":[],"default_left":[0,0,0],"id":46,"left_children":[1,-1,-1],"loss_changes":[6.7336494E1,0E0,0E0],"parents":[2147483647,0,0],"right_children":[2,-1,-1],"split_conditions":[1.05E1,2.8846154E-1,-2.9473686E-1],"split_indices":[0,0,0],"split_type":[0,0,0],"sum_hessian":[8.1E1,2.5E1,5.6E1],"tree_param":{"num_deleted":"0","num_feature":"27232","num_nodes":"3","size_leaf_vector":"0"}},{"base_weights":[-4.722222E-1,-9.62963E-1,9E-1],"categories":[],"categories_nodes":[],"categories_segments":[],"categories_sizes":[],"default_left":[0,0,0],"id":47,"left_children":[1,-1,-1],"loss_changes":[2.510926E1,0E0,0E0],"parents":[2147483647,0,0],"right_children":[2,-1,-1],"split_conditions":[1.05E1,-2.888889E-1,2.7E-1],"split_indices":[0,0,0],"split_type":[0,0,0],"sum_hessian":[3.5E1,2.6E1,9E0],"tree_param":{"num_deleted":"0","num_feature":"27232","num_nodes":"3","size_leaf_vector":"0"}},{"base_weights":[2.75E-1,9.6153843E-1,-9.3333334E-1],"categories":[],"categories_nodes":[],"categories_segments":[],"categories_sizes":[],"default_left":[0,0,0],"id":48,"left_children":[1,-1,-1],"loss_changes":[3.4080128E1,0E0,0E0],"parents":[2147483647,0,0],"right_children":[2,-1,-1],"split_conditions":[1.05E1,2.8846154E-1,-2.8E-1],"split_indices":[0,0,0],"split_type":[0,0,0],"sum_hessian":[3.9E1,2.5E1,1.4E1],"tree_param":{"num_deleted":"0","num_feature":"27232","num_nodes":"3","size_leaf_vector":"0"}},{"base_weights":[-4.722222E-1,-9.62963E-1,9E-1],"categories":[],"categories_nodes":[],"categories_segments":[],"categories_sizes":[],"default_left":[0,0,0],"id":49,"left_children":[1,-1,-1],"loss_changes":[2.510926E1,0E0,0E0],"parents":[2147483647,0,0],"right_children":[2,-1,-1],"split_conditions":[1.05E1,-2.888889E-1,2.7E-1],"split_indices":[0,0,0],"split_type":[0,0,0],"sum_hessian":[3.5E1,2.6E1,9E0],"tree_param":{"num_deleted":"0","num_feature":"27232","num_nodes":"3","size_leaf_vector":"0"}},{"base_weights":[2.75E-1,9.6153843E-1,-9.3333334E-1],"categories":[],"categories_nodes":[],"categories_segments":[],"categories_sizes":[],"default_left":[0,0,0],"id":50,"left_children":[1,-1,-1],"loss_changes":[3.4080128E1,0E0,0E0],"parents":[2147483647,0,0],"right_children":[2,-1,-1],"split_conditions":[1.05E1,2.8846154E-1,-2.8E-1],"split_indices":[0,0,0],"split_type":[0,0,0],"sum_hessian":[3.9E1,2.5E1,1.4E1],"tree_param":{"num_deleted":"0","num_feature":"27232","num_nodes":"3","size_leaf_vector":"0"}},{"base_weights":[-4.722222E-1,-9.62963E-1,9E-1],"categories":[],"categories_nodes":[],"categories_segments":[],"categories_sizes":[],"default_left":[0,0,0],"id":51,"left_children":[1,-1,-1],"loss_changes":[2.510926E1,0E0,0E0],"parents":[2147483647,0,0],"right_children":[2,-1,-1],"split_conditions":[1.05E1,-2.888889E-1,2.7E-1],"split_indices":[0,0,0],"split_type":[0,0,0],"sum_hessian":[3.5E1,2.6E1,9E0],"tree_param":{"num_deleted":"0","num_feature":"27232","num_nodes":"3","size_leaf_vector":"0"}},{"base_weights":[2.9268292E-1,9.62963E-1,-9.3333334E-1],"categories":[],"categories_nodes":[],"categories_segments":[],"categories_sizes":[],"default_left":[1,0,0],"id":52,"left_children":[1,-1,-1],"loss_changes":[3.4591507E1,0E0,0E0],"parents":[2147483647,0,0],"right_children":[2,-1,-1],"split_conditions":[1.05E1,2.888889E-1,-2.8E-1],"split_indices":[0,0,0],"split_type":[0,0,0],"sum_hessian":[4E1,2.6E1,1.4E1],"tree_param":{"num_deleted":"0","num_feature":"27232","num_nodes":"3","size_leaf_vector":"0"}},{"base_weights":[-9.1525424E-1,-9.941176E-1,8.75E-1],"categories":[],"categories_nodes":[],"categories_segments":[],"categories_sizes":[],"default_left":[1,0,0],"id":53,"left_children":[1,-1,-1],"loss_changes":[2.585971E1,0E0,0E0],"parents":[2147483647,0,0],"right_children":[2,-1,-1],"split_conditions":[1.05E1,-2.982353E-1,2.6250002E-1],"split_indices":[0,0,0],"split_type":[0,0,0],"sum_hessian":[1.76E2,1.69E2,7E0],"tree_param":{"num_deleted":"0","num_feature":"27232","num_nodes":"3","size_leaf_vector":"0"}},{"base_weights":[3.255814E-1,9.6428573E-1,-8.125E-1,-9.3333334E-1,5E-1],"categories":[],"categories_nodes":[],"categories_segments":[],"categories_sizes":[],"default_left":[1,0,0,0,0],"id":54,"left_children":[1,-1,3,-1,-1],"loss_changes":[3.2040073E1,0E0,3.0041666E0,0E0,0E0],"parents":[2147483647,0,0,2,2],"right_children":[2,-1,4,-1,-1],"split_conditions":[1.05E1,2.8928572E-1,1.15E1,-2.8E-1,1.5E-1],"split_indices":[0,0,0,0,0],"split_type":[0,0,0,0,0],"sum_hessian":[4.2E1,2.7E1,1.5E1,1.4E1,1E0],"tree_param":{"num_deleted":"0","num_feature":"27232","num_nodes":"5","size_leaf_vector":"0"}},{"base_weights":[-9.6666664E-1,5E-1,-9.7607654E-1,-9.855769E-1,5E-1,5E-1,-9.951691E-1],"categories":[],"categories_nodes":[],"categories_segments":[],"categories_sizes":[],"default_left":[0,0,1,0,0,0,0],"id":55,"left_children":[1,-1,3,5,-1,-1,-1],"loss_changes":[3.3862762E0,0E0,3.4236603E0,3.461563E0,0E0,0E0,0E0],"parents":[2147483647,0,0,2,2,3,3],"right_children":[2,-1,4,6,-1,-1,-1],"split_conditions":[1.5E0,1.5E-1,-9.536743E-7,1.5E0,1.5E-1,1.5E-1,-2.9855075E-1],"split_indices":[177,0,478,1178,0,0,0],"split_type":[0,0,0,0,0,0,0],"sum_hessian":[2.09E2,1E0,2.08E2,2.07E2,1E0,1E0,2.06E2],"tree_param":{"num_deleted":"0","num_feature":"27232","num_nodes":"7","size_leaf_vector":"0"}},{"base_weights":[2.7083334E-1,6.1764705E-1,-5.3333336E-1,-8.333333E-1,8.965517E-1,6.666667E-1,-7.692308E-1,-5E-1,9.6428573E-1,-9.166667E-1,5E-1],"categories":[],"categories_nodes":[],"categories_segments":[],"categories_sizes":[],"default_left":[0,0,0,0,0,0,1,0,0,0,0],"id":56,"left_children":[1,3,5,-1,7,-1,9,-1,-1,-1,-1],"loss_changes":[1.3716422E1,1.4506422E1,4.7589736E0,0E0,3.2253704E0,0E0,2.8910255E0,0E0,0E0,0E0,0E0],"parents":[2147483647,0,0,1,1,2,2,4,4,6,6],"right_children":[2,4,6,-1,8,-1,10,-1,-1,-1,-1],"split_conditions":[1.45E1,1.5E0,1.5E0,-2.5E-1,1.5E0,2.0000002E-1,2.5E0,-1.5E-1,2.8928572E-1,-2.75E-1,1.5E-1],"split_indices":[11,1178,528,0,177,0,10,0,0,0,0],"split_type":[0,0,0,0,0,0,0,0,0,0,0],"sum_hessian":[4.7E1,3.3E1,1.4E1,5E0,2.8E1,2E0,1.2E1,1E0,2.7E1,1.1E1,1E0],"tree_param":{"num_deleted":"0","num_feature":"27232","num_nodes":"11","size_leaf_vector":"0"}},{"base_weights":[-7.592593E-1,-8.6E-1,4E-1,2.5E-1,-9.361702E-1,7.5E-1,-5E-1,6.666667E-1,-5E-1,5E-1,-9.782609E-1],"categories":[],"categories_nodes":[],"categories_segments":[],"categories_sizes":[],"default_left":[0,0,0,0,0,0,0,0,0,0,0],"id":57,"left_children":[1,3,5,7,9,-1,-1,-1,-1,-1,-1],"loss_changes":[6.6503696E0,4.4614906E0,1.95E0,1.5833334E0,3.3302498E0,0E0,0E0,0E0,0E0,0E0,0E0],"parents":[2147483647,0,0,1,1,2,2,3,3,4,4],"right_children":[2,4,6,8,10,-1,-1,-1,-1,-1,-1],"split_conditions":[1.25E1,1.5E0,4.5E0,7.5E0,1.5E0,2.2500001E-1,-1.5E-1,2.0000002E-1,-1.5E-1,1.5E-1,-2.9347828E-1],"split_indices":[11,5864,0,0,177,0,0,0,0,0,0],"split_type":[0,0,0,0,0,0,0,0,0,0,0],"sum_hessian":[5.3E1,4.9E1,4E0,3E0,4.6E1,3E0,1E0,2E0,1E0,1E0,4.5E1],"tree_param":{"num_deleted":"0","num_feature":"27232","num_nodes":"11","size_leaf_vector":"0"}},{"base_weights":[7.6666665E-1,-6.666667E-1,8.9285713E-1,-5E-1,9.62963E-1],"categories":[],"categories_nodes":[],"categories_segments":[],"categories_sizes":[],"default_left":[0,0,0,0,0],"id":58,"left_children":[1,-1,3,-1,-1],"loss_changes":[6.021429E0,0E0,3.2156086E0,0E0,0E0],"parents":[2147483647,0,0,2,2],"right_children":[2,-1,4,-1,-1],"split_conditions":[1.5E0,-2.0000002E-1,1.5E0,-1.5E-1,2.888889E-1],"split_indices":[2899,0,480,0,0],"split_type":[0,0,0,0,0],"sum_hessian":[2.9E1,2E0,2.7E1,1E0,2.6E1],"tree_param":{"num_deleted":"0","num_feature":"27232","num_nodes":"5","size_leaf_vector":"0"}},{"base_weights":[-7.816092E-1,6.666667E-1,-8.235294E-1,-8.674699E-1,6.666667E-1,6.666667E-1,-9.1358024E-1,-2.2222222E-1,-9.8630136E-1,-8E-1,4E-1,-5E-1,7.5E-1],"categories":[],"categories_nodes":[],"categories_segments":[],"categories_sizes":[],"default_left":[0,0,1,0,0,0,0,0,0,0,0,0,0],"id":59,"left_children":[1,-1,3,5,-1,-1,7,9,-1,-1,11,-1,-1],"loss_changes":[5.830967E0,0E0,6.144104E0,6.480438E0,0E0,0E0,3.8532104E0,3.5555556E0,0E0,0E0,1.95E0,0E0,0E0],"parents":[2147483647,0,0,2,2,3,3,6,6,7,7,10,10],"right_children":[2,-1,4,6,-1,-1,8,10,-1,-1,12,-1,-1],"split_conditions":[1.5E0,2.0000002E-1,-9.536743E-7,1.5E0,2.0000002E-1,2.0000002E-1,1.5E0,2.5E0,-2.9589042E-1,-2.4000001E-1,2.000001E0,-1.5E-1,2.2500001E-1],"split_indices":[480,0,1754,5549,0,0,864,0,0,0,15,0,0],"split_type":[0,0,0,0,0,0,0,0,0,0,0,0,0],"sum_hessian":[8.6E1,2E0,8.4E1,8.2E1,2E0,2E0,8E1,8E0,7.2E1,4E0,4E0,1E0,3E0],"tree_param":{"num_deleted":"0","num_feature":"27232","num_nodes":"13","size_leaf_vector":"0"}},{"base_weights":[2.6923078E-1,5E-1,-8E-1,-7.5E-1,7.368421E-1,9.375E-1,-2.5E-1,5E-1,-6.666667E-1],"categories":[],"categories_nodes":[],"categories_segments":[],"categories_sizes":[],"default_left":[1,0,0,0,0,0,0,0,0],"id":60,"left_children":[1,3,-1,-1,5,-1,7,-1,-1],"loss_changes":[6.8153844E0,7.065789E0,0E0,0E0,3.9967108E0,0E0,1.5833334E0,0E0,0E0],"parents":[2147483647,0,0,1,1,4,4,6,6],"right_children":[2,4,-1,-1,6,-1,8,-1,-1],"split_conditions":[-9.536743E-7,1.5E0,-2.4000001E-1,-2.2500001E-1,1.1E1,2.8125E-1,3.5E0,1.5E-1,-2.0000002E-1],"split_indices":[1754,864,0,0,11,0,10,0,0],"split_type":[0,0,0,0,0,0,0,0,0],"sum_hessian":[2.5E1,2.1E1,4E0,3E0,1.8E1,1.5E1,3E0,1E0,2E0],"tree_param":{"num_deleted":"0","num_feature":"27232","num_nodes":"9","size_leaf_vector":"0"}},{"base_weights":[-7.051282E-1,8.888889E-1,-9E-1,-0E0,-9.5454544E-1,6.666667E-1,-6.666667E-1,-9.846154E-1,5E-1],"categories":[],"categories_nodes":[],"categories_segments":[],"categories_sizes":[],"default_left":[0,0,0,0,1,0,0,0,0],"id":61,"left_children":[1,-1,3,5,7,-1,-1,-1,-1],"loss_changes":[2.502906E1,0E0,3.4363632E0,2.6666667E0,3.3790207E0,0E0,0E0,0E0,0E0],"parents":[2147483647,0,0,2,2,3,3,4,4],"right_children":[2,-1,4,6,8,-1,-1,-1,-1],"split_conditions":[4.000001E0,2.6666668E-1,2.5E0,6.5E0,-9.536743E-7,2.0000002E-1,-2.0000002E-1,-2.9538462E-1,1.5E-1],"split_indices":[864,0,826,0,104,0,0,0,0],"split_type":[0,0,0,0,0,0,0,0,0],"sum_hessian":[7.7E1,8E0,6.9E1,4E0,6.5E1,2E0,2E0,6.4E1,1E0],"tree_param":{"num_deleted":"0","num_feature":"27232","num_nodes":"9","size_leaf_vector":"0"}},{"base_weights":[4.2105263E-1,-7.5E-1,6.875E-1,-2.5E-1,9.230769E-1,-6.666667E-1,5E-1],"categories":[],"categories_nodes":[],"categories_segments":[],"categories_sizes":[],"default_left":[0,0,0,0,0,0,0],"id":62,"left_children":[1,-1,3,5,-1,-1,-1],"loss_changes":[6.444079E0,0E0,3.7644234E0,1.5833334E0,0E0,0E0,0E0],"parents":[2147483647,0,0,2,2,3,3],"right_children":[2,-1,4,6,-1,-1,-1],"split_conditions":[1.5E0,-2.2500001E-1,3.5E0,1.05E1,2.769231E-1,-2.0000002E-1,1.5E-1],"split_indices":[864,0,14,0,0,0,0],"split_type":[0,0,0,0,0,0,0],"sum_hessian":[1.8E1,3E0,1.5E1,3E0,1.2E1,2E0,1E0],"tree_param":{"num_deleted":"0","num_feature":"27232","num_nodes":"7","size_leaf_vector":"0"}},{"base_weights":[-8.035714E-1,7.5E-1,-9.056604E-1,6.666667E-1,-9.8039216E-1],"categories":[],"categories_nodes":[],"categories_segments":[],"categories_sizes":[],"default_left":[0,0,0,0,0],"id":63,"left_children":[1,-1,3,-1,-1],"loss_changes":[9.560986E0,0E0,6.881241E0,0E0,0E0],"parents":[2147483647,0,0,2,2],"right_children":[2,-1,4,-1,-1],"split_conditions":[1.5E0,2.2500001E-1,2.5E0,2.0000002E-1,-2.9411766E-1],"split_indices":[864,0,14,0,0],"split_type":[0,0,0,0,0],"sum_hessian":[5.5E1,3E0,5.2E1,2E0,5E1],"tree_param":{"num_deleted":"0","num_feature":"27232","num_nodes":"5","size_leaf_vector":"0"}},{"base_weights":[-1.9354838E-1,-9.411765E-1,6.666667E-1,-6.666667E-1,9.230769E-1],"categories":[],"categories_nodes":[],"categories_segments":[],"categories_sizes":[],"default_left":[0,0,0,0,0],"id":64,"left_children":[1,-1,3,-1,-1],"loss_changes":[2.05642E1,0E0,5.74359E0,0E0,0E0],"parents":[2147483647,0,0,2,2],"right_children":[2,-1,4,-1,-1],"split_conditions":[2.5E0,-2.8235295E-1,1.5E0,-2.0000002E-1,2.769231E-1],"split_indices":[14,0,864,0,0],"split_type":[0,0,0,0,0],"sum_hessian":[3E1,1.6E1,1.4E1,2E0,1.2E1],"tree_param":{"num_deleted":"0","num_feature":"27232","num_nodes":"5","size_leaf_vector":"0"}},{"base_weights":[-7.924528E-1,6.666667E-1,-8.627451E-1,6.666667E-1,-9.3877554E-1,-9.791667E-1,5E-1],"categories":[],"categories_nodes":[],"categories_segments":[],"categories_sizes":[],"default_left":[0,0,0,0,1,0,0],"id":65,"left_children":[1,-1,3,-1,5,-1,-1],"loss_changes":[6.011097E0,0E0,6.556221E0,0E0,3.3371582E0,0E0,0E0],"parents":[2147483647,0,0,2,2,4,4],"right_children":[2,-1,4,-1,6,-1,-1],"split_conditions":[2.5E0,2.0000002E-1,1.5E0,2.0000002E-1,-9.536743E-7,-2.9375002E-1,1.5E-1],"split_indices":[14,0,864,0,385,0,0],"split_type":[0,0,0,0,0,0,0],"sum_hessian":[5.2E1,2E0,5E1,2E0,4.8E1,4.7E1,1E0],"tree_param":{"num_deleted":"0","num_feature":"27232","num_nodes":"7","size_leaf_vector":"0"}},{"base_weights":[1.3636364E-1,-6.666667E-1,6.4285713E-1,5E-1,-8.75E-1,-6.666667E-1,9.166667E-1],"categories":[],"categories_nodes":[],"categories_segments":[],"categories_sizes":[],"default_left":[0,0,0,0,0,0,0],"id":66,"left_children":[1,3,5,-1,-1,-1,-1],"loss_changes":[9.376623E0,2.625E0,5.630952E0,0E0,0E0,0E0,0E0],"parents":[2147483647,0,0,1,1,2,2],"right_children":[2,4,6,-1,-1,-1,-1],"split_conditions":[2.5E0,6.5E0,1.5E0,1.5E-1,-2.6250002E-1,-2.0000002E-1,2.75E-1],"split_indices":[14,0,864,0,0,0,0],"split_type":[0,0,0,0,0,0,0],"sum_hessian":[2.1E1,8E0,1.3E1,1E0,7E0,2E0,1.1E1],"tree_param":{"num_deleted":"0","num_feature":"27232","num_nodes":"7","size_leaf_vector":"0"}},{"base_weights":[-7.4509805E-1,-8.1632656E-1,6.666667E-1,6.666667E-1,-8.9361703E-1,-9.777778E-1,6.666667E-1],"categories":[],"categories_nodes":[],"categories_segments":[],"categories_sizes":[],"default_left":[1,0,0,0,1,0,0],"id":67,"left_children":[1,3,-1,-1,5,-1,-1],"loss_changes":[5.6726665E0,6.212185E0,0E0,0E0,6.823639E0,0E0,0E0],"parents":[2147483647,0,0,1,1,4,4],"right_children":[2,4,-1,-1,6,-1,-1],"split_conditions":[3.5E0,4.000001E0,2.0000002E-1,2.0000002E-1,-9.536743E-7,-2.9333335E-1,2.0000002E-1],"split_indices":[185,498,0,0,4854,0,0],"split_type":[0,0,0,0,0,0,0],"sum_hessian":[5E1,4.8E1,2E0,2E0,4.6E1,4.4E1,2E0],"tree_param":{"num_deleted":"0","num_feature":"27232","num_nodes":"7","size_leaf_vector":"0"}},{"base_weights":[7.083333E-1,8.636364E-1,-6.666667E-1,-5E-1,9.5238096E-1],"categories":[],"categories_nodes":[],"categories_segments":[],"categories_sizes":[],"default_left":[1,0,0,0,0],"id":68,"left_children":[1,3,-1,-1,-1],"loss_changes":[5.700757E0,3.1385288E0,0E0,0E0,0E0],"parents":[2147483647,0,0,1,1],"right_children":[2,4,-1,-1,-1],"split_conditions":[-9.536743E-7,1.5E0,-2.0000002E-1,-1.5E-1,2.857143E-1],"split_indices":[4854,378,0,0,0],"split_type":[0,0,0,0,0],"sum_hessian":[2.3E1,2.1E1,2E0,1E0,2E1],"tree_param":{"num_deleted":"0","num_feature":"27232","num_nodes":"5","size_leaf_vector":"0"}},{"base_weights":[-7.758621E-1,8E-1,-9.074074E-1,-9.807692E-1,6.666667E-1],"categories":[],"categories_nodes":[],"categories_segments":[],"categories_sizes":[],"default_left":[0,0,1,0,0],"id":69,"left_children":[1,-1,3,-1,-1],"loss_changes":[1.2749172E1,0E0,6.889599E0,0E0,0E0],"parents":[2147483647,0,0,2,2],"right_children":[2,-1,4,-1,-1],"split_conditions":[1.5E0,2.4000001E-1,-9.536743E-7,-2.942308E-1,2.0000002E-1],"split_indices":[378,0,4854,0,0],"split_type":[0,0,0,0,0],"sum_hessian":[5.7E1,4E0,5.3E1,5.1E1,2E0],"tree_param":{"num_deleted":"0","num_feature":"27232","num_nodes":"5","size_leaf_vector":"0"}},{"base_weights":[7.083333E-1,8.636364E-1,-6.666667E-1,-5E-1,9.5238096E-1],"categories":[],"categories_nodes":[],"categories_segments":[],"categories_sizes":[],"default_left":[1,0,0,0,0],"id":70,"left_children":[1,3,-1,-1,-1],"loss_changes":[5.700757E0,3.1385288E0,0E0,0E0,0E0],"parents":[2147483647,0,0,1,1],"right_children":[2,4,-1,-1,-1],"split_conditions":[-9.536743E-7,1.5E0,-2.0000002E-1,-1.5E-1,2.857143E-1],"split_indices":[4854,378,0,0,0],"split_type":[0,0,0,0,0],"sum_hessian":[2.3E1,2.1E1,2E0,1E0,2E1],"tree_param":{"num_deleted":"0","num_feature":"27232","num_nodes":"5","size_leaf_vector":"0"}},{"base_weights":[-8.3928573E-1,4E-1,-9.423077E-1,7.5E-1,-5E-1,5E-1,-9.8039216E-1],"categories":[],"categories_nodes":[],"categories_segments":[],"categories_sizes":[],"default_left":[0,0,0,0,0,0,0],"id":71,"left_children":[1,3,5,-1,-1,-1,-1],"loss_changes":[7.5266457E0,1.95E0,3.346531E0,0E0,0E0,0E0,0E0],"parents":[2147483647,0,0,1,1,2,2],"right_children":[2,4,6,-1,-1,-1,-1],"split_conditions":[1.5E0,7.5E0,1.5E0,2.2500001E-1,-1.5E-1,1.5E-1,-2.9411766E-1],"split_indices":[1354,0,94,0,0,0,0],"split_type":[0,0,0,0,0,0,0],"sum_hessian":[5.5E1,4E0,5.1E1,3E0,1E0,1E0,5E1],"tree_param":{"num_deleted":"0","num_feature":"27232","num_nodes":"7","size_leaf_vector":"0"}},{"base_weights":[1.21212125E-1,-8.75E-1,4.2307693E-1,-5E-1,9.411765E-1,-8.75E-1,6.666667E-1],"categories":[],"categories_nodes":[],"categories_segments":[],"categories_sizes":[],"default_left":[0,0,0,0,0,0,0],"id":72,"left_children":[1,-1,3,5,-1,-1,-1],"loss_changes":[1.0293999E1,0E0,1.2904976E1,4.9583335E0,0E0,0E0,0E0],"parents":[2147483647,0,0,2,2,3,3],"right_children":[2,-1,4,6,-1,-1,-1],"split_conditions":[1.5E0,-2.6250002E-1,1.5E0,7.5E0,2.8235295E-1,-2.6250002E-1,2.0000002E-1],"split_indices":[94,0,1354,0,0,0,0],"split_type":[0,0,0,0,0,0,0],"sum_hessian":[3.2E1,7E0,2.5E1,9E0,1.6E1,7E0,2E0],"tree_param":{"num_deleted":"0","num_feature":"27232","num_nodes":"7","size_leaf_vector":"0"}},{"base_weights":[-6.7391306E-1,6.666667E-1,-7.5E-1,-8.333333E-1,6.666667E-1,-0E0,-9.2105263E-1,-6.666667E-1,6.666667E-1,5E-1,-9.72973E-1],"categories":[],"categories_nodes":[],"categories_segments":[],"categories_sizes":[],"default_left":[0,0,1,0,0,0,0,0,0,0,0],"id":73,"left_children":[1,-1,3,5,-1,7,9,-1,-1,-1,-1],"loss_changes":[5.19203E0,0E0,5.75E0,3.070177E0,0E0,2.6666667E0,3.290184E0,0E0,0E0,0E0,0E0],"parents":[2147483647,0,0,2,2,3,3,5,5,6,6],"right_children":[2,-1,4,6,-1,8,10,-1,-1,-1,-1],"split_conditions":[1.5E0,2.0000002E-1,-9.536743E-7,1.5E0,2.0000002E-1,1.5E0,1.5E0,-2.0000002E-1,2.0000002E-1,1.5E-1,-2.918919E-1],"split_indices":[94,0,1335,29,0,157,609,0,0,0,0],"split_type":[0,0,0,0,0,0,0,0,0,0,0],"sum_hessian":[4.5E1,2E0,4.3E1,4.1E1,2E0,4E0,3.7E1,2E0,2E0,1E0,3.6E1],"tree_param":{"num_deleted":"0","num_feature":"27232","num_nodes":"11","size_leaf_vector":"0"}},{"base_weights":[-1E-1,-7.058824E-1,6.4285713E-1,6.666667E-1,-9.3333334E-1,-2.5E-1,9.0909094E-1,5E-1,-6.666667E-1],"categories":[],"categories_nodes":[],"categories_segments":[],"categories_sizes":[],"default_left":[0,0,0,0,0,0,0,0,0],"id":74,"left_children":[1,3,5,-1,-1,7,-1,-1,-1],"loss_changes":[1.3956303E1,5.929411E0,3.5551949E0,0E0,0E0,1.5833334E0,0E0,0E0,0E0],"parents":[2147483647,0,0,1,1,2,2,5,5],"right_children":[2,4,6,-1,-1,8,-1,-1,-1],"split_conditions":[1.5E0,1.5E0,1.5E0,2.0000002E-1,-2.8E-1,1.5E0,2.7272728E-1,1.5E-1,-2.0000002E-1],"split_indices":[29,157,624,0,0,25,0,0,0],"split_type":[0,0,0,0,0,0,0,0,0],"sum_hessian":[2.9E1,1.6E1,1.3E1,2E0,1.4E1,3E0,1E1,1E0,2E0],"tree_param":{"num_deleted":"0","num_feature":"27232","num_nodes":"9","size_leaf_vector":"0"}},{"base_weights":[-7.03125E-1,3.75E-1,-8.4210527E-1,-6.666667E-1,8.333333E-1,4E-1,-9.433962E-1,7.5E-1,-5E-1,-9.807692E-1,5E-1],"categories":[],"categories_nodes":[],"categories_segments":[],"categories_sizes":[],"default_left":[0,0,0,0,0,0,1,0,0,0,0],"id":75,"left_children":[1,3,5,-1,-1,7,9,-1,-1,-1,-1],"loss_changes":[9.905426E0,4.375E0,7.5487595E0,0E0,0E0,1.95E0,3.3494186E0,0E0,0E0,0E0,0E0],"parents":[2147483647,0,0,1,1,2,2,5,5,6,6],"right_children":[2,4,6,-1,-1,8,10,-1,-1,-1,-1],"split_conditions":[1.5E0,1.5E0,1.5E0,-2.0000002E-1,2.5E-1,6.5E0,1.5E0,2.2500001E-1,-1.5E-1,-2.942308E-1,1.5E-1],"split_indices":[29,157,624,0,0,0,91,0,0,0,0],"split_type":[0,0,0,0,0,0,0,0,0,0,0],"sum_hessian":[6.3E1,7E0,5.6E1,2E0,5E0,4E0,5.2E1,3E0,1E0,5.1E1,1E0],"tree_param":{"num_deleted":"0","num_feature":"27232","num_nodes":"11","size_leaf_vector":"0"}},{"base_weights":[-1.3793103E-1,-7.058824E-1,6.1538464E-1,6.666667E-1,-9.3333334E-1,-2.5E-1,9E-1,5E-1,-6.666667E-1],"categories":[],"categories_nodes":[],"categories_segments":[],"categories_sizes":[],"default_left":[0,0,0,0,0,0,0,0,0],"id":76,"left_children":[1,3,5,-1,-1,7,-1,-1,-1],"loss_changes":[1.2841941E1,5.929411E0,3.4269233E0,0E0,0E0,1.5833334E0,0E0,0E0,0E0],"parents":[2147483647,0,0,1,1,2,2,5,5],"right_children":[2,4,6,-1,-1,8,-1,-1,-1],"split_conditions":[1.5E0,1.5E0,1.5E0,2.0000002E-1,-2.8E-1,1.5E0,2.7E-1,1.5E-1,-2.0000002E-1],"split_indices":[29,157,11,0,0,10,0,0,0],"split_type":[0,0,0,0,0,0,0,0,0],"sum_hessian":[2.8E1,1.6E1,1.2E1,2E0,1.4E1,3E0,9E0,1E0,2E0],"tree_param":{"num_deleted":"0","num_feature":"27232","num_nodes":"9","size_leaf_vector":"0"}},{"base_weights":[-5.37037E-1,6.666667E-1,-7.6086956E-1,8.75E-1,-5E-1,4E-1,-8.8095236E-1,7.5E-1,-5E-1,-9.74359E-1,2.5E-1,6.666667E-1,-5E-1],"categories":[],"categories_nodes":[],"categories_segments":[],"categories_sizes":[],"default_left":[0,1,0,0,0,0,1,0,0,0,0,0,0],"id":77,"left_children":[1,3,5,-1,-1,7,9,-1,-1,-1,11,-1,-1],"loss_changes":[1.505636E1,2.625E0,6.764803E0,0E0,0E0,1.95E0,4.6804047E0,0E0,0E0,0E0,1.5833334E0,0E0,0E0],"parents":[2147483647,0,0,1,1,2,2,5,5,6,6,10,10],"right_children":[2,4,6,-1,-1,8,10,-1,-1,-1,12,-1,-1],"split_conditions":[1.5E0,2.5E0,1.5E0,2.6250002E-1,-1.5E-1,2.5E0,-9.536743E-7,2.2500001E-1,-1.5E-1,-2.923077E-1,2.5E0,2.0000002E-1,-1.5E-1],"split_indices":[864,92,1354,0,0,11,9209,0,0,0,11,0,0],"split_type":[0,0,0,0,0,0,0,0,0,0,0,0,0],"sum_hessian":[5.3E1,8E0,4.5E1,7E0,1E0,4E0,4.1E1,3E0,1E0,3.8E1,3E0,2E0,1E0],"tree_param":{"num_deleted":"0","num_feature":"27232","num_nodes":"13","size_leaf_vector":"0"}},{"base_weights":[5.625E-1,-4E-1,9.166667E-1,-7.5E-1,5E-1],"categories":[],"categories_nodes":[],"categories_segments":[],"categories_sizes":[],"default_left":[0,0,0,0,0],"id":78,"left_children":[1,3,-1,-1,-1],"loss_changes":[5.820833E0,1.95E0,0E0,0E0,0E0],"parents":[2147483647,0,0,1,1],"right_children":[2,4,-1,-1,-1],"split_conditions":[1.5E0,1.1E1,2.75E-1,-2.2500001E-1,1.5E-1],"split_indices":[1354,0,0,0,0],"split_type":[0,0,0,0,0],"sum_hessian":[1.5E1,4E0,1.1E1,3E0,1E0],"tree_param":{"num_deleted":"0","num_feature":"27232","num_nodes":"5","size_leaf_vector":"0"}},{"base_weights":[-6.8085104E-1,8.75E-1,-9.75E-1],"categories":[],"categories_nodes":[],"categories_segments":[],"categories_sizes":[],"default_left":[0,0,0],"id":79,"left_children":[1,-1,-1],"loss_changes":[2.2362768E1,0E0,0E0],"parents":[2147483647,0,0],"right_children":[2,-1,-1],"split_conditions":[4.000001E0,2.6250002E-1,-2.9250002E-1],"split_indices":[1354,0,0],"split_type":[0,0,0],"sum_hessian":[4.6E1,7E0,3.9E1],"tree_param":{"num_deleted":"0","num_feature":"27232","num_nodes":"3","size_leaf_vector":"0"}},{"base_weights":[4.375E-1,-8E-1,9.166667E-1],"categories":[],"categories_nodes":[],"categories_segments":[],"categories_sizes":[],"default_left":[0,0,0],"id":80,"left_children":[1,-1,-1],"loss_changes":[1.0220833E1,0E0,0E0],"parents":[2147483647,0,0],"right_children":[2,-1,-1],"split_conditions":[1.5E0,-2.4000001E-1,2.75E-1],"split_indices":[1354,0,0],"split_type":[0,0,0],"sum_hessian":[1.5E1,4E0,1.1E1],"tree_param":{"num_deleted":"0","num_feature":"27232","num_nodes":"3","size_leaf_vector":"0"}},{"base_weights":[-7.906977E-1,8E-1,-9.74359E-1],"categories":[],"categories_nodes":[],"categories_segments":[],"categories_sizes":[],"default_left":[0,0,0],"id":81,"left_children":[1,-1,-1],"loss_changes":[1.3341923E1,0E0,0E0],"parents":[2147483647,0,0],"right_children":[2,-1,-1],"split_conditions":[1.5E0,2.4000001E-1,-2.923077E-1],"split_indices":[1354,0,0],"split_type":[0,0,0],"sum_hessian":[4.2E1,4E0,3.8E1],"tree_param":{"num_deleted":"0","num_feature":"27232","num_nodes":"3","size_leaf_vector":"0"}},{"base_weights":[5E-1,-8E-1,9.285714E-1],"categories":[],"categories_nodes":[],"categories_segments":[],"categories_sizes":[],"default_left":[0,0,0],"id":82,"left_children":[1,-1,-1],"loss_changes":[1.0771428E1,0E0,0E0],"parents":[2147483647,0,0],"right_children":[2,-1,-1],"split_conditions":[1.5E0,-2.4000001E-1,2.7857143E-1],"split_indices":[1354,0,0],"split_type":[0,0,0],"sum_hessian":[1.7E1,4E0,1.3E1],"tree_param":{"num_deleted":"0","num_feature":"27232","num_nodes":"3","size_leaf_vector":"0"}},{"base_weights":[-6.976744E-1,8E-1,-8.717949E-1,2.5E-1,-9.722222E-1,-5E-1,6.666667E-1],"categories":[],"categories_nodes":[],"categories_segments":[],"categories_sizes":[],"default_left":[0,0,0,0,0,0,0],"id":83,"left_children":[1,-1,3,5,-1,-1,-1],"loss_changes":[1.1910793E1,0E0,4.636753E0,1.5833334E0,0E0,0E0,0E0],"parents":[2147483647,0,0,2,2,3,3],"right_children":[2,-1,4,6,-1,-1,-1],"split_conditions":[1.5E0,2.4000001E-1,1.5E0,4.5E0,-2.916667E-1,-1.5E-1,2.0000002E-1],"split_indices":[1354,0,1316,0,0,0,0],"split_type":[0,0,0,0,0,0,0],"sum_hessian":[4.2E1,4E0,3.8E1,3E0,3.5E1,1E0,2E0],"tree_param":{"num_deleted":"0","num_feature":"27232","num_nodes":"7","size_leaf_vector":"0"}},{"base_weights":[2.3529412E-1,-8E-1,6.1538464E-1,9.0909094E-1,-6.666667E-1],"categories":[],"categories_nodes":[],"categories_segments":[],"categories_sizes":[],"default_left":[0,0,1,0,0],"id":84,"left_children":[1,-1,3,-1,-1],"loss_changes":[7.181901E0,0E0,5.501165E0,0E0,0E0],"parents":[2147483647,0,0,2,2],"right_children":[2,-1,4,-1,-1],"split_conditions":[3.5E0,-2.4000001E-1,-9.536743E-7,2.7272728E-1,-2.0000002E-1],"split_indices":[763,0,1347,0,0],"split_type":[0,0,0,0,0],"sum_hessian":[1.6E1,4E0,1.2E1,1E1,2E0],"tree_param":{"num_deleted":"0","num_feature":"27232","num_nodes":"5","size_leaf_vector":"0"}},{"base_weights":[-8.292683E-1,6.666667E-1,-9.230769E-1,-9.736842E-1,5E-1],"categories":[],"categories_nodes":[],"categories_segments":[],"categories_sizes":[],"default_left":[0,0,1,0,0],"id":85,"left_children":[1,-1,3,-1,-1],"loss_changes":[6.3689804E0,0E0,3.2955475E0,0E0,0E0],"parents":[2147483647,0,0,2,2],"right_children":[2,-1,4,-1,-1],"split_conditions":[2.5E0,2.0000002E-1,-9.536743E-7,-2.9210526E-1,1.5E-1],"split_indices":[763,0,60,0,0],"split_type":[0,0,0,0,0],"sum_hessian":[4E1,2E0,3.8E1,3.7E1,1E0],"tree_param":{"num_deleted":"0","num_feature":"27232","num_nodes":"5","size_leaf_vector":"0"}},{"base_weights":[5.833333E-1,-6.666667E-1,9E-1],"categories":[],"categories_nodes":[],"categories_segments":[],"categories_sizes":[],"default_left":[0,0,0],"id":86,"left_children":[1,-1,-1],"loss_changes":[5.35E0,0E0,0E0],"parents":[2147483647,0,0],"right_children":[2,-1,-1],"split_conditions":[2.5E0,-2.0000002E-1,2.7E-1],"split_indices":[763,0,0],"split_type":[0,0,0],"sum_hessian":[1.1E1,2E0,9E0],"tree_param":{"num_deleted":"0","num_feature":"27232","num_nodes":"3","size_leaf_vector":"0"}},{"base_weights":[-8.108108E-1,6.666667E-1,-9.142857E-1,5E-1,-9.705882E-1],"categories":[],"categories_nodes":[],"categories_segments":[],"categories_sizes":[],"default_left":[0,0,0,0,0],"id":87,"left_children":[1,-1,3,-1,-1],"loss_changes":[6.2661533E0,0E0,3.2722683E0,0E0,0E0],"parents":[2147483647,0,0,2,2],"right_children":[2,-1,4,-1,-1],"split_conditions":[2.5E0,2.0000002E-1,1.5E0,1.5E-1,-2.9117647E-1],"split_indices":[763,0,1232,0,0],"split_type":[0,0,0,0,0],"sum_hessian":[3.6E1,2E0,3.4E1,1E0,3.3E1],"tree_param":{"num_deleted":"0","num_feature":"27232","num_nodes":"5","size_leaf_vector":"0"}},{"base_weights":[5.833333E-1,-6.666667E-1,9E-1],"categories":[],"categories_nodes":[],"categories_segments":[],"categories_sizes":[],"default_left":[0,0,0],"id":88,"left_children":[1,-1,-1],"loss_changes":[5.35E0,0E0,0E0],"parents":[2147483647,0,0],"right_children":[2,-1,-1],"split_conditions":[2.5E0,-2.0000002E-1,2.7E-1],"split_indices":[763,0,0],"split_type":[0,0,0],"sum_hessian":[1.1E1,2E0,9E0],"tree_param":{"num_deleted":"0","num_feature":"27232","num_nodes":"3","size_leaf_vector":"0"}},{"base_weights":[-7.878788E-1,6.666667E-1,-9.032258E-1,-9.6666664E-1,5E-1],"categories":[],"categories_nodes":[],"categories_segments":[],"categories_sizes":[],"default_left":[0,0,1,0,0],"id":89,"left_children":[1,-1,3,-1,-1],"loss_changes":[6.138809E0,0E0,3.2430096E0,0E0,0E0],"parents":[2147483647,0,0,2,2],"right_children":[2,-1,4,-1,-1],"split_conditions":[1.5E0,2.0000002E-1,-9.536743E-7,-2.9E-1,1.5E-1],"split_indices":[328,0,75,0,0],"split_type":[0,0,0,0,0],"sum_hessian":[3.2E1,2E0,3E1,2.9E1,1E0],"tree_param":{"num_deleted":"0","num_feature":"27232","num_nodes":"5","size_leaf_vector":"0"}},{"base_weights":[1.904762E-1,-8.888889E-1,9.230769E-1],"categories":[],"categories_nodes":[],"categories_segments":[],"categories_sizes":[],"default_left":[0,0,0],"id":90,"left_children":[1,-1,-1],"loss_changes":[1.7426128E1,0E0,0E0],"parents":[2147483647,0,0],"right_children":[2,-1,-1],"split_conditions":[1.5E0,-2.6666668E-1,2.769231E-1],"split_indices":[328,0,0],"split_type":[0,0,0],"sum_hessian":[2E1,8E0,1.2E1],"tree_param":{"num_deleted":"0","num_feature":"27232","num_nodes":"3","size_leaf_vector":"0"}},{"base_weights":[-7.826087E-1,6.666667E-1,-9.5238096E-1],"categories":[],"categories_nodes":[],"categories_segments":[],"categories_sizes":[],"default_left":[0,0,0],"id":91,"left_children":[1,-1,-1],"loss_changes":[6.293996E0,0E0,0E0],"parents":[2147483647,0,0],"right_children":[2,-1,-1],"split_conditions":[1.5E0,2.0000002E-1,-2.857143E-1],"split_indices":[328,0,0],"split_type":[0,0,0],"sum_hessian":[2.2E1,2E0,2E1],"tree_param":{"num_deleted":"0","num_feature":"27232","num_nodes":"3","size_leaf_vector":"0"}},{"base_weights":[3.181818E-1,-6.666667E-1,9.285714E-1,5E-1,-8.75E-1],"categories":[],"categories_nodes":[],"categories_segments":[],"categories_sizes":[],"default_left":[0,0,0,0,0],"id":92,"left_children":[1,3,-1,-1,-1],"loss_changes":[1.3844155E1,2.625E0,0E0,0E0,0E0],"parents":[2147483647,0,0,1,1],"right_children":[2,4,-1,-1,-1],"split_conditions":[1.5E0,5.5E0,2.7857143E-1,1.5E-1,-2.6250002E-1],"split_indices":[328,0,0,0,0],"split_type":[0,0,0,0,0],"sum_hessian":[2.1E1,8E0,1.3E1,1E0,7E0],"tree_param":{"num_deleted":"0","num_feature":"27232","num_nodes":"5","size_leaf_vector":"0"}},{"base_weights":[-6.25E-1,6.666667E-1,-7.7272725E-1,-9.5E-1,6.666667E-1],"categories":[],"categories_nodes":[],"categories_segments":[],"categories_sizes":[],"default_left":[0,0,1,0,0],"id":93,"left_children":[1,-1,3,-1,-1],"loss_changes":[5.094697E0,0E0,6.246969E0,0E0,0E0],"parents":[2147483647,0,0,2,2],"right_children":[2,-1,4,-1,-1],"split_conditions":[1.5E0,2.0000002E-1,-9.536743E-7,-2.85E-1,2.0000002E-1],"split_indices":[93,0,9637,0,0],"split_type":[0,0,0,0,0],"sum_hessian":[2.3E1,2E0,2.1E1,1.9E1,2E0],"tree_param":{"num_deleted":"0","num_feature":"27232","num_nodes":"5","size_leaf_vector":"0"}},{"base_weights":[8.695652E-2,-9.0909094E-1,9.230769E-1],"categories":[],"categories_nodes":[],"categories_segments":[],"categories_sizes":[],"default_left":[0,0,0],"id":94,"left_children":[1,-1,-1],"loss_changes":[1.9993917E1,0E0,0E0],"parents":[2147483647,0,0],"right_children":[2,-1,-1],"split_conditions":[1.5E0,-2.7272728E-1,2.769231E-1],"split_indices":[93,0,0],"split_type":[0,0,0],"sum_hessian":[2.2E1,1E1,1.2E1],"tree_param":{"num_deleted":"0","num_feature":"27232","num_nodes":"3","size_leaf_vector":"0"}},{"base_weights":[-6.956522E-1,7.5E-1,-9.5E-1],"categories":[],"categories_nodes":[],"categories_segments":[],"categories_sizes":[],"default_left":[0,0,0],"id":95,"left_children":[1,-1,-1],"loss_changes":[9.169564E0,0E0,0E0],"parents":[2147483647,0,0],"right_children":[2,-1,-1],"split_conditions":[1.5E0,2.2500001E-1,-2.85E-1],"split_indices":[93,0,0],"split_type":[0,0,0],"sum_hessian":[2.2E1,3E0,1.9E1],"tree_param":{"num_deleted":"0","num_feature":"27232","num_nodes":"3","size_leaf_vector":"0"}},{"base_weights":[1.3636364E-1,-9E-1,9.230769E-1],"categories":[],"categories_nodes":[],"categories_segments":[],"categories_sizes":[],"default_left":[0,0,0],"id":96,"left_children":[1,-1,-1],"loss_changes":[1.8767834E1,0E0,0E0],"parents":[2147483647,0,0],"right_children":[2,-1,-1],"split_conditions":[1.5E0,-2.7E-1,2.769231E-1],"split_indices":[93,0,0],"split_type":[0,0,0],"sum_hessian":[2.1E1,9E0,1.2E1],"tree_param":{"num_deleted":"0","num_feature":"27232","num_nodes":"3","size_leaf_vector":"0"}},{"base_weights":[-6.086956E-1,5E-1,-9.444444E-1,-5E-1,8E-1],"categories":[],"categories_nodes":[],"categories_segments":[],"categories_sizes":[],"default_left":[0,0,0,0,0],"id":97,"left_children":[1,3,-1,-1,-1],"loss_changes":[9.033816E0,2.2E0,0E0,0E0,0E0],"parents":[2147483647,0,0,1,1],"right_children":[2,4,-1,-1,-1],"split_conditions":[2.5E0,2.000001E0,-2.8333333E-1,-1.5E-1,2.4000001E-1],"split_indices":[93,46,0,0,0],"split_type":[0,0,0,0,0],"sum_hessian":[2.2E1,5E0,1.7E1,1E0,4E0],"tree_param":{"num_deleted":"0","num_feature":"27232","num_nodes":"5","size_leaf_vector":"0"}},{"base_weights":[4.1666668E-2,-9.166667E-1,9.230769E-1],"categories":[],"categories_nodes":[],"categories_segments":[],"categories_sizes":[],"default_left":[0,0,0],"id":98,"left_children":[1,-1,-1],"loss_changes":[2.111859E1,0E0,0E0],"parents":[2147483647,0,0],"right_children":[2,-1,-1],"split_conditions":[2.5E0,-2.75E-1,2.769231E-1],"split_indices":[93,0,0],"split_type":[0,0,0],"sum_hessian":[2.3E1,1.1E1,1.2E1],"tree_param":{"num_deleted":"0","num_feature":"27232","num_nodes":"3","size_leaf_vector":"0"}},{"base_weights":[-5.5E-1,8E-1,-9.375E-1],"categories":[],"categories_nodes":[],"categories_segments":[],"categories_sizes":[],"default_left":[0,0,0],"id":99,"left_children":[1,-1,-1],"loss_changes":[1.1212501E1,0E0,0E0],"parents":[2147483647,0,0],"right_children":[2,-1,-1],"split_conditions":[2.5E0,2.4000001E-1,-2.8125E-1],"split_indices":[93,0,0],"split_type":[0,0,0],"sum_hessian":[1.9E1,4E0,1.5E1],"tree_param":{"num_deleted":"0","num_feature":"27232","num_nodes":"3","size_leaf_vector":"0"}}]},"name":"gbtree"},"learner_model_param":{"base_score":"5E-1","boost_from_average":"1","num_class":"0","num_feature":"27232","num_target":"1"},"objective":{"name":"binary:hinge"}},"version":[1,7,7]}