{"learner":{"attributes":{"niter":"99"},"feature_names":[],"feature_types":[],"gradient_booster":{"model":{"gbtree_model_param":{"num_parallel_tree":"1","num_trees":"100","size_leaf_vector":"0"},"tree_info":[0,0,0,0,0,0,0,0,0,0,0,0,0,0,0,0,0,0,0,0,0,0,0,0,0,0,0,0,0,0,0,0,0,0,0,0,0,0,0,0,0,0,0,0,0,0,0,0,0,0,0,0,0,0,0,0,0,0,0,0,0,0,0,0,0,0,0,0,0,0,0,0,0,0,0,0,0,0,0,0,0,0,0,0,0,0,0,0,0,0,0,0,0,0,0,0,0,0,0,0],"trees":[{"base_weights":[-7.817647E-1,3.809524E-1,-7.9583335E-1,-7.5E-1,6.111111E-1,6.0606062E-2,-8.125E-1,-4E-1,9.285714E-1,-5.4545456E-1,3.478261E-1,6.666667E-1,-8.2012194E-1,-7.5E-1,5E-1,6.666667E-1,-8.888889E-1,-2.857143E-1,5.882353E-1,8.75E-1,-5E-1,-8.2862407E-1,3.0769232E-1,6.666667E-1,-8E-1,6.875E-1,-5E-1,-5E-2,-8.3778745E-1,-6.666667E-1,5.4545456E-1,8E-1,-5E-1,-8.5714287E-1,3.5714287E-1,7.5E-1,-8.4122044E-1,7E-1,-5E-1],"categories":[],"categories_nodes":[],"categories_segments":[],"categories_sizes":[],"default_left":[0,0,0,0,0,0,0,0,0,0,0,0,1,0,0,0,0,0,0,0,0,0,0,0,0,1,0,0,0,0,1,0,0,0,0,0,0,0,0],"id":0,"left_children":[1,3,5,-1,7,9,11,13,-1,15,17,19,21,-1,-1,-1,-1,23,25,-1,-1,27,29,-1,-1,31,-1,33,35,-1,37,-1,-1,-1,-1,-1,-1,-1,-1],"loss_changes":[2.811145E1,5.9246035E0,2.4029541E1,0E0,6.149206E0,5.934124E0,1.9126465E1,1.95E0,0E0,5.1717176E0,3.6711729E0,2.625E0,1.5980591E1,0E0,0E0,0E0,0E0,3.9619048E0,2.1801472E0,0E0,0E0,1.157373E1,3.3752913E0,0E0,0E0,2.5375004E0,0E0,6.878571E0,9.401245E0,0E0,2.1272728E0,0E0,0E0,0E0,0E0,0E0,0E0,0E0,0E0],"parents":[2147483647,0,0,1,1,2,2,4,4,5,5,6,6,7,7,9,9,10,10,11,11,12,12,17,17,18,18,21,21,22,22,25,25,27,27,28,28,30,30],"right_children":[2,4,6,-1,8,10,12,14,-1,16,18,20,22,-1,-1,-1,-1,24,26,-1,-1,28,30,-1,-1,32,-1,34,36,-1,38,-1,-1,-1,-1,-1,-1,-1,-1],"split_conditions":[4.000001E0,2.000001E0,6.000001E0,-2.2500001E-1,4.000001E0,4.000001E0,4.000001E0,9.5E0,2.7857143E-1,1.5E0,6.000001E0,1.35E1,-9.536743E-7,-2.2500001E-1,1.5E-1,2.0000002E-1,-2.6666668E-1,2.000001E0,1.45E1,2.6250002E-1,-1.5E-1,4.000001E0,2.000001E0,2.0000002E-1,-2.4000001E-1,2.5E0,-1.5E-1,4.000001E0,4.000001E0,-2.0000002E-1,-9.536743E-7,2.4000001E-1,-1.5E-1,-2.5714287E-1,1.07142866E-1,2.2500001E-1,-2.5236616E-1,2.1000001E-1,-1.5E-1],"split_indices":[1080,45,1543,0,33,45,2525,0,0,35,83,0,936,0,0,0,0,44,0,0,0,378,27,0,0,1,0,78,2561,0,21,0,0,0,0,0,0,0,0],"split_type":[0,0,0,0,0,0,0,0,0,0,0,0,0,0,0,0,0,0,0,0,0,0,0,0,0,0,0,0,0,0,0,0,0,0,0,0,0,0,0],"sum_hessian":[1.699E3,2E1,1.679E3,3E0,1.7E1,3.2E1,1.647E3,4E0,1.3E1,1E1,2.2E1,8E0,1.639E3,3E0,1E0,2E0,8E0,6E0,1.6E1,7E0,1E0,1.627E3,1.2E1,2E0,4E0,1.5E1,1E0,1.9E1,1.608E3,2E0,1E1,1.4E1,1E0,6E0,1.3E1,3E0,1.605E3,9E0,1E0],"tree_param":{"num_deleted":"0","num_feature":"4922","num_nodes":"39","size_leaf_vector":"0"}},{"base_weights":[-7.817647E-1,3.809524E-1,-7.9583335E-1,-7.5E-1,6.111111E-1,6.0606062E-2,-8.125E-1,-4E-1,9.285714E-1,-5.4545456E-1,3.478261E-1,6.666667E-1,-8.2012194E-1,-7.5E-1,5E-1,6.666667E-1,-8.888889E-1,-2.857143E-1,5.882353E-1,8.75E-1,-5E-1,-8.2862407E-1,3.0769232E-1,6.666667E-1,-8E-1,6.875E-1,-5E-1,-5E-2,-8.3778745E-1,-6.666667E-1,5.4545456E-1,8E-1,-5E-1,-8.5714287E-1,3.5714287E-1,7.5E-1,-8.4122044E-1,7E-1,-5E-1],"categories":[],"categories_nodes":[],"categories_segments":[],"categories_sizes":[],"default_left":[0,0,0,0,0,0,0,0,0,0,0,0,1,0,0,0,0,0,0,0,0,0,0,0,0,1,0,0,0,0,1,0,0,0,0,0,0,0,0],"id":1,"left_children":[1,3,5,-1,7,9,11,13,-1,15,17,19,21,-1,-1,-1,-1,23,25,-1,-1,27,29,-1,-1,31,-1,33,35,-1,37,-1,-1,-1,-1,-1,-1,-1,-1],"loss_changes":[2.811145E1,5.9246035E0,2.4029541E1,0E0,6.149206E0,5.934124E0,1.9126465E1,1.95E0,0E0,5.1717176E0,3.6711729E0,2.625E0,1.5980591E1,0E0,0E0,0E0,0E0,3.9619048E0,2.1801472E0,0E0,0E0,1.157373E1,3.3752913E0,0E0,0E0,2.5375004E0,0E0,6.878571E0,9.401245E0,0E0,2.1272728E0,0E0,0E0,0E0,0E0,0E0,0E0,0E0,0E0],"parents":[2147483647,0,0,1,1,2,2,4,4,5,5,6,6,7,7,9,9,10,10,11,11,12,12,17,17,18,18,21,21,22,22,25,25,27,27,28,28,30,30],"right_children":[2,4,6,-1,8,10,12,14,-1,16,18,20,22,-1,-1,-1,-1,24,26,-1,-1,28,30,-1,-1,32,-1,34,36,-1,38,-1,-1,-1,-1,-1,-1,-1,-1],"split_conditions":[4.000001E0,2.000001E0,6.000001E0,-2.2500001E-1,4.000001E0,4.000001E0,4.000001E0,9.5E0,2.7857143E-1,1.5E0,6.000001E0,1.35E1,-9.536743E-7,-2.2500001E-1,1.5E-1,2.0000002E-1,-2.6666668E-1,2.000001E0,1.45E1,2.6250002E-1,-1.5E-1,4.000001E0,2.000001E0,2.0000002E-1,-2.4000001E-1,2.5E0,-1.5E-1,4.000001E0,4.000001E0,-2.0000002E-1,-9.536743E-7,2.4000001E-1,-1.5E-1,-2.5714287E-1,1.07142866E-1,2.2500001E-1,-2.5236616E-1,2.1000001E-1,-1.5E-1],"split_indices":[1080,45,1543,0,33,45,2525,0,0,35,83,0,936,0,0,0,0,44,0,0,0,378,27,0,0,1,0,78,2561,0,21,0,0,0,0,0,0,0,0],"split_type":[0,0,0,0,0,0,0,0,0,0,0,0,0,0,0,0,0,0,0,0,0,0,0,0,0,0,0,0,0,0,0,0,0,0,0,0,0,0,0],"sum_hessian":[1.699E3,2E1,1.679E3,3E0,1.7E1,3.2E1,1.647E3,4E0,1.3E1,1E1,2.2E1,8E0,1.639E3,3E0,1E0,2E0,8E0,6E0,1.6E1,7E0,1E0,1.627E3,1.2E1,2E0,4E0,1.5E1,1E0,1.9E1,1.608E3,2E0,1E1,1.4E1,1E0,6E0,1.3E1,3E0,1.605E3,9E0,1E0],"tree_param":{"num_deleted":"0","num_feature":"4922","num_nodes":"39","size_leaf_vector":"0"}},{"base_weights":[-8.029762E-1,6.0606062E-2,-8.1978154E-1,-5.4545456E-1,3.478261E-1,-8.282396E-1,3.0769232E-1,6.666667E-1,-8.888889E-1,-2.857143E-1,5.882353E-1,-5E-2,-8.373531E-1,-6.666667E-1,5.4545456E-1,6.666667E-1,-8E-1,6.875E-1,-5E-1,-8.5714287E-1,3.5714287E-1,7.5E-1,-8.407683E-1,7E-1,-5E-1,8E-1,-5E-1,-4E-1,7E-1,-7.326733E-1,-8.891892E-1,-5E-1,8.888889E-1,9.285714E-1,-5E-1,-7.5E-1,5E-1,8.888889E-1,-5E-1,-7.4302787E-1,7.5E-1,4E-1,-8.942134E-1],"categories":[],"categories_nodes":[],"categories_segments":[],"categories_sizes":[],"default_left":[0,0,1,0,0,0,0,0,0,0,0,0,0,0,1,0,0,1,0,0,0,0,0,0,0,1,0,1,0,1,0,0,0,0,0,0,0,0,0,0,0,0,0],"id":2,"left_children":[1,3,5,7,9,11,13,-1,-1,15,17,19,21,-1,23,-1,-1,25,-1,-1,27,-1,29,31,-1,33,-1,35,37,39,41,-1,-1,-1,-1,-1,-1,-1,-1,-1,-1,-1,-1],"loss_changes":[2.4431274E1,5.934124E0,1.5970459E1,5.1717176E0,3.6711729E0,1.1561523E1,3.3752913E0,0E0,0E0,3.9619048E0,2.1801472E0,6.878571E0,9.396484E0,0E0,2.1272728E0,0E0,0E0,2.5375004E0,0E0,0E0,3.9142861E0,0E0,7.7961426E0,2.711111E0,0E0,2.971428E0,0E0,1.95E0,2.711111E0,8.310303E0,7.5473022E0,0E0,0E0,0E0,0E0,0E0,0E0,0E0,0E0,0E0,0E0,0E0,0E0],"parents":[2147483647,0,0,1,1,2,2,3,3,4,4,5,5,6,6,9,9,10,10,11,11,12,12,14,14,17,17,20,20,22,22,23,23,25,25,27,27,28,28,29,29,30,30],"right_children":[2,4,6,8,10,12,14,-1,-1,16,18,20,22,-1,24,-1,-1,26,-1,-1,28,-1,30,32,-1,34,-1,36,38,40,42,-1,-1,-1,-1,-1,-1,-1,-1,-1,-1,-1,-1],"split_conditions":[6.000001E0,4.000001E0,-9.536743E-7,1.5E0,6.000001E0,4.000001E0,2.000001E0,2.0000002E-1,-2.6666668E-1,2.000001E0,1.45E1,4.000001E0,4.000001E0,-2.0000002E-1,-9.536743E-7,2.0000002E-1,-2.4000001E-1,2.5E0,-1.5E-1,-2.5714287E-1,4.000001E0,2.2500001E-1,4.5E0,2.000001E0,-1.5E-1,1.5E0,-1.5E-1,1.3E1,4.2E1,-9.536743E-7,1.5E0,-1.5E-1,2.6666668E-1,2.7857143E-1,-1.5E-1,-2.2500001E-1,1.5E-1,2.6666668E-1,-1.5E-1,-2.2290836E-1,2.2500001E-1,1.20000005E-1,-2.6826403E-1],"split_indices":[1543,45,936,35,83,378,27,0,0,44,0,78,2561,0,21,0,0,1,0,0,79,0,187,36,0,62,0,0,0,1507,718,0,0,0,0,0,0,0,0,0,0,0,0],"split_type":[0,0,0,0,0,0,0,0,0,0,0,0,0,0,0,0,0,0,0,0,0,0,0,0,0,0,0,0,0,0,0,0,0,0,0,0,0,0,0,0,0,0,0],"sum_hessian":[1.679E3,3.2E1,1.647E3,1E1,2.2E1,1.635E3,1.2E1,2E0,8E0,6E0,1.6E1,1.9E1,1.616E3,2E0,1E1,2E0,4E0,1.5E1,1E0,6E0,1.3E1,3E0,1.613E3,9E0,1E0,1.4E1,1E0,4E0,9E0,5.04E2,1.109E3,1E0,8E0,1.3E1,1E0,3E0,1E0,8E0,1E0,5.01E2,3E0,4E0,1.105E3],"tree_param":{"num_deleted":"0","num_feature":"4922","num_nodes":"43","size_leaf_vector":"0"}},{"base_weights":[-8.1594723E-1,2.777778E-1,-8.273773E-1,-3.75E-1,7.2727275E-1,6.25E-1,-8.339416E-1,6.666667E-1,-8.333333E-1,-5E-1,9E-1,8.5714287E-1,-5E-1,-5E-2,-8.4307694E-1,-8.5714287E-1,3.5714287E-1,-7.38189E-1,-8.899821E-1,-4E-1,7E-1,-7.4851483E-1,7.5E-1,4E-1,-8.949731E-1,-7.5E-1,5E-1,8.888889E-1,-5E-1,-7.5848305E-1,4E-1,-5E-1,7.5E-1,-8.983813E-1,6.666667E-1],"categories":[],"categories_nodes":[],"categories_segments":[],"categories_sizes":[],"default_left":[0,0,0,0,0,0,0,0,0,0,0,0,0,0,0,0,0,1,0,1,0,1,0,0,1,0,0,0,0,0,0,0,0,0,0],"id":3,"left_children":[1,3,5,7,9,11,13,-1,-1,-1,-1,-1,-1,15,17,-1,19,21,23,25,27,29,-1,31,33,-1,-1,-1,-1,-1,-1,-1,-1,-1,-1],"loss_changes":[2.1082275E1,5.554293E0,1.6261475E1,4.375E0,2.7818184E0,2.517857E0,1.1731445E1,0E0,0E0,0E0,0E0,0E0,0E0,6.878571E0,7.3376465E0,0E0,3.9142861E0,8.367737E0,7.555908E0,1.95E0,2.711111E0,6.0849304E0,0E0,1.95E0,6.528076E0,0E0,0E0,0E0,0E0,0E0,0E0,0E0,0E0,0E0,0E0],"parents":[2147483647,0,0,1,1,2,2,3,3,4,4,5,5,6,6,13,13,14,14,16,16,17,17,18,18,19,19,20,20,21,21,23,23,24,24],"right_children":[2,4,6,8,10,12,14,-1,-1,-1,-1,-1,-1,16,18,-1,20,22,24,26,28,30,-1,32,34,-1,-1,-1,-1,-1,-1,-1,-1,-1,-1],"split_conditions":[4.000001E0,2.000001E0,4.000001E0,8.000001E0,2.000001E0,1.35E1,4.000001E0,2.0000002E-1,-2.5E-1,-1.5E-1,2.7E-1,2.5714287E-1,-1.5E-1,4.000001E0,4.5E0,-2.5714287E-1,4.000001E0,-9.536743E-7,1.5E0,1.3E1,4.2E1,-9.536743E-7,2.2500001E-1,3.5E0,-9.536743E-7,-2.2500001E-1,1.5E-1,2.6666668E-1,-1.5E-1,-2.2754492E-1,1.20000005E-1,-1.5E-1,2.2500001E-1,-2.695144E-1,2.0000002E-1],"split_indices":[1080,37,2525,1,25,0,378,0,0,0,0,0,0,78,187,0,79,1507,718,0,0,1632,0,0,2303,0,0,0,0,0,0,0,0,0,0],"split_type":[0,0,0,0,0,0,0,0,0,0,0,0,0,0,0,0,0,0,0,0,0,0,0,0,0,0,0,0,0,0,0,0,0,0,0],"sum_hessian":[1.667E3,1.7E1,1.65E3,7E0,1E1,7E0,1.643E3,2E0,5E0,1E0,9E0,6E0,1E0,1.9E1,1.624E3,6E0,1.3E1,5.07E2,1.117E3,4E0,9E0,5.04E2,3E0,4E0,1.113E3,3E0,1E0,8E0,1E0,5E2,4E0,1E0,3E0,1.111E3,2E0],"tree_param":{"num_deleted":"0","num_feature":"4922","num_nodes":"35","size_leaf_vector":"0"}},{"base_weights":[-8.1921923E-1,-8.2748187E-1,2.1428572E-1,-1.6E-1,-8.372236E-1,-7.5E-1,5.4545456E-1,8E-1,-3.809524E-1,7.5E-1,-8.406154E-1,7E-1,-5E-1,-0E0,-8.888889E-1,-7.1428575E-2,-8.467742E-1,-5E-1,8.888889E-1,-8E-1,4.4444445E-1,8E-1,-5E-1,4E-1,-8.5012436E-1,-6.666667E-1,8.5714287E-1,2.5E-1,-8.5714287E-1,-5E-1,7.5E-1,1.25E-1,-8.5446596E-1],"categories":[],"categories_nodes":[],"categories_segments":[],"categories_sizes":[],"default_left":[1,0,0,0,0,0,1,0,0,0,0,0,0,0,0,1,0,0,0,0,0,0,0,0,0,0,0,0,0,0,0,0,0],"id":4,"left_children":[1,3,5,7,9,-1,11,-1,13,-1,15,17,-1,19,-1,21,23,-1,-1,-1,25,-1,27,29,31,-1,-1,-1,-1,-1,-1,-1,-1],"loss_changes":[1.4395508E1,1.0608032E1,4.87987E0,5.6076193E0,9.394897E0,0E0,2.1272728E0,0E0,4.063492E0,0E0,7.6375732E0,2.711111E0,0E0,4.977778E0,0E0,5.628571E0,7.073242E0,0E0,0E0,0E0,4.698413E0,0E0,2.892857E0,1.95E0,6.9144287E0,0E0,0E0,0E0,0E0,0E0,0E0,0E0,0E0],"parents":[2147483647,0,0,1,1,2,2,3,3,4,4,6,6,8,8,10,10,11,11,13,13,15,15,16,16,20,20,22,22,23,23,24,24],"right_children":[2,4,6,8,10,-1,12,-1,14,-1,16,18,-1,20,-1,22,24,-1,-1,-1,26,-1,28,30,32,-1,-1,-1,-1,-1,-1,-1,-1],"split_conditions":[-9.536743E-7,6.000001E0,2.000001E0,1.5E0,4.000001E0,-2.2500001E-1,-9.536743E-7,2.4000001E-1,3E0,2.2500001E-1,4.000001E0,2.000001E0,-1.5E-1,2.000001E0,-2.6666668E-1,1.5E0,4.000001E0,-1.5E-1,2.6666668E-1,-2.4000001E-1,2.000001E0,2.4000001E-1,2.000001E0,2.000001E0,6.000001E0,-2.0000002E-1,2.5714287E-1,7.5E-2,-2.5714287E-1,-1.5E-1,2.2500001E-1,3.75E-2,-2.563398E-1],"split_indices":[936,1543,139,1,2561,0,21,0,115,0,157,27,0,34,0,28,2306,0,0,0,272,0,36,1,1677,0,0,0,0,0,0,0,0],"split_type":[0,0,0,0,0,0,0,0,0,0,0,0,0,0,0,0,0,0,0,0,0,0,0,0,0,0,0,0,0,0,0,0,0],"sum_hessian":[1.664E3,1.651E3,1.3E1,2.4E1,1.627E3,3E0,1E1,4E0,2E1,3E0,1.624E3,9E0,1E0,1.2E1,8E0,1.3E1,1.611E3,1E0,8E0,4E0,8E0,4E0,9E0,4E0,1.607E3,2E0,6E0,3E0,6E0,1E0,3E0,7E0,1.6E3],"tree_param":{"num_deleted":"0","num_feature":"4922","num_nodes":"33","size_leaf_vector":"0"}},{"base_weights":[-8.1268704E-1,2.3529412E-1,-8.2296073E-1,-3.75E-1,7E-1,6.25E-1,-8.294903E-1,6.666667E-1,-8.333333E-1,-5E-1,8.888889E-1,8.5714287E-1,-5E-1,-0E0,-8.396806E-1,-8.5714287E-1,4E-1,-6.25E-2,-8.468692E-1,6.1538464E-1,-6.666667E-1,5.714286E-1,-5E-1,-7.405941E-1,-8.9449954E-1,9.0909094E-1,-6.666667E-1,8.333333E-1,-5E-1,2.5E-1,-8.5714287E-1,-7.50996E-1,7.5E-1,4E-1,-8.995475E-1],"categories":[],"categories_nodes":[],"categories_segments":[],"categories_sizes":[],"default_left":[0,0,0,0,0,0,0,0,0,0,0,0,0,0,0,0,0,1,0,1,0,1,0,1,0,0,0,0,0,0,0,0,0,0,0],"id":5,"left_children":[1,3,5,7,9,11,13,-1,-1,-1,-1,-1,-1,15,17,-1,19,21,23,25,-1,27,29,31,33,-1,-1,-1,-1,-1,-1,-1,-1,-1,-1],"loss_changes":[1.8184814E1,5.0838237E0,1.616565E1,4.375E0,2.711111E0,2.517857E0,1.3930176E1,0E0,0E0,0E0,0E0,0E0,0E0,7.542857E0,9.04248E0,0E0,3.8564105E0,4.723214E0,7.5023193E0,5.501165E0,0E0,2.3809521E0,2.892857E0,8.393311E0,7.6066284E0,0E0,0E0,0E0,0E0,0E0,0E0,0E0,0E0,0E0,0E0],"parents":[2147483647,0,0,1,1,2,2,3,3,4,4,5,5,6,6,13,13,14,14,16,16,17,17,18,18,19,19,21,21,22,22,23,23,24,24],"right_children":[2,4,6,8,10,12,14,-1,-1,-1,-1,-1,-1,16,18,-1,20,22,24,26,-1,28,30,32,34,-1,-1,-1,-1,-1,-1,-1,-1,-1,-1],"split_conditions":[4.000001E0,2.000001E0,4.000001E0,8.000001E0,2.000001E0,1.35E1,4.000001E0,2.0000002E-1,-2.5E-1,-1.5E-1,2.6666668E-1,2.5714287E-1,-1.5E-1,4.000001E0,4.000001E0,-2.5714287E-1,4.2E1,1.5E0,4.5E0,1.5E0,-2.0000002E-1,2E0,2.000001E0,-9.536743E-7,1.5E0,2.7272728E-1,-2.0000002E-1,2.5E-1,-1.5E-1,7.5E-2,-2.5714287E-1,-2.252988E-1,2.2500001E-1,1.20000005E-1,-2.6986426E-1],"split_indices":[1080,37,2525,1,25,0,378,0,0,0,0,0,0,78,157,0,0,28,187,42,0,1,36,1507,718,0,0,0,0,0,0,0,0,0,0],"split_type":[0,0,0,0,0,0,0,0,0,0,0,0,0,0,0,0,0,0,0,0,0,0,0,0,0,0,0,0,0,0,0,0,0,0,0],"sum_hessian":[1.67E3,1.6E1,1.654E3,7E0,9E0,7E0,1.647E3,2E0,5E0,1E0,8E0,6E0,1E0,2E1,1.627E3,6E0,1.4E1,1.5E1,1.612E3,1.2E1,2E0,6E0,9E0,5.04E2,1.108E3,1E1,2E0,5E0,1E0,3E0,6E0,5.01E2,3E0,4E0,1.104E3],"tree_param":{"num_deleted":"0","num_feature":"4922","num_nodes":"35","size_leaf_vector":"0"}},{"base_weights":[-5.0574714E-1,-7.2124755E-1,6.3917524E-1,-7.3137254E-1,7.5E-1,-1.8181819E-1,7.356322E-1,7.5E-1,-7.416174E-1,-8E-1,2.857143E-1,-4E-1,7.9518074E-1,-7.5149107E-1,4E-1,-6.666667E-1,8E-1,5E-1,-7.5E-1,-2.5E-1,8.375E-1,-7.641129E-1,1.25E-1,7.5E-1,-5E-1,5E-1,-6.666667E-1,-0E0,8.815789E-1,-7.712551E-1,6.666667E-1,-7.5E-1,8E-1,-6.666667E-1,6.666667E-1,-0E0,9.305556E-1],"categories":[],"categories_nodes":[],"categories_segments":[],"categories_sizes":[],"default_left":[0,1,0,0,0,0,0,0,1,0,0,0,0,1,1,0,0,0,0,0,0,1,0,0,0,0,0,0,0,0,0,0,0,0,0,0,0],"id":6,"left_children":[1,3,5,7,-1,9,11,-1,13,-1,15,17,19,21,23,-1,-1,-1,-1,25,27,29,31,-1,-1,-1,-1,33,35,-1,-1,-1,-1,-1,-1,-1,-1],"loss_changes":[1.5072037E2,8.190369E0,7.8152313E0,8.296143E0,0E0,3.407792E0,6.2014656E0,0E0,6.015503E0,0E0,3.9619048E0,1.95E0,3.8805733E0,5.6601562E0,1.95E0,0E0,0E0,0E0,0E0,1.5833334E0,2.953289E0,5.582733E0,5.325E0,0E0,0E0,0E0,0E0,2.6666667E0,3.281433E0,0E0,0E0,0E0,0E0,0E0,0E0,0E0,0E0],"parents":[2147483647,0,0,1,1,2,2,3,3,5,5,6,6,8,8,10,10,11,11,12,12,13,13,14,14,19,19,20,20,21,21,22,22,27,27,28,28],"right_children":[2,4,6,8,-1,10,12,-1,14,-1,16,18,20,22,24,-1,-1,-1,-1,26,28,30,32,-1,-1,-1,-1,34,36,-1,-1,-1,-1,-1,-1,-1,-1],"split_conditions":[4.5E0,-9.536743E-7,1.5E0,2.000001E0,2.2500001E-1,4.000001E0,2.000001E0,2.2500001E-1,-9.536743E-7,-2.4000001E-1,1.5E0,6.5E0,1.5E0,-9.536743E-7,1.5E0,-2.0000002E-1,2.4000001E-1,1.5E-1,-2.2500001E-1,2E0,1.5E0,-9.536743E-7,4.000001E0,2.2500001E-1,-1.5E-1,1.5E-1,-2.0000002E-1,7.5E0,4.000001E0,-2.3137653E-1,2.0000002E-1,-2.2500001E-1,2.4000001E-1,-2.0000002E-1,2.0000002E-1,-0E0,2.791667E-1],"split_indices":[187,1507,48,3487,0,33,603,0,1632,0,131,0,782,74,1,0,0,0,0,6,198,1504,272,0,0,0,0,2,627,0,0,0,0,0,0,0,0],"split_type":[0,0,0,0,0,0,0,0,0,0,0,0,0,0,0,0,0,0,0,0,0,0,0,0,0,0,0,0,0,0,0,0,0,0,0,0,0],"sum_hessian":[6.08E2,5.12E2,9.6E1,5.09E2,3E0,1E1,8.6E1,3E0,5.06E2,4E0,6E0,4E0,8.2E1,5.02E2,4E0,2E0,4E0,1E0,3E0,3E0,7.9E1,4.95E2,7E0,3E0,1E0,1E0,2E0,4E0,7.5E1,4.93E2,2E0,3E0,4E0,2E0,2E0,4E0,7.1E1],"tree_param":{"num_deleted":"0","num_feature":"4922","num_nodes":"37","size_leaf_vector":"0"}},{"base_weights":[-7.479821E-1,8.2758623E-1,-8.8046646E-1,-6.666667E-1,8.7058824E-1,4E-1,-8.8585365E-1,-2.5E-1,9.1463417E-1,-5E-1,7.5E-1,1.25E-1,-8.929273E-1,-6.666667E-1,5E-1,9.382716E-1,-5E-1,-7.5E-1,8E-1,-8.9665353E-1,6.666667E-1,9.625E-1,-5E-1,6.666667E-1,-9.003945E-1,-5E-1,9.8734176E-1,-9.040554E-1,2.5E-1],"categories":[],"categories_nodes":[],"categories_segments":[],"categories_sizes":[],"default_left":[0,0,0,0,0,0,0,0,0,0,0,0,1,0,0,1,0,0,0,0,0,0,0,0,1,0,0,0,0],"id":7,"left_children":[1,3,5,-1,7,9,11,13,15,-1,-1,17,19,-1,-1,21,-1,-1,-1,23,-1,25,-1,-1,27,-1,-1,-1,-1],"loss_changes":[2.334718E2,6.170658E0,7.4524536E0,0E0,4.424034E0,1.95E0,7.440796E0,1.5833334E0,3.2110748E0,0E0,0E0,5.325E0,6.513794E0,0E0,0E0,3.3038635E0,0E0,0E0,0E0,6.5421143E0,0E0,3.400154E0,0E0,0E0,4.49646E0,0E0,0E0,0E0,0E0],"parents":[2147483647,0,0,1,1,2,2,4,4,5,5,6,6,7,7,8,8,11,11,12,12,15,15,19,19,21,21,24,24],"right_children":[2,4,6,-1,8,10,12,14,16,-1,-1,18,20,-1,-1,22,-1,-1,-1,24,-1,26,-1,-1,28,-1,-1,-1,-1],"split_conditions":[4.5E0,1.5E0,1.5E0,-2.0000002E-1,2E0,3.5E0,4.000001E0,1.05E1,1.95E1,-1.5E-1,2.2500001E-1,4.000001E0,-9.536743E-7,-2.0000002E-1,1.5E-1,-9.536743E-7,-1.5E-1,-2.2500001E-1,2.4000001E-1,4.000001E0,2.0000002E-1,2.000001E0,-1.5E-1,2.0000002E-1,-9.536743E-7,-1.5E-1,2.9620254E-1,-2.7121663E-1,7.5E-2],"split_indices":[187,303,718,0,15,0,878,0,0,0,0,35,3380,0,0,370,0,0,0,3797,0,740,0,0,411,0,0,0,0],"split_type":[0,0,0,0,0,0,0,0,0,0,0,0,0,0,0,0,0,0,0,0,0,0,0,0,0,0,0,0,0],"sum_hessian":[1.114E3,8.6E1,1.028E3,2E0,8.4E1,4E0,1.024E3,3E0,8.1E1,1E0,3E0,7E0,1.017E3,2E0,1E0,8E1,1E0,3E0,4E0,1.015E3,2E0,7.9E1,1E0,2E0,1.013E3,1E0,7.8E1,1.01E3,3E0],"tree_param":{"num_deleted":"0","num_feature":"4922","num_nodes":"29","size_leaf_vector":"0"}},{"base_weights":[-4.6011132E-1,-6.982379E-1,8.023256E-1,-7.0953435E-1,7.5E-1,-7.5E-1,8.674699E-1,7.5E-1,-7.2098213E-1,-0E0,9.113924E-1,4E-1,-7.31982E-1,6.666667E-1,-6.666667E-1,9.358974E-1,-5E-1,7.5E-1,-5E-1,-7.431818E-1,4E-1,9.6103895E-1,-5E-1,-7.5114155E-1,6.666667E-1,7.5E-1,-5E-1,-5E-1,9.868421E-1],"categories":[],"categories_nodes":[],"categories_segments":[],"categories_sizes":[],"default_left":[0,1,0,0,0,0,0,0,0,0,1,0,1,0,0,1,0,0,0,1,1,0,0,0,0,0,0,0,0],"id":8,"left_children":[1,3,5,7,-1,-1,9,-1,11,13,15,17,19,-1,-1,21,-1,-1,-1,23,25,27,-1,-1,-1,-1,-1,-1,-1],"loss_changes":[1.6259427E2,7.9595795E0,9.347366E0,8.076233E0,0E0,0E0,3.1624222E0,0E0,5.816925E0,2.6666667E0,3.2002563E0,1.95E0,5.9263153E0,0E0,0E0,3.2963715E0,0E0,0E0,0E0,5.438431E0,1.95E0,3.3962784E0,0E0,0E0,0E0,0E0,0E0,0E0,0E0],"parents":[2147483647,0,0,1,1,2,2,3,3,6,6,8,8,9,9,10,10,11,11,12,12,15,15,19,19,20,20,21,21],"right_children":[2,4,6,8,-1,-1,10,-1,12,14,16,18,20,-1,-1,22,-1,-1,-1,24,26,28,-1,-1,-1,-1,-1,-1,-1],"split_conditions":[4.5E0,-9.536743E-7,1.5E0,6.000001E0,2.2500001E-1,-2.2500001E-1,4.000001E0,2.2500001E-1,4.000001E0,2.5E0,-9.536743E-7,9.5E0,-9.536743E-7,2.0000002E-1,-2.0000002E-1,1.5E0,-1.5E-1,2.2500001E-1,-1.5E-1,1.5E0,1.5E0,2.000001E0,-1.5E-1,-2.2534247E-1,2.0000002E-1,2.2500001E-1,-1.5E-1,-1.5E-1,2.9605263E-1],"split_indices":[187,1507,378,1677,0,0,155,0,157,28,21,0,1632,0,0,123,0,0,0,124,1,185,0,0,0,0,0,0,0],"split_type":[0,0,0,0,0,0,0,0,0,0,0,0,0,0,0,0,0,0,0,0,0,0,0,0,0,0,0,0,0],"sum_hessian":[5.38E2,4.53E2,8.5E1,4.5E2,3E0,3E0,8.2E1,3E0,4.47E2,4E0,7.8E1,4E0,4.43E2,2E0,2E0,7.7E1,1E0,3E0,1E0,4.39E2,4E0,7.6E1,1E0,4.37E2,2E0,3E0,1E0,1E0,7.5E1],"tree_param":{"num_deleted":"0","num_feature":"4922","num_nodes":"29","size_leaf_vector":"0"}},{"base_weights":[-7.397522E-1,8.6585367E-1,-8.75E-1,9.350649E-1,-1.6666667E-1,6.666667E-1,-8.78882E-1,-5E-1,9.605263E-1,-7.5E-1,6.666667E-1,-8.827801E-1,6.666667E-1,9.866667E-1,-5E-1,6.666667E-1,-8.866944E-1,-6.75E-1,-9.1577697E-1,1E-1,-7.387387E-1,-9.202381E-1,2.5E-1],"categories":[],"categories_nodes":[],"categories_segments":[],"categories_sizes":[],"default_left":[0,1,0,0,0,0,1,0,1,0,0,0,0,0,0,0,0,0,1,0,0,0,0],"id":9,"left_children":[1,3,5,7,9,-1,11,-1,13,-1,-1,15,-1,-1,-1,-1,17,19,21,-1,-1,-1,-1],"loss_changes":[2.2855292E2,6.015732E0,6.3791504E0,3.293747E0,3.4166667E0,0E0,6.408325E0,0E0,3.3949127E0,0E0,0E0,6.437805E0,0E0,0E0,0E0,0E0,5.3045044E0,6.0015755E0,4.614197E0,0E0,0E0,0E0,0E0],"parents":[2147483647,0,0,1,1,2,2,3,3,4,4,6,6,8,8,11,11,16,16,17,17,18,18],"right_children":[2,4,6,8,10,-1,12,-1,14,-1,-1,16,-1,-1,-1,-1,18,20,22,-1,-1,-1,-1],"split_conditions":[4.5E0,4.5E0,2.000001E0,1.5E0,5.5E0,2.0000002E-1,-9.536743E-7,-1.5E-1,-9.536743E-7,-2.2500001E-1,2.0000002E-1,4.000001E0,2.0000002E-1,2.96E-1,-1.5E-1,2.0000002E-1,4.000001E0,4.000001E0,2.5E0,3.0000001E-2,-2.2162162E-1,-2.7607143E-1,7.5E-2],"split_indices":[187,2,1814,313,28,0,2303,0,370,0,0,3797,0,0,0,0,186,127,302,0,0,0,0],"split_type":[0,0,0,0,0,0,0,0,0,0,0,0,0,0,0,0,0,0,0,0,0,0,0],"sum_hessian":[1.048E3,8.1E1,9.67E2,7.6E1,5E0,2E0,9.65E2,1E0,7.5E1,3E0,2E0,9.63E2,2E0,7.4E1,1E0,2E0,9.61E2,1.19E2,8.42E2,9E0,1.1E2,8.39E2,3E0],"tree_param":{"num_deleted":"0","num_feature":"4922","num_nodes":"23","size_leaf_vector":"0"}},{"base_weights":[-5.2971137E-1,-7E-1,-6.875E-2,-7.112676E-1,4E-1,-5.631068E-1,8.103448E-1,4E-1,-7.227488E-1,7.5E-1,-5E-1,7.5E-1,-6.1E-1,-6.666667E-1,8.75E-1,-5E-1,7.5E-1,-7.309524E-1,6.666667E-1,7.5E-1,-6.597938E-1,9.0909094E-1,-5E-1,-7.3923445E-1,6.666667E-1,4E-1,-7.096774E-1,9.444444E-1,-5E-1,-7.4759614E-1,6.666667E-1,7.5E-1,-5E-1,6.666667E-1,-7.4725276E-1,-5E-1,9.811321E-1],"categories":[],"categories_nodes":[],"categories_segments":[],"categories_sizes":[],"default_left":[0,1,0,0,1,0,0,0,1,0,0,0,0,0,1,0,0,1,0,0,0,1,0,1,0,0,0,0,0,0,0,0,0,0,0,0,0],"id":10,"left_children":[1,3,5,7,9,11,13,15,17,-1,-1,-1,19,-1,21,-1,-1,23,-1,-1,25,27,-1,29,-1,31,33,35,-1,-1,-1,-1,-1,-1,-1,-1,-1],"loss_changes":[4.618631E1,5.61409E0,6.999015E1,5.724304E0,1.95E0,6.7998047E0,6.1221237E0,1.95E0,5.2973175E0,0E0,0E0,0E0,7.2668037E0,0E0,3.079544E0,0E0,0E0,5.3544006E0,0E0,0E0,5.411907E0,3.2121239E0,0E0,5.4122925E0,0E0,1.95E0,5.307808E0,3.3521996E0,0E0,0E0,0E0,0E0,0E0,0E0,0E0,0E0,0E0],"parents":[2147483647,0,0,1,1,2,2,3,3,4,4,5,5,6,6,7,7,8,8,12,12,14,14,17,17,20,20,21,21,23,23,25,25,26,26,27,27],"right_children":[2,4,6,8,10,12,14,16,18,-1,-1,-1,20,-1,22,-1,-1,24,-1,-1,26,28,-1,30,-1,32,34,36,-1,-1,-1,-1,-1,-1,-1,-1,-1],"split_conditions":[4.5E0,-9.536743E-7,4.000001E0,6.000001E0,1.5E0,2.000001E0,1.5E0,4.5E0,1.5E0,2.2500001E-1,-1.5E-1,2.2500001E-1,4.000001E0,-2.0000002E-1,1.5E0,-1.5E-1,2.2500001E-1,1.5E0,2.0000002E-1,2.2500001E-1,4.000001E0,1.5E0,-1.5E-1,1.5E0,2.0000002E-1,1.6E1,2.000001E0,1.5E0,-1.5E-1,-2.2427885E-1,2.0000002E-1,2.2500001E-1,-1.5E-1,2.0000002E-1,-2.2417584E-1,-1.5E-1,2.9433963E-1],"split_indices":[187,1632,186,1677,1,47,188,0,124,0,0,0,1737,0,85,0,0,169,0,0,889,155,0,779,0,0,987,185,0,0,0,0,0,0,0,0,0],"split_type":[0,0,0,0,0,0,0,0,0,0,0,0,0,0,0,0,0,0,0,0,0,0,0,0,0,0,0,0,0,0,0,0,0,0,0,0,0],"sum_hessian":[5.88E2,4.29E2,1.59E2,4.25E2,4E0,1.02E2,5.7E1,4E0,4.21E2,3E0,1E0,3E0,9.9E1,2E0,5.5E1,1E0,3E0,4.19E2,2E0,3E0,9.6E1,5.4E1,1E0,4.17E2,2E0,4E0,9.2E1,5.3E1,1E0,4.15E2,2E0,3E0,1E0,2E0,9E1,1E0,5.2E1],"tree_param":{"num_deleted":"0","num_feature":"4922","num_nodes":"37","size_leaf_vector":"0"}},{"base_weights":[-7.013129E-1,9.113924E-1,-8.528708E-1,-2.5E-1,9.605263E-1,5.769231E-1,-8.976572E-1,-6.666667E-1,5E-1,-5E-1,9.866667E-1,-4E-1,7.7272725E-1,6.666667E-1,-9.023486E-1,5E-1,-7.5E-1,-2.5E-1,9.4736844E-1,-9.070632E-1,6.666667E-1,-6.666667E-1,5E-1,6.666667E-1,-9.118012E-1,-9.1645885E-1,2.5E-1],"categories":[],"categories_nodes":[],"categories_segments":[],"categories_sizes":[],"default_left":[0,0,0,0,0,0,0,0,0,0,0,0,0,0,1,0,0,0,0,0,0,0,0,0,1,0,0],"id":11,"left_children":[1,3,5,7,9,11,13,-1,-1,-1,-1,15,17,-1,19,-1,-1,21,-1,23,-1,-1,-1,-1,25,-1,-1],"loss_changes":[2.2417554E2,4.748169E0,5.4051453E1,1.5833334E0,3.3949127E0,5.2825184E0,6.5533447E0,0E0,0E0,0E0,0E0,1.95E0,4.1662674E0,0E0,6.5891113E0,0E0,0E0,1.5833334E0,0E0,6.625122E0,0E0,0E0,0E0,0E0,4.585144E0,0E0,0E0],"parents":[2147483647,0,0,1,1,2,2,3,3,4,4,5,5,6,6,11,11,12,12,14,14,17,17,19,19,24,24],"right_children":[2,4,6,8,10,12,14,-1,-1,-1,-1,16,18,-1,20,-1,-1,22,-1,24,-1,-1,-1,-1,26,-1,-1],"split_conditions":[4.5E0,2E0,4.000001E0,1.05E1,2.000001E0,1.5E0,2.000001E0,-2.0000002E-1,1.5E-1,-1.5E-1,2.96E-1,3.5E0,1.5E0,2.0000002E-1,-9.536743E-7,1.5E-1,-2.2500001E-1,7.5E0,2.8421053E-1,4.000001E0,2.0000002E-1,-2.0000002E-1,1.5E-1,2.0000002E-1,2.5E0,-2.7493766E-1,7.5E-2],"split_indices":[187,15,186,0,740,50,1814,0,0,0,0,0,92,0,2303,0,0,0,0,3797,0,0,0,0,302,0,0],"split_type":[0,0,0,0,0,0,0,0,0,0,0,0,0,0,0,0,0,0,0,0,0,0,0,0,0,0,0],"sum_hessian":[9.13E2,7.8E1,8.35E2,3E0,7.5E1,2.5E1,8.1E2,2E0,1E0,1E0,7.4E1,4E0,2.1E1,2E0,8.08E2,1E0,3E0,3E0,1.8E1,8.06E2,2E0,2E0,1E0,2E0,8.04E2,8.01E2,3E0],"tree_param":{"num_deleted":"0","num_feature":"4922","num_nodes":"27","size_leaf_vector":"0"}},{"base_weights":[-5.307557E-1,-6.9789225E-1,-2.7972028E-2,-7.099057E-1,7.5E-1,-5.714286E-1,9.056604E-1,4E-1,-7.214286E-1,8.333333E-1,-6.627907E-1,-6.666667E-1,9.8039216E-1,-5E-1,7.5E-1,-7.296651E-1,6.666667E-1,6.666667E-1,-7.0238096E-1,6.666667E-1,-7.379808E-1,6.666667E-1,-7.4390244E-1,-7.463768E-1,6.666667E-1,1.6666667E-1,-8.051948E-1],"categories":[],"categories_nodes":[],"categories_segments":[],"categories_sizes":[],"default_left":[0,1,0,0,0,0,0,0,1,0,0,0,0,0,0,0,0,0,0,0,1,0,0,0,0,0,0],"id":12,"left_children":[1,3,5,7,-1,9,11,13,15,-1,17,-1,-1,-1,-1,19,-1,-1,21,-1,23,-1,25,-1,-1,-1,-1],"loss_changes":[4.7795563E1,7.959717E0,7.30741E1,5.7112427E0,0E0,1.2231451E1,6.881241E0,1.95E0,5.28833E0,0E0,4.9947395E0,0E0,0E0,0E0,0E0,5.345566E0,0E0,0E0,5.2709045E0,0E0,5.4036713E0,0E0,4.710697E0,0E0,0E0,0E0,0E0],"parents":[2147483647,0,0,1,1,2,2,3,3,5,5,6,6,7,7,8,8,10,10,15,15,18,18,20,20,22,22],"right_children":[2,4,6,8,-1,10,12,14,16,-1,18,-1,-1,-1,-1,20,-1,-1,22,-1,24,-1,26,-1,-1,-1,-1],"split_conditions":[4.5E0,-9.536743E-7,4.000001E0,6.000001E0,2.2500001E-1,4.000001E0,1.5E0,4.5E0,1.5E0,2.5E-1,2.000001E0,-2.0000002E-1,2.9411766E-1,-1.5E-1,2.2500001E-1,4.000001E0,2.0000002E-1,2.0000002E-1,2.000001E0,2.0000002E-1,-9.536743E-7,2.0000002E-1,2.000001E0,-2.2391306E-1,2.0000002E-1,5.0000004E-2,-2.4155845E-1],"split_indices":[187,1632,186,1677,0,127,1206,0,779,0,47,0,0,0,0,976,0,0,485,0,1873,0,281,0,0,0,0],"split_type":[0,0,0,0,0,0,0,0,0,0,0,0,0,0,0,0,0,0,0,0,0,0,0,0,0,0,0],"sum_hessian":[5.68E2,4.26E2,1.42E2,4.23E2,3E0,9E1,5.2E1,4E0,4.19E2,5E0,8.5E1,2E0,5E1,1E0,3E0,4.17E2,2E0,2E0,8.3E1,2E0,4.15E2,2E0,8.1E1,4.13E2,2E0,5E0,7.6E1],"tree_param":{"num_deleted":"0","num_feature":"4922","num_nodes":"27","size_leaf_vector":"0"}},{"base_weights":[-7.9596776E-1,-4.1584158E-1,-8.2894737E-1,-7.432432E-1,4.642857E-1,-6.5588236E-1,-9.0137327E-1,6.666667E-1,-7.916667E-1,-7.5E-1,6.4E-1,7.5E-1,-6.706231E-1,6.666667E-1,-9.0613264E-1,6.666667E-1,-8.428571E-1,7.826087E-1,-6.666667E-1,-6.856288E-1,7.5E-1,-9.1080403E-1,2.5E-1,2.5E-1,-8.955224E-1,-6.666667E-1,9.5238096E-1,7.5E-1,-7.0090634E-1,-9.155107E-1,2.5E-1,-5E-1,6.666667E-1,6.666667E-1,-5E-1,-9.2424244E-1,5E-1,7.5E-1,-7.164634E-1,-2.2222222E-1,-9.22293E-1,6.666667E-1,-5E-1],"categories":[],"categories_nodes":[],"categories_segments":[],"categories_sizes":[],"default_left":[0,0,0,0,0,0,0,0,0,0,1,0,1,0,1,0,0,0,0,0,0,1,0,0,1,0,0,0,0,0,1,0,0,0,0,0,0,0,0,0,0,0,0],"id":13,"left_children":[1,3,5,7,9,11,13,-1,15,-1,17,-1,19,-1,21,-1,23,25,-1,27,-1,29,31,33,35,-1,-1,-1,37,39,41,-1,-1,-1,-1,-1,-1,-1,-1,-1,-1,-1,-1],"loss_changes":[1.5200439E1,2.9448746E1,1.3697998E1,5.5799522E0,6.4542856E0,7.5490723E0,6.581848E0,0E0,5.936905E0,0E0,5.18029E0,0E0,7.6981506E0,0E0,4.5428467E0,0E0,4.2527695E0,6.293996E0,0E0,7.851288E0,0E0,4.577881E0,1.5833334E0,1.5833334E0,3.1474457E0,0E0,0E0,0E0,8.008621E0,3.5238037E0,1.5833334E0,0E0,0E0,0E0,0E0,0E0,0E0,0E0,0E0,0E0,0E0,0E0,0E0],"parents":[2147483647,0,0,1,1,2,2,3,3,4,4,5,5,6,6,8,8,10,10,12,12,14,14,16,16,17,17,19,19,21,21,22,22,23,23,24,24,28,28,29,29,30,30],"right_children":[2,4,6,8,10,12,14,-1,16,-1,18,-1,20,-1,22,-1,24,26,-1,28,-1,30,32,34,36,-1,-1,-1,38,40,42,-1,-1,-1,-1,-1,-1,-1,-1,-1,-1,-1,-1],"split_conditions":[2.5E0,8.000001E0,4.5E0,2.000001E0,2.000001E0,4.000001E0,4.000001E0,2.0000002E-1,2.000001E0,-2.2500001E-1,1.5E0,2.2500001E-1,-9.536743E-7,2.0000002E-1,2.5E0,2.0000002E-1,4.000001E0,4.000001E0,-2.0000002E-1,2.000001E0,2.2500001E-1,-9.536743E-7,2.000001E0,1.15E1,1.5E0,-2.0000002E-1,2.857143E-1,2.2500001E-1,2.000001E0,1.5E0,6.5E0,-1.5E-1,2.0000002E-1,2.0000002E-1,-1.5E-1,-2.7727273E-1,1.5E-1,2.2500001E-1,-2.1493903E-1,-6.666667E-2,-2.7668792E-1,2.0000002E-1,-1.5E-1],"split_indices":[186,187,187,198,615,157,3797,0,371,0,45,0,936,0,302,0,169,1138,0,1780,0,3380,3,0,4,0,0,0,3487,263,2,0,0,0,0,0,0,0,0,0,0,0,0],"split_type":[0,0,0,0,0,0,0,0,0,0,0,0,0,0,0,0,0,0,0,0,0,0,0,0,0,0,0,0,0,0,0,0,0,0,0,0,0,0,0,0,0,0,0],"sum_hessian":[1.239E3,1E2,1.139E3,7.3E1,2.7E1,3.39E2,8E2,2E0,7.1E1,3E0,2.4E1,3E0,3.36E2,2E0,7.98E2,2E0,6.9E1,2.2E1,2E0,3.33E2,3E0,7.95E2,3E0,3E0,6.6E1,2E0,2E1,3E0,3.3E2,7.92E2,3E0,1E0,2E0,2E0,1E0,6.5E1,1E0,3E0,3.27E2,8E0,7.84E2,2E0,1E0],"tree_param":{"num_deleted":"0","num_feature":"4922","num_nodes":"43","size_leaf_vector":"0"}},{"base_weights":[2.927928E-1,-3.4313726E-1,8.264463E-1,9.3333334E-1,-5.568182E-1,-2.2222222E-1,9.026549E-1,8.333333E-1,-6.506024E-1,-8.333333E-1,7.5E-1,-1.6666667E-1,9.537037E-1,4E-1,-7.0886075E-1,6.666667E-1,-7.5E-1,9.7196263E-1,-5E-1,-5E-1,7.5E-1,4E-1,-7.733333E-1,9.90566E-1,-5E-1,-5E-1,7.5E-1,6.666667E-1,-8.2191783E-1],"categories":[],"categories_nodes":[],"categories_segments":[],"categories_sizes":[],"default_left":[0,0,0,0,0,1,0,0,0,0,0,0,1,0,0,0,0,1,0,0,0,0,0,0,0,0,0,0,0],"id":14,"left_children":[1,3,5,-1,7,9,11,-1,13,-1,-1,15,17,19,21,-1,-1,23,-1,-1,-1,25,27,-1,-1,-1,-1,-1,-1],"loss_changes":[7.56229E1,2.8340954E1,9.870605E0,0E0,1.2015108E1,5.972222E0,6.3273544E0,0E0,5.3636703E0,0E0,0E0,3.4166667E0,3.3526306E0,1.95E0,5.9571304E0,0E0,0E0,3.4253235E0,0E0,0E0,0E0,1.95E0,5.795067E0,0E0,0E0,0E0,0E0,0E0,0E0],"parents":[2147483647,0,0,1,1,2,2,4,4,5,5,6,6,8,8,11,11,12,12,13,13,14,14,17,17,21,21,22,22],"right_children":[2,4,6,-1,8,10,12,-1,14,-1,-1,16,18,20,22,-1,-1,24,-1,-1,-1,26,28,-1,-1,-1,-1,-1,-1],"split_conditions":[2.5E0,3.5E0,1.5E0,2.8E-1,4.000001E0,1.5E0,1.5E0,2.5E-1,2.000001E0,-2.5E-1,2.2500001E-1,1.5E0,4.5E0,3E0,2.000001E0,2.0000002E-1,-2.2500001E-1,2.5E0,-1.5E-1,-1.5E-1,2.2500001E-1,1.5E0,2.000001E0,2.971698E-1,-1.5E-1,-1.5E-1,2.2500001E-1,2.0000002E-1,-2.4657536E-1],"split_indices":[186,187,263,0,127,28,157,0,216,0,0,42,41,1,281,0,0,156,0,0,0,11,47,0,0,0,0,0,0],"split_type":[0,0,0,0,0,0,0,0,0,0,0,0,0,0,0,0,0,0,0,0,0,0,0,0,0,0,0,0,0],"sum_hessian":[2.21E2,1.01E2,1.2E2,1.4E1,8.7E1,8E0,1.12E2,5E0,8.2E1,5E0,3E0,5E0,1.07E2,4E0,7.8E1,2E0,3E0,1.06E2,1E0,1E0,3E0,4E0,7.4E1,1.05E2,1E0,1E0,3E0,2E0,7.2E1],"tree_param":{"num_deleted":"0","num_feature":"4922","num_nodes":"29","size_leaf_vector":"0"}},{"base_weights":[-8.09025E-1,8.5714287E-1,-8.1781375E-1,-4.5360824E-1,-8.481124E-1,-7.361111E-1,3.4615386E-1,-6.9970846E-1,-9.109159E-1,6.666667E-1,-7.8571427E-1,-7.5E-1,5.217391E-1,4E-1,-7.138643E-1,6.666667E-1,-9.1572326E-1,6.666667E-1,-8.382353E-1,-4E-1,7.368421E-1,-5E-1,7.5E-1,4E-1,-7.283582E-1,-9.205549E-1,6.666667E-1,2.5E-1,-8.923077E-1,5E-1,-7.5E-1,-0E0,9.3333334E-1,7.5E-1,-5E-1,-7.387387E-1,6.666667E-1,2.5E-1,-9.2531645E-1],"categories":[],"categories_nodes":[],"categories_segments":[],"categories_sizes":[],"default_left":[0,0,0,0,0,0,0,0,0,0,0,0,0,0,0,0,1,0,0,0,0,0,0,1,1,0,0,0,0,0,0,0,0,0,0,0,0,0,0],"id":15,"left_children":[1,-1,3,5,7,9,11,13,15,-1,17,-1,19,21,23,-1,25,-1,27,29,31,-1,-1,33,35,37,-1,-1,-1,-1,-1,-1,-1,-1,-1,-1,-1,-1,-1],"loss_changes":[1.8873657E1,0E0,1.3243408E1,2.217051E1,9.978455E0,5.5337296E0,5.3954854E0,5.6251373E0,6.654907E0,0E0,5.8984566E0,0E0,4.85492E0,1.95E0,5.7642517E0,0E0,6.6918335E0,0E0,4.224434E0,1.95E0,2.7508774E0,0E0,0E0,1.95E0,5.3436584E0,4.651245E0,0E0,0E0,0E0,0E0,0E0,0E0,0E0,0E0,0E0,0E0,0E0,0E0,0E0],"parents":[2147483647,0,0,2,2,3,3,4,4,5,5,6,6,7,7,8,8,10,10,12,12,13,13,14,14,16,16,18,18,19,19,20,20,23,23,24,24,25,25],"right_children":[2,-1,4,6,8,10,12,14,16,-1,18,-1,20,22,24,-1,26,-1,28,30,32,-1,-1,34,36,38,-1,-1,-1,-1,-1,-1,-1,-1,-1,-1,-1,-1,-1],"split_conditions":[4.000001E0,2.5714287E-1,2.5E0,3.5E0,4.5E0,2.000001E0,2.000001E0,1.5E0,1.5E0,2.0000002E-1,2.000001E0,-2.2500001E-1,1.5E0,2.000001E0,2.000001E0,2.0000002E-1,-9.536743E-7,2.0000002E-1,4.000001E0,3.5E0,4.5E0,-1.5E-1,2.2500001E-1,1.5E0,1.5E0,4.000001E0,2.0000002E-1,7.5E-2,-2.6769233E-1,1.5E-1,-2.2500001E-1,-0E0,2.8E-1,2.2500001E-1,-1.5E-1,-2.2162162E-1,2.0000002E-1,7.5E-2,-2.7759495E-1],"split_indices":[157,0,186,187,187,198,846,327,263,0,371,0,50,1,1780,0,3380,0,169,0,0,0,0,1,124,878,0,0,0,0,0,0,0,0,0,0,0,0,0],"split_type":[0,0,0,0,0,0,0,0,0,0,0,0,0,0,0,0,0,0,0,0,0,0,0,0,0,0,0,0,0,0,0,0,0,0,0,0,0,0,0],"sum_hessian":[1.24E3,6E0,1.234E3,9.6E1,1.138E3,7.1E1,2.5E1,3.42E2,7.96E2,2E0,6.9E1,3E0,2.2E1,4E0,3.38E2,2E0,7.94E2,2E0,6.7E1,4E0,1.8E1,1E0,3E0,4E0,3.34E2,7.92E2,2E0,3E0,6.4E1,1E0,3E0,4E0,1.4E1,3E0,1E0,3.32E2,2E0,3E0,7.89E2],"tree_param":{"num_deleted":"0","num_feature":"4922","num_nodes":"39","size_leaf_vector":"0"}},{"base_weights":[-6.82783E-1,9.027778E-1,-8.288288E-1,9.5714283E-1,-6.666667E-1,7.5E-1,-8.359173E-1,9.8550725E-1,-5E-1,-8.43061E-1,7.5E-1,-5E-1,-8.782235E-1,5.5555556E-2,-6.666667E-1,8E-1,-8.89049E-1,-7.5E-1,2.6666668E-1,7.5E-1,-7.592593E-1,-8.9450866E-1,6.666667E-1],"categories":[],"categories_nodes":[],"categories_segments":[],"categories_sizes":[],"default_left":[0,1,0,1,0,0,1,0,0,0,0,0,0,0,0,0,1,0,0,0,0,0,0],"id":16,"left_children":[1,3,5,7,-1,-1,9,-1,-1,11,-1,13,15,17,19,-1,21,-1,-1,-1,-1,-1,-1],"loss_changes":[1.9711493E2,6.781349E0,9.322754E0,3.3859253E0,0E0,0E0,9.401123E0,0E0,0E0,8.861389E0,0E0,6.8888893E0,1.3392212E1,3.261111E0,8.046297E0,0E0,6.490967E0,0E0,0E0,0E0,0E0,0E0,0E0],"parents":[2147483647,0,0,1,1,2,2,3,3,6,6,9,9,11,11,12,12,13,13,14,14,16,16],"right_children":[2,4,6,8,-1,-1,10,-1,-1,12,-1,14,16,18,20,-1,22,-1,-1,-1,-1,-1,-1],"split_conditions":[4.5E0,-9.536743E-7,1.5E0,2E0,-2.0000002E-1,2.2500001E-1,-9.536743E-7,2.9565218E-1,-1.5E-1,4.000001E0,2.2500001E-1,5.5E0,1.5E0,4.000001E0,2.000001E0,2.4000001E-1,-9.536743E-7,-2.2500001E-1,8.0000006E-2,2.2500001E-1,-2.277778E-1,-2.683526E-1,2.0000002E-1],"split_indices":[187,741,718,85,0,0,936,0,0,186,0,0,48,962,47,0,76,0,0,0,0,0,0],"split_type":[0,0,0,0,0,0,0,0,0,0,0,0,0,0,0,0,0,0,0,0,0,0,0],"sum_hessian":[8.47E2,7.1E1,7.76E2,6.9E1,2E0,3E0,7.73E2,6.8E1,1E0,7.7E2,3E0,7.3E1,6.97E2,1.7E1,5.6E1,4E0,6.93E2,3E0,1.4E1,3E0,5.3E1,6.91E2,2E0],"tree_param":{"num_deleted":"0","num_feature":"4922","num_nodes":"23","size_leaf_vector":"0"}},{"base_weights":[-5.448155E-1,-7.195122E-1,-9.375E-2,-7.2794116E-1,6.666667E-1,-8.9285713E-1,7.7922076E-1,-7.364532E-1,6.666667E-1,-0E0,-9.375E-1,-7.5E-1,8.513514E-1,-7.450495E-1,6.666667E-1,-6.666667E-1,6.666667E-1,5E-1,-9.6202534E-1,-0E0,9E-1,6.666667E-1,-7.5373137E-1,-9.8717946E-1,5E-1,5E-1,-2.5E-1,-5E-1,9.2753625E-1,6.666667E-1,-7.625E-1,5E-1,-6.666667E-1,-5E-1,9.558824E-1],"categories":[],"categories_nodes":[],"categories_segments":[],"categories_sizes":[],"default_left":[0,1,0,1,0,0,0,1,0,1,0,0,0,0,0,0,0,0,1,0,0,0,0,0,0,0,0,0,0,0,0,0,0,0,0],"id":17,"left_children":[1,3,5,7,-1,9,11,13,-1,15,17,-1,19,21,-1,-1,-1,-1,23,25,27,-1,29,-1,-1,-1,31,-1,33,-1,-1,-1,-1,-1,-1],"loss_changes":[4.476956E1,5.275757E0,1.1231128E2,5.334305E0,0E0,3.3482132E0,9.131889E0,5.3937225E0,0E0,2.6666667E0,3.301422E0,0E0,3.064865E0,5.4540253E0,0E0,0E0,0E0,0E0,3.3988953E0,7.5E-1,3.1623192E0,0E0,5.5152283E0,0E0,0E0,0E0,1.5833334E0,0E0,3.2700348E0,0E0,0E0,0E0,0E0,0E0,0E0],"parents":[2147483647,0,0,1,1,2,2,3,3,5,5,6,6,7,7,9,9,10,10,12,12,13,13,18,18,19,19,20,20,22,22,26,26,28,28],"right_children":[2,4,6,8,-1,10,12,14,-1,16,18,-1,20,22,-1,-1,-1,-1,24,26,28,-1,30,-1,-1,-1,32,-1,34,-1,-1,-1,-1,-1,-1],"split_conditions":[4.5E0,1.5E0,1.5E0,1.5E0,2.0000002E-1,2.000001E0,1.5E0,1.5E0,2.0000002E-1,1.5E0,2.000001E0,-2.2500001E-1,1.5E0,4.000001E0,2.0000002E-1,-2.0000002E-1,2.0000002E-1,1.5E-1,-9.536743E-7,3E0,1.5E0,2.0000002E-1,2.000001E0,-2.9615384E-1,1.5E-1,1.5E-1,2.000001E0,-1.5E-1,1.5E0,2.0000002E-1,-2.2875E-1,1.5E-1,-2.0000002E-1,-1.5E-1,2.867647E-1],"split_indices":[187,124,48,779,0,1219,155,795,0,2,492,0,1015,2306,0,0,0,0,520,0,43,0,2542,0,0,0,6,0,118,0,0,0,0,0,0],"split_type":[0,0,0,0,0,0,0,0,0,0,0,0,0,0,0,0,0,0,0,0,0,0,0,0,0,0,0,0,0,0,0,0,0,0,0],"sum_hessian":[5.68E2,4.09E2,1.59E2,4.07E2,2E0,8.3E1,7.6E1,4.05E2,2E0,4E0,7.9E1,3E0,7.3E1,4.03E2,2E0,2E0,2E0,1E0,7.8E1,4E0,6.9E1,2E0,4.01E2,7.7E1,1E0,1E0,3E0,1E0,6.8E1,2E0,3.99E2,1E0,2E0,1E0,6.7E1],"tree_param":{"num_deleted":"0","num_feature":"4922","num_nodes":"35","size_leaf_vector":"0"}},{"base_weights":[-6.918239E-1,8.194444E-1,-8.4116024E-1,-7.5E-1,8.9855075E-1,3.75E-1,-8.535565E-1,-2.5E-1,9.5454544E-1,-6.666667E-1,8.333333E-1,-2.1052632E-1,-8.6981404E-1,-6.666667E-1,5E-1,-5E-1,9.846154E-1,-4.375E-1,7.5E-1,-8.7517935E-1,6.666667E-1,-6.4285713E-1,6.666667E-1,-8.8057554E-1,6.666667E-1,5E-1,-7.692308E-1,-8.860029E-1,6.666667E-1],"categories":[],"categories_nodes":[],"categories_segments":[],"categories_sizes":[],"default_left":[0,0,0,0,0,0,0,0,0,0,0,1,1,0,0,0,0,1,0,1,0,0,0,1,0,0,0,0,0],"id":18,"left_children":[1,3,5,-1,7,9,11,13,15,-1,-1,17,19,-1,-1,-1,-1,21,-1,23,-1,25,-1,27,-1,-1,-1,-1,-1],"loss_changes":[1.8011069E2,9.612923E0,1.1234985E1,0E0,4.67622E0,4.375E0,7.312439E0,1.5833334E0,3.3790207E0,0E0,0E0,4.4703946E0,6.345764E0,0E0,0E0,0E0,0E0,4.0565476E0,0E0,6.3861694E0,0E0,2.4065933E0,0E0,6.42688E0,0E0,0E0,0E0,0E0,0E0],"parents":[2147483647,0,0,1,1,2,2,4,4,5,5,6,6,7,7,8,8,11,11,12,12,17,17,19,19,21,21,23,23],"right_children":[2,4,6,-1,8,10,12,14,16,-1,-1,18,20,-1,-1,-1,-1,22,-1,24,-1,26,-1,28,-1,-1,-1,-1,-1],"split_conditions":[4.5E0,4.000001E0,1.5E0,-2.2500001E-1,2E0,1.5E0,1.5E0,1.05E1,4.000001E0,-2.0000002E-1,2.5E-1,9.5E0,-9.536743E-7,-2.0000002E-1,1.5E-1,-1.5E-1,2.9538462E-1,1.5E0,2.2500001E-1,2.5E0,2.0000002E-1,2.000001E0,2.0000002E-1,-9.536743E-7,2.0000002E-1,1.5E-1,-2.3076925E-1,-2.658009E-1,2.0000002E-1],"split_indices":[187,308,48,0,15,663,275,0,280,0,0,0,142,0,0,0,0,3,0,302,0,26,0,411,0,0,0,0,0],"split_type":[0,0,0,0,0,0,0,0,0,0,0,0,0,0,0,0,0,0,0,0,0,0,0,0,0,0,0,0,0],"sum_hessian":[7.94E2,7.1E1,7.23E2,3E0,6.8E1,7E0,7.16E2,3E0,6.5E1,2E0,5E0,1.8E1,6.98E2,2E0,1E0,1E0,6.4E1,1.5E1,3E0,6.96E2,2E0,1.3E1,2E0,6.94E2,2E0,1E0,1.2E1,6.92E2,2E0],"tree_param":{"num_deleted":"0","num_feature":"4922","num_nodes":"29","size_leaf_vector":"0"}},{"base_weights":[-5.0766283E-1,-6.908602E-1,-5.2980132E-2,7.5E-1,-7.0460707E-1,-8.875E-1,8.75E-1,4E-1,-7.1780825E-1,5E-1,-9.113924E-1,9.285714E-1,-6.666667E-1,-5E-1,7.5E-1,4E-1,-7.3130196E-1,5E-1,-9.358974E-1,9.848485E-1,-0E0,7.5E-1,-5E-1,-7.4094707E-1,6.666667E-1,-9.6103895E-1,5E-1,6.666667E-1,-6.666667E-1,6.666667E-1,-7.507003E-1,-9.868421E-1,5E-1],"categories":[],"categories_nodes":[],"categories_segments":[],"categories_sizes":[],"default_left":[0,0,0,0,0,0,1,0,0,0,0,1,0,0,0,0,1,0,1,0,0,0,0,0,0,1,0,0,0,0,0,0,0],"id":19,"left_children":[1,3,5,-1,7,9,11,13,15,-1,17,19,-1,-1,-1,21,23,-1,25,-1,27,-1,-1,29,-1,31,-1,-1,-1,-1,-1,-1,-1],"loss_changes":[4.344426E1,7.896759E0,1.1771365E2,0E0,5.667923E0,3.1077538E0,6.5654755E0,1.95E0,5.7979584E0,0E0,3.2002563E0,3.6580086E0,0E0,0E0,0E0,1.95E0,5.3615417E0,0E0,3.2963715E0,0E0,2.6666667E0,0E0,0E0,5.429077E0,0E0,3.3962784E0,0E0,0E0,0E0,0E0,0E0,0E0,0E0],"parents":[2147483647,0,0,1,1,2,2,4,4,5,5,6,6,7,7,8,8,10,10,11,11,15,15,16,16,18,18,20,20,23,23,25,25],"right_children":[2,4,6,-1,8,10,12,14,16,-1,18,20,-1,-1,-1,22,24,-1,26,-1,28,-1,-1,30,-1,32,-1,-1,-1,-1,-1,-1,-1],"split_conditions":[3.5E0,2.000001E0,1.5E0,2.2500001E-1,2.000001E0,2.000001E0,-9.536743E-7,4E0,2.000001E0,1.5E-1,2.000001E0,-9.536743E-7,-2.0000002E-1,-1.5E-1,2.2500001E-1,1.25E1,1.5E0,1.5E-1,-9.536743E-7,2.9545456E-1,1.5E0,2.2500001E-1,-1.5E-1,1.5E0,2.0000002E-1,-9.536743E-7,1.5E-1,2.0000002E-1,-2.0000002E-1,2.0000002E-1,-2.252101E-1,-2.9605263E-1,1.5E-1],"split_indices":[187,759,48,0,198,26,1145,2,1780,0,427,508,0,0,0,0,124,0,520,0,28,0,0,280,0,897,0,0,0,0,0,0,0],"split_type":[0,0,0,0,0,0,0,0,0,0,0,0,0,0,0,0,0,0,0,0,0,0,0,0,0,0,0,0,0,0,0,0,0],"sum_hessian":[5.21E2,3.71E2,1.5E2,3E0,3.68E2,7.9E1,7.1E1,4E0,3.64E2,1E0,7.8E1,6.9E1,2E0,1E0,3E0,4E0,3.6E2,1E0,7.7E1,6.5E1,4E0,3E0,1E0,3.58E2,2E0,7.6E1,1E0,2E0,2E0,2E0,3.56E2,7.5E1,1E0],"tree_param":{"num_deleted":"0","num_feature":"4922","num_nodes":"33","size_leaf_vector":"0"}},{"base_weights":[-7.7724206E-1,-3.6666667E-1,-8.1540084E-1,6.875E-1,-5.8666664E-1,-8.21164E-1,7.5E-1,-6.666667E-1,9.285714E-1,4E-1,-6.4788735E-1,7.5E-1,-8.269639E-1,7.5E-1,-5E-1,4E-1,-7.164179E-1,1E-1,-8.3601284E-1,-5E-1,7.5E-1,4E-1,-7.936508E-1,-8E-1,8.333333E-1,4E-1,-8.4176534E-1,7.5E-1,-5E-1,-8.2258064E-1,5E-1,-5E-1,7.5E-1,-8.4573895E-1,6.666667E-1],"categories":[],"categories_nodes":[],"categories_segments":[],"categories_sizes":[],"default_left":[0,0,1,0,0,0,0,0,0,1,0,0,0,0,0,0,0,0,0,0,0,0,1,0,0,0,1,0,0,0,0,0,0,0,0],"id":20,"left_children":[1,3,5,7,9,11,-1,-1,-1,13,15,-1,17,-1,-1,19,21,23,25,-1,-1,27,29,-1,-1,31,33,-1,-1,-1,-1,-1,-1,-1,-1],"loss_changes":[1.5947754E1,2.1275831E1,9.168396E0,5.8422613E0,4.789482E0,9.231628E0,0E0,0E0,0E0,1.95E0,5.3852444E0,0E0,7.9851074E0,0E0,0E0,1.95E0,6.0944786E0,7.266667E0,6.970459E0,0E0,0E0,1.95E0,2.7690735E0,0E0,0E0,1.95E0,6.132141E0,0E0,0E0,0E0,0E0,0E0,0E0,0E0,0E0],"parents":[2147483647,0,0,1,1,2,2,3,3,4,4,5,5,9,9,10,10,12,12,15,15,16,16,17,17,18,18,21,21,22,22,25,25,26,26],"right_children":[2,4,6,8,10,12,-1,-1,-1,14,16,-1,18,-1,-1,20,22,24,26,-1,-1,28,30,-1,-1,32,34,-1,-1,-1,-1,-1,-1,-1,-1],"split_conditions":[2.5E0,3.5E0,-9.536743E-7,4.000001E0,4.000001E0,4.000001E0,2.2500001E-1,-2.0000002E-1,2.7857143E-1,1.5E0,2.000001E0,2.2500001E-1,1.5E0,2.2500001E-1,-1.5E-1,2E0,2.000001E0,2.5E0,6.000001E0,-1.5E-1,2.2500001E-1,1.35E1,1.5E0,-2.4000001E-1,2.5E-1,4.5E0,-9.536743E-7,2.2500001E-1,-1.5E-1,-2.467742E-1,1.5E-1,-1.5E-1,2.2500001E-1,-2.5372168E-1,2.0000002E-1],"split_indices":[186,187,76,81,127,2306,0,0,0,1,281,0,759,0,0,1,216,136,1677,0,0,0,8,0,0,0,699,0,0,0,0,0,0,0,0],"split_type":[0,0,0,0,0,0,0,0,0,0,0,0,0,0,0,0,0,0,0,0,0,0,0,0,0,0,0,0,0,0,0,0,0,0,0],"sum_hessian":[1.036E3,8.9E1,9.47E2,1.5E1,7.4E1,9.44E2,3E0,2E0,1.3E1,4E0,7E1,3E0,9.41E2,3E0,1E0,4E0,6.6E1,9E0,9.32E2,1E0,3E0,4E0,6.2E1,4E0,5E0,4E0,9.28E2,3E0,1E0,6.1E1,1E0,1E0,3E0,9.26E2,2E0],"tree_param":{"num_deleted":"0","num_feature":"4922","num_nodes":"35","size_leaf_vector":"0"}},{"base_weights":[3.0331755E-1,-4.516129E-1,8.907563E-1,7.5E-1,-5E-1,9.2241377E-1,-2.5E-1,-7.878788E-1,-3.275862E-1,9.391304E-1,-5E-1,5E-1,-6.666667E-1,-0E0,-8.965517E-1,-5.952381E-1,3.529412E-1,-5E-1,9.5614034E-1,-6.666667E-1,6.666667E-1,-9.6428573E-1,5E-1,6.666667E-1,-6.75E-1,7.692308E-1,-8E-1,9.734513E-1,-5E-1,2.5E-1,-7.567568E-1,9.166667E-1,-5E-1,9.910714E-1,-5E-1],"categories":[],"categories_nodes":[],"categories_segments":[],"categories_sizes":[],"default_left":[0,0,1,0,0,1,0,0,0,0,0,0,0,0,1,0,1,0,1,0,0,0,0,0,0,0,0,1,0,0,0,0,0,0,0],"id":21,"left_children":[1,3,5,-1,7,9,11,13,15,17,-1,-1,-1,19,21,23,25,-1,27,-1,-1,-1,-1,-1,29,31,-1,33,-1,-1,-1,-1,-1,-1,-1],"loss_changes":[9.3975586E1,5.782259E0,4.5281067E0,0E0,4.2089863E0,3.2278137E0,1.5833334E0,2.8254967E0,1.0774462E1,3.293213E0,0E0,0E0,0E0,2.6666667E0,3.2253704E0,4.6773815E0,8.77466E0,0E0,3.360344E0,0E0,0E0,0E0,0E0,0E0,3.2141895E0,2.8910255E0,0E0,3.4292831E0,0E0,0E0,0E0,0E0,0E0,0E0,0E0],"parents":[2147483647,0,0,1,1,2,2,4,4,5,5,6,6,7,7,8,8,9,9,13,13,14,14,15,15,16,16,18,18,24,24,25,25,27,27],"right_children":[2,4,6,-1,8,10,12,14,16,18,-1,-1,-1,20,22,24,26,-1,28,-1,-1,-1,-1,-1,30,32,-1,34,-1,-1,-1,-1,-1,-1,-1],"split_conditions":[2.5E0,1.5E0,-9.536743E-7,2.2500001E-1,4.5E0,-9.536743E-7,1.5E0,2.000001E0,8.000001E0,2.000001E0,-1.5E-1,1.5E-1,-2.0000002E-1,4.000001E0,-9.536743E-7,2.000001E0,2.5E0,-1.5E-1,2.5E0,-2.0000002E-1,2.0000002E-1,-2.8928572E-1,1.5E-1,2.0000002E-1,4.000001E0,1.35E1,-2.4000001E-1,-9.536743E-7,-1.5E-1,7.5E-2,-2.2702704E-1,2.75E-1,-1.5E-1,2.9732144E-1,-1.5E-1],"split_indices":[186,30,55,0,0,21,6,273,187,130,0,0,0,83,209,371,2,0,295,0,0,0,0,0,282,0,0,4378,0,0,0,0,0,0,0],"split_type":[0,0,0,0,0,0,0,0,0,0,0,0,0,0,0,0,0,0,0,0,0,0,0,0,0,0,0,0,0,0,0,0,0,0,0],"sum_hessian":[2.1E2,9.2E1,1.18E2,3E0,8.9E1,1.15E2,3E0,3.2E1,5.7E1,1.14E2,1E0,1E0,2E0,4E0,2.8E1,4.1E1,1.6E1,1E0,1.13E2,2E0,2E0,2.7E1,1E0,2E0,3.9E1,1.2E1,4E0,1.12E2,1E0,3E0,3.6E1,1.1E1,1E0,1.11E2,1E0],"tree_param":{"num_deleted":"0","num_feature":"4922","num_nodes":"35","size_leaf_vector":"0"}},{"base_weights":[-7.8571427E-1,-1.04166664E-1,-8.1942976E-1,5.625E-1,-4.2424244E-1,4E-1,-8.250265E-1,-7.5E-1,9.230769E-1,-9.0909094E-1,-1.7391305E-1,-5E-1,7.5E-1,-8.289054E-1,6.666667E-1,-5.833333E-1,2.5E-1,-8.3280087E-1,6.666667E-1,6.666667E-1,-9E-1,8.5714287E-1,-5E-1,-8.367129E-1,6.666667E-1,-8E-1,5E-1,-8.4064174E-1,6.666667E-1],"categories":[],"categories_nodes":[],"categories_segments":[],"categories_sizes":[],"default_left":[0,0,0,0,0,0,1,0,0,0,0,0,0,1,0,0,0,1,0,0,0,0,0,1,0,0,0,0,0],"id":22,"left_children":[1,3,5,7,9,11,13,-1,-1,-1,15,-1,-1,17,-1,19,21,23,-1,-1,-1,-1,25,27,-1,-1,-1,-1,-1],"loss_changes":[2.2755432E1,1.0481061E1,6.793091E0,8.264423E0,3.847167E0,1.95E0,6.008911E0,0E0,0E0,0E0,4.1376815E0,0E0,0E0,6.0373535E0,0E0,5.35E0,5.892857E0,6.065979E0,0E0,0E0,0E0,0E0,2.2E0,6.0947876E0,0E0,0E0,0E0,0E0,0E0],"parents":[2147483647,0,0,1,1,2,2,3,3,4,4,5,5,6,6,10,10,13,13,15,15,16,16,17,17,22,22,23,23],"right_children":[2,4,6,8,10,12,14,-1,-1,-1,16,-1,-1,18,-1,20,22,24,-1,-1,-1,-1,26,28,-1,-1,-1,-1,-1],"split_conditions":[1.5E0,3.5E0,4.000001E0,2.000001E0,2.5E0,2.000001E0,-9.536743E-7,-2.2500001E-1,2.769231E-1,-2.7272728E-1,3.5E0,-1.5E-1,2.2500001E-1,-9.536743E-7,2.0000002E-1,1.5E0,7.5E0,-9.536743E-7,2.0000002E-1,2.0000002E-1,-2.7E-1,2.5714287E-1,1.1E1,2.5E0,2.0000002E-1,-2.4000001E-1,1.5E-1,-2.5219253E-1,2.0000002E-1],"split_indices":[186,187,2306,12,1,1,699,0,0,0,115,0,0,1382,0,80,0,1504,0,0,0,0,0,2137,0,0,0,0,0],"split_type":[0,0,0,0,0,0,0,0,0,0,0,0,0,0,0,0,0,0,0,0,0,0,0,0,0,0,0,0,0],"sum_hessian":[9.93E2,4.7E1,9.46E2,1.5E1,3.2E1,4E0,9.42E2,3E0,1.2E1,1E1,2.2E1,1E0,3E0,9.4E2,2E0,1.1E1,1.1E1,9.38E2,2E0,2E0,9E0,6E0,5E0,9.36E2,2E0,4E0,1E0,9.34E2,2E0],"tree_param":{"num_deleted":"0","num_feature":"4922","num_nodes":"29","size_leaf_vector":"0"}},{"base_weights":[4.247312E-1,-3.3783785E-1,9.20354E-1,8E-1,-4.1428572E-1,-7.5E-1,9.727273E-1,7.5E-1,-4.7761193E-1,9.908257E-1,-5E-1,1.5384616E-1,-6.181818E-1,-7.5E-1,5E-1,6.666667E-1,-6.792453E-1,-6.666667E-1,8.75E-1,-7.4509805E-1,6.666667E-1],"categories":[],"categories_nodes":[],"categories_segments":[],"categories_sizes":[],"default_left":[0,0,0,0,0,0,1,0,0,0,0,0,0,0,0,0,1,0,0,0,0],"id":23,"left_children":[1,3,5,-1,7,-1,9,-1,11,-1,-1,13,15,-1,17,-1,19,-1,-1,-1,-1],"loss_changes":[7.060899E1,6.76834E0,1.06150055E1,0E0,5.5192947E0,0E0,3.427353E0,0E0,6.0422926E0,0E0,0E0,4.4423075E0,4.7679806E0,0E0,4.9583335E0,0E0,5.194231E0,0E0,0E0,0E0,0E0],"parents":[2147483647,0,0,1,1,2,2,4,4,6,6,8,8,11,11,12,12,14,14,16,16],"right_children":[2,4,6,-1,8,-1,10,-1,12,-1,-1,14,16,-1,18,-1,20,-1,-1,-1,-1],"split_conditions":[2.5E0,1.5E0,1.5E0,2.4000001E-1,1.5E0,-2.2500001E-1,2.5E0,2.2500001E-1,1.5E0,2.9724774E-1,-1.5E-1,1.5E0,1.5E0,-2.2500001E-1,4.000001E0,2.0000002E-1,-9.536743E-7,-2.0000002E-1,2.6250002E-1,-2.2352943E-1,2.0000002E-1],"split_indices":[186,275,912,0,225,0,295,0,150,0,0,89,165,0,122,0,516,0,0,0,0],"split_type":[0,0,0,0,0,0,0,0,0,0,0,0,0,0,0,0,0,0,0,0,0],"sum_hessian":[1.85E2,7.3E1,1.12E2,4E0,6.9E1,3E0,1.09E2,3E0,6.6E1,1.08E2,1E0,1.2E1,5.4E1,3E0,9E0,2E0,5.2E1,2E0,7E0,5E1,2E0],"tree_param":{"num_deleted":"0","num_feature":"4922","num_nodes":"21","size_leaf_vector":"0"}},{"base_weights":[-7.987988E-1,-3.181818E-1,-8.319058E-1,-6.388889E-1,6.451613E-2,7.5E-1,-8.378088E-1,-7.878788E-1,7.5E-1,-5E-1,3.181818E-1,-8.452381E-1,1.25E-1,-9E-1,2.5E-1,-8.5714287E-1,2.5E-1,6.111111E-1,-8E-1,-8.492408E-1,6.666667E-1,7.5E-1,-4E-1,-9.655172E-1,5E-1,-5E-1,6.666667E-1,-5E-1,6.666667E-1,-2.5E-1,8E-1,6.666667E-1,-8.532609E-1,5E-1,-7.5E-1,5E-1,-6.666667E-1,-5E-1,9.285714E-1,-8.572985E-1,6.666667E-1],"categories":[],"categories_nodes":[],"categories_segments":[],"categories_sizes":[],"default_left":[0,0,0,1,0,0,1,1,0,1,1,1,0,1,0,0,0,0,0,0,0,0,0,0,0,0,0,0,0,0,0,0,1,0,0,0,0,0,0,0,0],"id":24,"left_children":[1,3,5,7,9,-1,11,13,-1,15,17,19,21,23,25,-1,27,29,-1,31,-1,-1,33,-1,-1,-1,-1,-1,-1,35,37,-1,39,-1,-1,-1,-1,-1,-1,-1,-1],"loss_changes":[1.5631165E1,8.141659E0,9.350037E0,8.040403E0,4.598241E0,0E0,6.7651367E0,4.065151E0,0E0,2.892857E0,7.694949E0,6.157837E0,2.925E0,3.2344837E0,1.5833334E0,0E0,1.5833334E0,3.127778E0,0E0,6.187561E0,0E0,0E0,1.95E0,0E0,0E0,0E0,0E0,0E0,0E0,1.5833334E0,2.971428E0,0E0,6.2174683E0,0E0,0E0,0E0,0E0,0E0,0E0,0E0,0E0],"parents":[2147483647,0,0,1,1,2,2,3,3,4,4,6,6,7,7,9,9,10,10,11,11,12,12,13,13,14,14,16,16,17,17,19,19,22,22,29,29,30,30,32,32],"right_children":[2,4,6,8,10,-1,12,14,-1,16,18,20,22,24,26,-1,28,30,-1,32,-1,-1,34,-1,-1,-1,-1,-1,-1,36,38,-1,40,-1,-1,-1,-1,-1,-1,-1,-1],"split_conditions":[2.5E0,4.5E0,4.000001E0,-9.536743E-7,2.5E0,2.2500001E-1,-9.536743E-7,-9.536743E-7,2.2500001E-1,1.5E0,1.5E0,-9.536743E-7,2.000001E0,1.5E0,3.5E0,-2.5714287E-1,1.5E0,2.000001E0,-2.4000001E-1,1.5E0,2.0000002E-1,2.2500001E-1,2.5E0,-2.8965518E-1,1.5E-1,-1.5E-1,2.0000002E-1,-1.5E-1,2.0000002E-1,2.5E0,2.000001E0,2.0000002E-1,-9.536743E-7,1.5E-1,-2.2500001E-1,1.5E-1,-2.0000002E-1,-1.5E-1,2.7857143E-1,-2.5718957E-1,2.0000002E-1],"split_indices":[186,2,2306,1700,1,0,3216,1254,0,115,107,2202,150,8,0,0,25,108,0,2542,0,0,0,0,0,0,0,0,0,0,32,0,2846,0,0,0,0,0,0,0,0],"split_type":[0,0,0,0,0,0,0,0,0,0,0,0,0,0,0,0,0,0,0,0,0,0,0,0,0,0,0,0,0,0,0,0,0,0,0,0,0,0,0,0,0],"sum_hessian":[9.98E2,6.5E1,9.33E2,3.5E1,3E1,3E0,9.3E2,3.2E1,3E0,9E0,2.1E1,9.23E2,7E0,2.9E1,3E0,6E0,3E0,1.7E1,4E0,9.21E2,2E0,3E0,4E0,2.8E1,1E0,1E0,2E0,1E0,2E0,3E0,1.4E1,2E0,9.19E2,1E0,3E0,1E0,2E0,1E0,1.3E1,9.17E2,2E0],"tree_param":{"num_deleted":"0","num_feature":"4922","num_nodes":"41","size_leaf_vector":"0"}},{"base_weights":[4.9006623E-1,-2.9787233E-1,8.3809525E-1,6.666667E-1,-5.1282054E-1,-2.857143E-1,9.0909094E-1,8.75E-1,-5E-1,6.666667E-1,-5.945946E-1,-8E-1,6.666667E-1,-6.666667E-1,9.484536E-1,6.666667E-1,-6.857143E-1,9.6875E-1,-5E-1,2.5E-1,-7.8125E-1,-5E-1,9.894737E-1,-5E-1,6.666667E-1,-8.3870965E-1,5E-1],"categories":[],"categories_nodes":[],"categories_segments":[],"categories_sizes":[],"default_left":[0,0,0,0,0,1,0,0,0,0,0,0,0,0,1,0,0,0,0,0,1,0,0,0,0,0,0],"id":25,"left_children":[1,3,5,7,9,11,13,-1,-1,-1,15,-1,-1,-1,17,-1,19,21,-1,23,25,-1,-1,-1,-1,-1,-1],"loss_changes":[4.1657692E1,1.0086198E1,8.63723E0,2.625E0,4.158004E0,3.9619048E0,6.7728806E0,0E0,0E0,0E0,4.7093964E0,0E0,0E0,0E0,3.3360214E0,0E0,3.3241062E0,3.4167786E0,0E0,1.5833334E0,2.7752018E0,0E0,0E0,0E0,0E0,0E0,0E0],"parents":[2147483647,0,0,1,1,2,2,3,3,4,4,5,5,6,6,10,10,14,14,16,16,17,17,19,19,20,20],"right_children":[2,4,6,8,10,12,14,-1,-1,-1,16,-1,-1,-1,18,-1,20,22,-1,24,26,-1,-1,-1,-1,-1,-1],"split_conditions":[2.5E0,4.5E0,1.5E0,4.5E0,4.000001E0,1.5E0,1.5E0,2.6250002E-1,-1.5E-1,2.0000002E-1,2E0,-2.4000001E-1,2.0000002E-1,-2.0000002E-1,1.5E0,2.0000002E-1,1.5E0,1.5E0,-1.5E-1,2.000001E0,2.5E0,-1.5E-1,2.9684213E-1,-1.5E-1,2.0000002E-1,-2.516129E-1,1.5E-1],"split_indices":[186,2,263,28,228,28,237,0,0,0,849,0,0,0,135,0,1,185,0,4,83,0,0,0,0,0,0],"split_type":[0,0,0,0,0,0,0,0,0,0,0,0,0,0,0,0,0,0,0,0,0,0,0,0,0,0,0],"sum_hessian":[1.5E2,4.6E1,1.04E2,8E0,3.8E1,6E0,9.8E1,7E0,1E0,2E0,3.6E1,4E0,2E0,2E0,9.6E1,2E0,3.4E1,9.5E1,1E0,3E0,3.1E1,1E0,9.4E1,1E0,2E0,3E1,1E0],"tree_param":{"num_deleted":"0","num_feature":"4922","num_nodes":"27","size_leaf_vector":"0"}},{"base_weights":[-8.102564E-1,2.7777778E-2,-8.414894E-1,-4.2105263E-1,5E-1,-6.903915E-1,-9.045454E-1,-5.882353E-1,6.666667E-1,-4E-1,7.8571427E-1,2.857143E-1,-7.1272725E-1,6.666667E-1,-9.1033435E-1,2.5E-1,-7.8571427E-1,5E-1,-7.5E-1,-5E-1,9.230769E-1,7.5E-1,-2.5E-1,4E-1,-7.306273E-1,-9.160305E-1,2.5E-1,-5E-1,6.666667E-1,5E-1,-9.230769E-1,5E-1,-6.666667E-1,7.5E-1,-5E-1,6.666667E-1,-7.4349445E-1,2.5E-1,-9.2177916E-1,-5E-1,6.666667E-1,-7.565543E-1,6.666667E-1,-5E-1,6.666667E-1,-9.247312E-1,5E-1],"categories":[],"categories_nodes":[],"categories_segments":[],"categories_sizes":[],"default_left":[0,0,0,1,0,0,0,0,0,0,0,0,0,0,1,0,0,0,0,0,0,0,0,1,0,0,0,0,0,0,0,0,0,0,0,0,1,0,1,0,0,0,0,0,0,0,0],"id":26,"left_children":[1,3,5,7,9,11,13,15,-1,17,19,21,23,-1,25,27,29,-1,-1,-1,-1,-1,31,33,35,37,39,-1,-1,-1,-1,-1,-1,-1,-1,-1,41,43,45,-1,-1,-1,-1,-1,-1,-1,-1],"loss_changes":[2.5543335E1,7.8406434E0,8.331482E0,3.8472652E0,4.9428577E0,6.3300323E0,6.6099854E0,3.0105047E0,0E0,1.95E0,2.9340658E0,1.9285715E0,5.7696533E0,0E0,4.578064E0,1.5833334E0,2.9340658E0,0E0,0E0,0E0,0E0,0E0,1.5833334E0,1.95E0,5.3680115E0,4.6209106E0,1.5833334E0,0E0,0E0,0E0,0E0,0E0,0E0,0E0,0E0,0E0,5.45842E0,1.5833334E0,3.1989136E0,0E0,0E0,0E0,0E0,0E0,0E0,0E0,0E0],"parents":[2147483647,0,0,1,1,2,2,3,3,4,4,5,5,6,6,7,7,9,9,10,10,11,11,12,12,14,14,15,15,16,16,22,22,23,23,24,24,25,25,26,26,36,36,37,37,38,38],"right_children":[2,4,6,8,10,12,14,16,-1,18,20,22,24,-1,26,28,30,-1,-1,-1,-1,-1,32,34,36,38,40,-1,-1,-1,-1,-1,-1,-1,-1,-1,42,44,46,-1,-1,-1,-1,-1,-1,-1,-1],"split_conditions":[2.5E0,1.35E1,4.5E0,-9.536743E-7,4.000001E0,4.000001E0,1.5E0,1.5E0,2.0000002E-1,1.5E0,1.5E0,1.2000001E1,2.000001E0,2.0000002E-1,2.5E0,4E0,2.5E0,1.5E-1,-2.2500001E-1,-1.5E-1,2.769231E-1,2.2500001E-1,2.000001E0,1.5E0,1.5E0,4.000001E0,8E0,-1.5E-1,2.0000002E-1,1.5E-1,-2.769231E-1,1.5E-1,-2.0000002E-1,2.2500001E-1,-1.5E-1,2.0000002E-1,-9.536743E-7,5.5E0,3.5E0,-1.5E-1,2.0000002E-1,-2.269663E-1,2.0000002E-1,-1.5E-1,2.0000002E-1,-2.7741936E-1,1.5E-1],"split_indices":[186,2,187,1700,99,367,263,116,0,6,40,28,1780,0,193,0,0,0,0,0,0,0,1,1,237,878,0,0,0,0,0,0,0,0,0,0,647,0,145,0,0,0,0,0,0,0,0],"split_type":[0,0,0,0,0,0,0,0,0,0,0,0,0,0,0,0,0,0,0,0,0,0,0,0,0,0,0,0,0,0,0,0,0,0,0,0,0,0,0,0,0,0,0,0,0,0,0],"sum_hessian":[9.74E2,3.5E1,9.39E2,1.8E1,1.7E1,2.8E2,6.59E2,1.6E1,2E0,4E0,1.3E1,6E0,2.74E2,2E0,6.57E2,3E0,1.3E1,1E0,3E0,1E0,1.2E1,3E0,3E0,4E0,2.7E2,6.54E2,3E0,1E0,2E0,1E0,1.2E1,1E0,2E0,3E0,1E0,2E0,2.68E2,3E0,6.51E2,1E0,2E0,2.66E2,2E0,1E0,2E0,6.5E2,1E0],"tree_param":{"num_deleted":"0","num_feature":"4922","num_nodes":"47","size_leaf_vector":"0"}},{"base_weights":[5.755396E-1,-2.0512821E-1,8.712871E-1,6.25E-1,-4.0625E-1,-6.666667E-1,9.0909094E-1,-5E-1,8.5714287E-1,5E-1,-5.925926E-1,2.2222222E-1,9.6703297E-1,8E-1,-5E-1,6.666667E-1,-7.2E-1,-6.666667E-1,5.714286E-1,9.8888886E-1,-5E-1,-7.916667E-1,5E-1,-5E-1,8.333333E-1,-8.695652E-1,5E-1],"categories":[],"categories_nodes":[],"categories_segments":[],"categories_sizes":[],"default_left":[0,0,0,0,0,0,0,0,0,0,0,0,1,0,0,0,1,0,0,0,0,1,0,0,0,0,0],"id":27,"left_children":[1,3,5,7,9,-1,11,-1,-1,13,15,17,19,-1,-1,-1,21,-1,23,-1,-1,25,-1,-1,-1,-1,-1],"loss_changes":[3.2271126E1,6.7652245E0,6.478256E0,2.517857E0,5.7002316E0,0E0,3.7251587E0,0E0,0E0,2.2E0,4.8118515E0,3.1746032E0,3.4122086E0,0E0,0E0,0E0,2.581667E0,0E0,2.3809521E0,0E0,0E0,2.849637E0,0E0,0E0,0E0,0E0,0E0],"parents":[2147483647,0,0,1,1,2,2,3,3,4,4,6,6,9,9,10,10,11,11,12,12,16,16,18,18,21,21],"right_children":[2,4,6,8,10,-1,12,-1,-1,14,16,18,20,-1,-1,-1,22,-1,24,-1,-1,26,-1,-1,-1,-1,-1],"split_conditions":[2.5E0,2.5E0,4.000001E0,1.5E0,1.5E0,-2.0000002E-1,2.5E0,-1.5E-1,2.5714287E-1,1.1E1,1.5E0,1.5E0,1.5E0,2.4000001E-1,-1.5E-1,2.0000002E-1,1.5E0,-2.0000002E-1,1.5E0,2.9666668E-1,-1.5E-1,2.5E0,1.5E-1,-1.5E-1,2.5E-1,-2.6086956E-1,1.5E-1],"split_indices":[186,40,3936,4,62,0,69,0,0,0,301,10,280,0,0,0,8,0,42,0,0,35,0,0,0,0,0],"split_type":[0,0,0,0,0,0,0,0,0,0,0,0,0,0,0,0,0,0,0,0,0,0,0,0,0,0,0],"sum_hessian":[1.38E2,3.8E1,1E2,7E0,3.1E1,2E0,9.8E1,1E0,6E0,5E0,2.6E1,8E0,9E1,4E0,1E0,2E0,2.4E1,2E0,6E0,8.9E1,1E0,2.3E1,1E0,1E0,5E0,2.2E1,1E0],"tree_param":{"num_deleted":"0","num_feature":"4922","num_nodes":"27","size_leaf_vector":"0"}},{"base_weights":[-8.3174604E-1,-3.5714287E-2,-8.551198E-1,-8.5714287E-1,2.2727273E-1,-8.591703E-1,6.666667E-1,-8E-1,5E-1,6.666667E-1,-8.632385E-1,-2.857143E-1,9.166667E-1,-8.673246E-1,6.666667E-1,6.666667E-1,-8E-1,-8.7142855E-1,6.666667E-1,6.666667E-1,-8.755507E-1],"categories":[],"categories_nodes":[],"categories_segments":[],"categories_sizes":[],"default_left":[0,0,1,0,0,0,0,0,0,0,1,0,0,1,0,0,0,0,0,0,0],"id":28,"left_children":[1,3,5,-1,7,9,-1,-1,11,-1,13,15,-1,17,-1,-1,-1,19,-1,-1,-1],"loss_changes":[1.7552368E1,6.2435064E0,6.2313232E0,0E0,6.5636363E0,6.2614746E0,0E0,0E0,6.1547613E0,0E0,6.291809E0,3.9619048E0,0E0,6.3224487E0,0E0,0E0,0E0,6.3532715E0,0E0,0E0,0E0],"parents":[2147483647,0,0,1,1,2,2,4,4,5,5,8,8,10,10,11,11,13,13,17,17],"right_children":[2,4,6,-1,8,10,-1,-1,12,-1,14,16,-1,18,-1,-1,-1,20,-1,-1,-1],"split_conditions":[2.5E0,2.5E0,-9.536743E-7,-2.5714287E-1,4.000001E0,1.5E0,2.0000002E-1,-2.4000001E-1,2.5E0,2.0000002E-1,-9.536743E-7,1.5E0,2.75E-1,-9.536743E-7,2.0000002E-1,2.0000002E-1,-2.4000001E-1,1.5E0,2.0000002E-1,2.0000002E-1,-2.626652E-1],"split_indices":[186,83,2202,0,269,2542,0,0,40,0,2846,22,0,3374,0,0,0,3487,0,0,0],"split_type":[0,0,0,0,0,0,0,0,0,0,0,0,0,0,0,0,0,0,0,0,0],"sum_hessian":[9.44E2,2.7E1,9.17E2,6E0,2.1E1,9.15E2,2E0,4E0,1.7E1,2E0,9.13E2,6E0,1.1E1,9.11E2,2E0,2E0,4E0,9.09E2,2E0,2E0,9.07E2],"tree_param":{"num_deleted":"0","num_feature":"4922","num_nodes":"21","size_leaf_vector":"0"}},{"base_weights":[6.259542E-1,-1.0714286E-1,8.173077E-1,8.888889E-1,-5.5E-1,-6.666667E-1,8.5294116E-1,-7.222222E-1,6.666667E-1,8.9E-1,-6.666667E-1,5E-1,-8.235294E-1,-0E0,9.270833E-1,5E-1,-9.375E-1,-6.666667E-1,6.666667E-1,9.4736844E-1,-5E-1,9.680851E-1,-5E-1],"categories":[],"categories_nodes":[],"categories_segments":[],"categories_sizes":[],"default_left":[0,0,0,0,1,0,1,0,0,0,0,0,0,0,1,0,0,0,0,1,0,0,0],"id":29,"left_children":[1,3,5,-1,7,-1,9,11,-1,13,-1,-1,15,17,19,-1,-1,-1,-1,21,-1,-1,-1],"loss_changes":[1.8464336E1,1.2839684E1,6.068062E0,0E0,4.672222E0,0E0,6.3374557E0,2.640522E0,0E0,3.300415E0,0E0,0E0,3.0330887E0,2.6666667E0,3.2527466E0,0E0,0E0,0E0,0E0,3.3325806E0,0E0,0E0,0E0],"parents":[2147483647,0,0,1,1,2,2,4,4,6,6,7,7,9,9,12,12,13,13,14,14,19,19],"right_children":[2,4,6,-1,8,-1,10,12,-1,14,-1,-1,16,18,20,-1,-1,-1,-1,22,-1,-1,-1],"split_conditions":[1.5E0,6.000001E0,1.5E0,2.6666668E-1,1.5E0,-2.0000002E-1,-9.536743E-7,2.5E0,2.0000002E-1,1.5E0,-2.0000002E-1,1.5E-1,2.000001E0,7.5E0,-9.536743E-7,1.5E-1,-2.8125E-1,-2.0000002E-1,2.0000002E-1,1.5E0,-1.5E-1,2.9042554E-1,-1.5E-1],"split_indices":[186,83,133,0,35,0,349,40,0,702,0,0,132,0,87,0,0,0,0,99,0,0,0],"split_type":[0,0,0,0,0,0,0,0,0,0,0,0,0,0,0,0,0,0,0,0,0,0,0],"sum_hessian":[1.3E2,2.7E1,1.03E2,8E0,1.9E1,2E0,1.01E2,1.7E1,2E0,9.9E1,2E0,1E0,1.6E1,4E0,9.5E1,1E0,1.5E1,2E0,2E0,9.4E1,1E0,9.3E1,1E0],"tree_param":{"num_deleted":"0","num_feature":"4922","num_nodes":"23","size_leaf_vector":"0"}},{"base_weights":[-8.2782215E-1,-1.3636364E-1,-8.446262E-1,-8.75E-1,2.6666668E-1,6.666667E-1,-8.4894615E-1,-5E-1,7E-1,-8.532864E-1,6.666667E-1,-8E-1,5E-1,-5E-1,8.888889E-1,-8.5764706E-1,6.666667E-1,6.666667E-1,-8.620283E-1,-0E0,-8.6817104E-1],"categories":[],"categories_nodes":[],"categories_segments":[],"categories_sizes":[],"default_left":[0,0,0,0,0,0,1,0,0,1,0,0,0,0,0,0,0,0,0,0,0],"id":30,"left_children":[1,3,5,-1,7,-1,9,11,13,15,-1,-1,-1,-1,-1,17,-1,-1,19,-1,-1],"loss_changes":[1.0075012E1,6.7825756E0,6.154541E0,0E0,5.3333335E0,0E0,6.1865234E0,2.2E0,2.711111E0,6.218872E0,0E0,0E0,0E0,0E0,0E0,6.2512817E0,0E0,0E0,4.4902954E0,0E0,0E0],"parents":[2147483647,0,0,1,1,2,2,4,4,6,6,7,7,8,8,9,9,15,15,18,18],"right_children":[2,4,6,-1,8,-1,10,12,14,16,-1,-1,-1,-1,-1,18,-1,-1,20,-1,-1],"split_conditions":[1.5E0,2.5E0,1.5E0,-2.6250002E-1,6.000001E0,2.0000002E-1,-9.536743E-7,8.000001E0,1.5E0,-9.536743E-7,2.0000002E-1,-2.4000001E-1,1.5E-1,-1.5E-1,2.6666668E-1,1.5E0,2.0000002E-1,2.0000002E-1,1.5E0,-0E0,-2.6045132E-1],"split_indices":[186,40,2542,0,83,0,3286,28,1,3374,0,0,0,0,0,3487,0,0,102,0,0],"split_type":[0,0,0,0,0,0,0,0,0,0,0,0,0,0,0,0,0,0,0,0,0],"sum_hessian":[8.76E2,2.1E1,8.55E2,7E0,1.4E1,2E0,8.53E2,5E0,9E0,8.51E2,2E0,4E0,1E0,1E0,8E0,8.49E2,2E0,2E0,8.47E2,6E0,8.41E2],"tree_param":{"num_deleted":"0","num_feature":"4922","num_nodes":"21","size_leaf_vector":"0"}},{"base_weights":[-3.1358886E-1,-5.65E-1,2.6136363E-1,3.75E-1,-6.0103625E-1,-3.181818E-1,4.477612E-1,-6.666667E-1,8.333333E-1,-6.263158E-1,7.5E-1,-5.263158E-1,7.5E-1,-5E-1,6.034483E-1,-7.077922E-1,-2.7027026E-1,6.666667E-1,-7.058824E-1,6.666667E-1,-8.75E-1,-7.5E-1,6.909091E-1,-7.302632E-1,6.666667E-1,-7.692308E-1,-0E0,5E-1,-8.125E-1,-4E-1,7.8431374E-1,-7.5333333E-1,6.666667E-1,5E-1,-9.166667E-1,-5.714286E-1,2.1052632E-1,5E-1,-9.3333334E-1,5E-1,-7.5E-1,-2.5E-1,8.541667E-1],"categories":[],"categories_nodes":[],"categories_segments":[],"categories_sizes":[],"default_left":[0,0,0,0,1,1,0,0,0,1,0,0,0,0,0,1,0,0,0,0,0,0,0,1,0,0,0,0,0,0,0,0,0,0,0,0,0,0,0,0,0,0,0],"id":31,"left_children":[1,3,5,7,9,11,13,-1,-1,15,-1,17,-1,19,21,23,25,-1,27,-1,-1,-1,29,31,-1,33,35,-1,37,39,41,-1,-1,-1,-1,-1,-1,-1,-1,-1,-1,-1,-1],"loss_changes":[4.1633366E1,7.000206E0,9.648745E0,4.375E0,7.061371E0,5.285885E0,1.0187854E1,0E0,0E0,5.3204803E0,0E0,4.540764E0,0E0,4.9583335E0,7.383856E0,5.2431946E0,4.989605E0,0E0,2.5919113E0,0E0,0E0,0E0,5.918005E0,5.4007874E0,0E0,2.8910255E0,3.1278195E0,0E0,3.0041666E0,1.95E0,3.898283E0,0E0,0E0,0E0,0E0,0E0,0E0,0E0,0E0,0E0,0E0,0E0,0E0],"parents":[2147483647,0,0,1,1,2,2,3,3,4,4,5,5,6,6,9,9,11,11,13,13,14,14,15,15,16,16,18,18,22,22,23,23,25,25,26,26,28,28,29,29,30,30],"right_children":[2,4,6,8,10,12,14,-1,-1,16,-1,18,-1,20,22,24,26,-1,28,-1,-1,-1,30,32,-1,34,36,-1,38,40,42,-1,-1,-1,-1,-1,-1,-1,-1,-1,-1,-1,-1],"split_conditions":[2.5E0,4.000001E0,2.5E0,1.5E0,-9.536743E-7,1.5E0,3.5E0,-2.0000002E-1,2.5E-1,1.5E0,2.2500001E-1,1.5E0,2.2500001E-1,4.5E0,1.5E0,1.5E0,2.5E0,2.0000002E-1,2.000001E0,2.0000002E-1,-2.6250002E-1,-2.2500001E-1,1.5E0,-9.536743E-7,2.0000002E-1,1.5E0,2.000001E0,1.5E-1,4.000001E0,2.5E0,2.000001E0,-2.2600001E-1,2.0000002E-1,1.5E-1,-2.75E-1,-1.7142859E-1,6.31579E-2,1.5E-1,-2.8E-1,1.5E-1,-2.2500001E-1,-7.5E-2,2.5625002E-1],"split_indices":[187,1038,116,62,3216,41,45,0,0,115,0,481,0,1,64,165,41,0,24,0,0,0,303,458,0,1,25,0,723,0,1842,0,0,0,0,0,0,0,0,0,0,0,0],"split_type":[0,0,0,0,0,0,0,0,0,0,0,0,0,0,0,0,0,0,0,0,0,0,0,0,0,0,0,0,0,0,0,0,0,0,0,0,0,0,0,0,0,0,0],"sum_hessian":[2.86E2,1.99E2,8.7E1,7E0,1.92E2,2.1E1,6.6E1,2E0,5E0,1.89E2,3E0,1.8E1,3E0,9E0,5.7E1,1.53E2,3.6E1,2E0,1.6E1,2E0,7E0,3E0,5.4E1,1.51E2,2E0,1.2E1,2.4E1,1E0,1.5E1,4E0,5E1,1.49E2,2E0,1E0,1.1E1,6E0,1.8E1,1E0,1.4E1,1E0,3E0,3E0,4.7E1],"tree_param":{"num_deleted":"0","num_feature":"4922","num_nodes":"43","size_leaf_vector":"0"}},{"base_weights":[-6.476015E-1,2.8915662E-1,-8.152174E-1,5.8E-1,-1.4705883E-1,1.6666667E-1,-8.5327315E-1,-5E-1,7.111111E-1,-8.5714287E-1,3.5714287E-2,-7.5E-1,4E-1,-8.656036E-1,4E-1,5E-1,-8E-1,-6.666667E-1,7.906977E-1,6.666667E-1,-2.5E-1,6.1538464E-1,-6.666667E-1,1.25E-1,-8.819444E-1,-5E-1,7.5E-1,9.166667E-1,1.25E-1,-5E-1,8.75E-1,-5E-1,2.857143E-1,-5E-1,7.5E-1,7.5E-1,-4E-1,-8.9069766E-1,6.666667E-1,9.714286E-1,-5E-1,7.5E-1,-4E-1,5E-1,-6.1538464E-1,8E-1,-6.666667E-1,-5E-1,9.0909094E-1,-7.5E-1,5E-1,-8.9953274E-1,6.666667E-1],"categories":[],"categories_nodes":[],"categories_segments":[],"categories_sizes":[],"default_left":[0,1,0,0,0,0,1,0,0,0,0,0,1,0,0,0,0,0,0,0,1,0,0,0,1,0,0,1,0,0,0,0,0,0,0,0,0,1,0,0,0,0,0,0,0,0,0,0,0,0,0,0,0],"id":32,"left_children":[1,3,5,7,9,11,13,15,17,-1,19,-1,21,23,25,-1,-1,-1,27,29,31,33,-1,35,37,-1,-1,39,41,-1,-1,43,45,-1,47,-1,49,51,-1,-1,-1,-1,-1,-1,-1,-1,-1,-1,-1,-1,-1,-1,-1],"loss_changes":[8.533815E1,1.0615535E1,1.7330719E1,7.4355564E0,4.4432774E0,4.15E0,7.1921387E0,2.2E0,5.4614983E0,0E0,5.214286E0,0E0,3.8564105E0,7.216461E0,1.95E0,0E0,0E0,0E0,3.4912796E0,2.625E0,2.8214288E0,2.326923E0,0E0,2.925E0,6.449707E0,0E0,0E0,3.278572E0,2.925E0,0E0,0E0,1.9230771E0,3.9619048E0,0E0,2.840909E0,0E0,1.95E0,6.5162354E0,0E0,0E0,0E0,0E0,0E0,0E0,0E0,0E0,0E0,0E0,0E0,0E0,0E0,0E0,0E0],"parents":[2147483647,0,0,1,1,2,2,3,3,4,4,5,5,6,6,7,7,8,8,10,10,12,12,13,13,14,14,18,18,19,19,20,20,21,21,23,23,24,24,27,27,28,28,31,31,32,32,34,34,36,36,37,37],"right_children":[2,4,6,8,10,12,14,16,18,-1,20,-1,22,24,26,-1,-1,-1,28,30,32,34,-1,36,38,-1,-1,40,42,-1,-1,44,46,-1,48,-1,50,52,-1,-1,-1,-1,-1,-1,-1,-1,-1,-1,-1,-1,-1,-1,-1],"split_conditions":[4.5E0,1.5E0,1.5E0,1.5E0,6.000001E0,2.000001E0,1.5E0,7.5E0,1.5E0,-2.5714287E-1,4.5E0,-2.2500001E-1,-9.536743E-7,1.5E0,1.5E0,1.5E-1,-2.4000001E-1,-2.0000002E-1,2.5E0,2.000001E0,1.5E0,1.5E0,-2.0000002E-1,4.000001E0,1.5E0,-1.5E-1,2.2500001E-1,1.5E0,6.000001E0,-1.5E-1,2.6250002E-1,2.000001E0,1.5E0,-1.5E-1,1.5E0,2.2500001E-1,8E0,-9.536743E-7,2.0000002E-1,2.914286E-1,-1.5E-1,2.2500001E-1,-1.20000005E-1,1.5E-1,-1.846154E-1,2.4000001E-1,-2.0000002E-1,-1.5E-1,2.7272728E-1,-2.2500001E-1,1.5E-1,-2.6985982E-1,2.0000002E-1],"split_indices":[187,115,116,1038,69,24,302,0,237,0,35,0,996,275,28,0,0,0,187,32,28,12,0,3,214,0,0,846,40,0,0,39,187,0,123,0,0,411,0,0,0,0,0,0,0,0,0,0,0,0,0,0,0],"split_type":[0,0,0,0,0,0,0,0,0,0,0,0,0,0,0,0,0,0,0,0,0,0,0,0,0,0,0,0,0,0,0,0,0,0,0,0,0,0,0,0,0,0,0,0,0,0,0,0,0,0,0,0,0],"sum_hessian":[5.41E2,8.2E1,4.59E2,4.9E1,3.3E1,1.7E1,4.42E2,5E0,4.4E1,6E0,2.7E1,3E0,1.4E1,4.38E2,4E0,1E0,4E0,2E0,4.2E1,8E0,1.9E1,1.2E1,2E0,7E0,4.31E2,1E0,3E0,3.5E1,7E0,1E0,7E0,1.3E1,6E0,1E0,1.1E1,3E0,4E0,4.29E2,2E0,3.4E1,1E0,3E0,4E0,1E0,1.2E1,4E0,2E0,1E0,1E1,3E0,1E0,4.27E2,2E0],"tree_param":{"num_deleted":"0","num_feature":"4922","num_nodes":"53","size_leaf_vector":"0"}},{"base_weights":[-3.3962265E-1,-6.5608466E-1,4.4155845E-1,-7.283237E-1,1.1764706E-1,-3.809524E-1,7.368421E-1,-7.48538E-1,6.666667E-1,5.833333E-1,-8.333333E-1,6.666667E-1,-5.263158E-1,8E-1,-6.666667E-1,6.666667E-1,-7.692308E-1,-5E-1,7.2727275E-1,6.666667E-1,-7.058824E-1,-0E0,8.979592E-1,-7.9041916E-1,6.666667E-1,-5E-1,9E-1,2.5E-1,-9.285714E-1,7.5E-1,-7.5E-1,9.375E-1,-5E-1,6.666667E-1,-8.121212E-1,6.666667E-1,-5E-1,9.787234E-1,-5E-1],"categories":[],"categories_nodes":[],"categories_segments":[],"categories_sizes":[],"default_left":[0,1,0,1,0,0,1,0,0,0,0,0,0,0,0,0,1,0,0,0,0,0,1,0,0,0,0,0,0,0,0,1,0,0,0,0,0,0,0],"id":33,"left_children":[1,3,5,7,9,11,13,15,-1,17,-1,-1,19,21,-1,-1,23,-1,25,-1,27,29,31,33,-1,-1,-1,35,-1,-1,-1,37,-1,-1,-1,-1,-1,-1,-1],"loss_changes":[6.5801445E1,1.0649574E1,1.8982E1,5.3774185E0,8.014706E0,3.5488722E0,5.585964E0,5.5204697E0,0E0,2.2348485E0,0E0,0E0,4.540764E0,4.3102036E0,0E0,0E0,5.668663E0,0E0,2.7818184E0,0E0,3.8508396E0,4.5E0,3.1772957E0,5.8222504E0,0E0,0E0,0E0,1.5833334E0,0E0,0E0,0E0,3.3337784E0,0E0,0E0,0E0,0E0,0E0,0E0,0E0],"parents":[2147483647,0,0,1,1,2,2,3,3,4,4,5,5,6,6,7,7,9,9,12,12,13,13,16,16,18,18,20,20,21,21,22,22,23,23,27,27,31,31],"right_children":[2,4,6,8,10,12,14,16,-1,18,-1,-1,20,22,-1,-1,24,-1,26,-1,28,30,32,34,-1,-1,-1,36,-1,-1,-1,38,-1,-1,-1,-1,-1,-1,-1],"split_conditions":[2.5E0,1.5E0,1.5E0,-9.536743E-7,8.5E0,1.5E0,1.5E0,2.000001E0,2.0000002E-1,1.5E0,-2.5E-1,2.0000002E-1,2.000001E0,3.5E0,-2.0000002E-1,2.0000002E-1,1.5E0,-1.5E-1,1.5E0,2.0000002E-1,1.5E0,2E0,-9.536743E-7,2.000001E0,2.0000002E-1,-1.5E-1,2.7E-1,6.5E0,-2.7857143E-1,2.2500001E-1,-2.2500001E-1,1.5E0,-1.5E-1,2.0000002E-1,-2.4363637E-1,2.0000002E-1,-1.5E-1,2.9361704E-1,-1.5E-1],"split_indices":[187,115,116,647,0,193,44,1780,0,0,0,0,1218,187,0,0,1839,0,11,0,269,40,101,3487,0,0,0,0,0,0,0,137,0,0,0,0,0,0,0],"split_type":[0,0,0,0,0,0,0,0,0,0,0,0,0,0,0,0,0,0,0,0,0,0,0,0,0,0,0,0,0,0,0,0,0,0,0,0,0,0,0],"sum_hessian":[2.64E2,1.88E2,7.6E1,1.72E2,1.6E1,2E1,5.6E1,1.7E2,2E0,1.1E1,5E0,2E0,1.8E1,5.4E1,2E0,2E0,1.68E2,1E0,1E1,2E0,1.6E1,6E0,4.8E1,1.66E2,2E0,1E0,9E0,3E0,1.3E1,3E0,3E0,4.7E1,1E0,2E0,1.64E2,2E0,1E0,4.6E1,1E0],"tree_param":{"num_deleted":"0","num_feature":"4922","num_nodes":"39","size_leaf_vector":"0"}},{"base_weights":[-6.822612E-1,5.15625E-1,-8.511111E-1,-8.333333E-1,6.440678E-1,-2.0833333E-1,-8.852459E-1,7.592593E-1,-5E-1,4.4444445E-1,-5.625E-1,-8.9411765E-1,6.666667E-1,8.269231E-1,-6.666667E-1,-8E-1,5E-1,-2.5E-1,8.333333E-1,6.666667E-1,-7.8571427E-1,6.666667E-1,-9.030733E-1,-6.666667E-1,9E-1,5E-1,-6.666667E-1,5E-1,-9.230769E-1,2.5E-1,-9.1190475E-1,-0E0,9.782609E-1,6.666667E-1,-5E-1,2.5E-1,-9.2086333E-1],"categories":[],"categories_nodes":[],"categories_segments":[],"categories_sizes":[],"default_left":[0,0,0,0,1,0,1,1,1,0,0,0,0,0,0,0,0,0,0,0,0,0,0,0,0,0,0,0,0,1,0,0,0,0,0,0,0],"id":34,"left_children":[1,3,5,-1,7,9,11,13,15,17,19,21,-1,23,-1,-1,-1,25,-1,-1,27,-1,29,-1,31,-1,-1,-1,-1,33,35,-1,-1,-1,-1,-1,-1],"loss_changes":[1.0419975E2,1.1625618E1,9.689056E0,0E0,8.155054E0,5.798611E0,6.4750977E0,5.7613964E0,2.2E0,2.6388888E0,4.9136906E0,6.542633E0,0E0,6.2756386E0,0E0,0E0,0E0,1.5833334E0,0E0,0E0,2.9340658E0,0E0,4.5355225E0,0E0,3.52174E0,0E0,0E0,0E0,0E0,1.5833334E0,4.6019897E0,0E0,0E0,0E0,0E0,0E0,0E0],"parents":[2147483647,0,0,1,1,2,2,4,4,5,5,6,6,7,7,8,8,9,9,10,10,11,11,13,13,17,17,20,20,22,22,24,24,29,29,30,30],"right_children":[2,4,6,-1,8,10,12,14,16,18,20,22,-1,24,-1,-1,-1,26,-1,-1,28,-1,30,-1,32,-1,-1,-1,-1,34,36,-1,-1,-1,-1,-1,-1],"split_conditions":[4.5E0,2E0,1.5E0,-2.5E-1,1.5E0,3.5E0,-9.536743E-7,-9.536743E-7,1.5E0,1.5E0,1.5E0,2.000001E0,2.0000002E-1,4.000001E0,-2.0000002E-1,-2.4000001E-1,1.5E-1,8.000001E0,2.5E-1,2.0000002E-1,2.000001E0,2.0000002E-1,2.000001E0,-2.0000002E-1,1.5E0,1.5E-1,-2.0000002E-1,1.5E-1,-2.769231E-1,1.5E0,4.000001E0,-0E0,2.9347828E-1,2.0000002E-1,-1.5E-1,7.5E-2,-2.76259E-1],"split_indices":[187,276,116,0,41,2,395,243,11,35,35,1306,0,428,0,0,0,1,0,0,26,0,702,0,301,0,0,0,0,1,1114,0,0,0,0,0,0],"split_type":[0,0,0,0,0,0,0,0,0,0,0,0,0,0,0,0,0,0,0,0,0,0,0,0,0,0,0,0,0,0,0,0,0,0,0,0,0],"sum_hessian":[5.12E2,6.3E1,4.49E2,5E0,5.8E1,2.3E1,4.26E2,5.3E1,5E0,8E0,1.5E1,4.24E2,2E0,5.1E1,2E0,4E0,1E0,3E0,5E0,2E0,1.3E1,2E0,4.22E2,2E0,4.9E1,1E0,2E0,1E0,1.2E1,3E0,4.19E2,4E0,4.5E1,2E0,1E0,3E0,4.16E2],"tree_param":{"num_deleted":"0","num_feature":"4922","num_nodes":"37","size_leaf_vector":"0"}},{"base_weights":[-3.0638298E-1,-6.4606744E-1,7.413793E-1,5.714286E-1,-6.9186044E-1,-1.25E-1,8.627451E-1,-5E-1,8.333333E-1,6.666667E-1,-7.117647E-1,-8E-1,7.5E-1,9.3877554E-1,-6.666667E-1,6.666667E-1,-7.3214287E-1,-5E-1,9.791667E-1,-7.6073617E-1,1.6666667E-1,-7.8125E-1,2.5E-1,7.5E-1,-6.666667E-1],"categories":[],"categories_nodes":[],"categories_segments":[],"categories_sizes":[],"default_left":[0,0,0,0,0,0,1,0,0,0,0,0,0,0,0,0,1,0,0,1,0,0,0,0,0],"id":35,"left_children":[1,3,5,7,9,11,13,-1,-1,-1,15,-1,-1,17,-1,-1,19,-1,-1,21,23,-1,-1,-1,-1],"loss_changes":[8.411749E1,1.0319359E1,6.2064743E0,2.3809521E0,5.1254654E0,5.325E0,6.556221E0,0E0,0E0,0E0,5.263382E0,0E0,0E0,3.3371582E0,0E0,0E0,4.4443817E0,0E0,0E0,3.5749588E0,3.4166667E0,0E0,0E0,0E0,0E0],"parents":[2147483647,0,0,1,1,2,2,3,3,4,4,5,5,6,6,10,10,13,13,16,16,19,19,20,20],"right_children":[2,4,6,8,10,12,14,-1,-1,-1,16,-1,-1,18,-1,-1,20,-1,-1,22,24,-1,-1,-1,-1],"split_conditions":[4.5E0,4.000001E0,6.000001E0,2.000001E0,1.5E0,2.5E0,-9.536743E-7,-1.5E-1,2.5E-1,2.0000002E-1,1.5E0,-2.4000001E-1,2.2500001E-1,1.5E0,-2.0000002E-1,2.0000002E-1,-9.536743E-7,-1.5E-1,2.9375002E-1,-9.536743E-7,1.5E0,-2.3437501E-1,7.5E-2,2.2500001E-1,-2.0000002E-1],"split_indices":[187,652,99,31,218,2,667,0,0,0,378,0,0,132,0,0,752,0,0,647,34,0,0,0,0],"split_type":[0,0,0,0,0,0,0,0,0,0,0,0,0,0,0,0,0,0,0,0,0,0,0,0,0],"sum_hessian":[2.34E2,1.77E2,5.7E1,6E0,1.71E2,7E0,5E1,1E0,5E0,2E0,1.69E2,4E0,3E0,4.8E1,2E0,2E0,1.67E2,1E0,4.7E1,1.62E2,5E0,1.59E2,3E0,3E0,2E0],"tree_param":{"num_deleted":"0","num_feature":"4922","num_nodes":"25","size_leaf_vector":"0"}},{"base_weights":[-7.558594E-1,5.0980395E-1,-8.939394E-1,-8E-1,6.3829786E-1,-9.019608E-1,2.5E-1,-4E-1,7.4418604E-1,2.5E-1,-9.100877E-1,-5E-1,6.666667E-1,5E-1,-7.5E-1,-6.666667E-1,8.292683E-1,-5E-1,6.666667E-1,-9.22049E-1,-1.25E-1,-2.5E-1,9.2105263E-1,-0E0,-9.303371E-1,-7.5E-1,4E-1,-6.666667E-1,5E-1,9.72973E-1,-5E-1,6.666667E-1,-6.666667E-1,-9.346847E-1,5E-1,7.5E-1,-5E-1],"categories":[],"categories_nodes":[],"categories_segments":[],"categories_sizes":[],"default_left":[0,0,1,0,0,0,0,0,0,0,1,0,0,0,0,0,0,0,0,0,0,0,0,0,1,0,1,0,0,0,0,0,0,0,0,0,0],"id":36,"left_children":[1,3,5,-1,7,9,11,13,15,17,19,-1,-1,-1,-1,-1,21,-1,-1,23,25,27,29,31,33,-1,35,-1,-1,-1,-1,-1,-1,-1,-1,-1,-1],"loss_changes":[8.9934296E1,9.094034E0,4.464813E0,0E0,5.4650173E0,4.5246277E0,1.5833334E0,1.95E0,5.7145023E0,1.5833334E0,4.16687E0,0E0,0E0,0E0,0E0,0E0,4.2917213E0,0E0,0E0,3.4312744E0,2.925E0,1.5833334E0,3.290184E0,2.6666667E0,3.2345886E0,0E0,1.95E0,0E0,0E0,0E0,0E0,0E0,0E0,0E0,0E0,0E0,0E0],"parents":[2147483647,0,0,1,1,2,2,4,4,5,5,6,6,7,7,8,8,9,9,10,10,16,16,19,19,20,20,21,21,22,22,23,23,24,24,26,26],"right_children":[2,4,6,-1,8,10,12,14,16,18,20,-1,-1,-1,-1,-1,22,-1,-1,24,26,28,30,32,34,-1,36,-1,-1,-1,-1,-1,-1,-1,-1,-1,-1],"split_conditions":[4.5E0,2.5E0,-9.536743E-7,-2.4000001E-1,4.000001E0,4.000001E0,6E0,2.000001E0,1.5E0,6.5E0,-9.536743E-7,-1.5E-1,2.0000002E-1,1.5E-1,-2.2500001E-1,-2.0000002E-1,4.000001E0,-1.5E-1,2.0000002E-1,1.5E0,2E0,6.5E0,1.95E1,2.000001E0,2.5E0,-2.2500001E-1,1.5E0,-2.0000002E-1,1.5E-1,2.918919E-1,-1.5E-1,2.0000002E-1,-2.0000002E-1,-2.8040543E-1,1.5E-1,2.2500001E-1,-1.5E-1],"split_indices":[187,69,812,0,488,2296,0,6,240,0,181,0,0,0,0,0,280,0,0,1043,137,0,0,36,27,0,3,0,0,0,0,0,0,0,0,0,0],"split_type":[0,0,0,0,0,0,0,0,0,0,0,0,0,0,0,0,0,0,0,0,0,0,0,0,0,0,0,0,0,0,0,0,0,0,0,0,0],"sum_hessian":[5.11E2,5E1,4.61E2,4E0,4.6E1,4.58E2,3E0,4E0,4.2E1,3E0,4.55E2,1E0,2E0,1E0,3E0,2E0,4E1,1E0,2E0,4.48E2,7E0,3E0,3.7E1,4E0,4.44E2,3E0,4E0,2E0,1E0,3.6E1,1E0,2E0,2E0,4.43E2,1E0,3E0,1E0],"tree_param":{"num_deleted":"0","num_feature":"4922","num_nodes":"37","size_leaf_vector":"0"}},{"base_weights":[-2.907489E-1,-6.459627E-1,5.671642E-1,4E-1,-6.751592E-1,7.0689654E-1,-3E-1,-5E-1,7.5E-1,-6.967742E-1,6.666667E-1,-6.666667E-1,7.6785713E-1,-6.25E-1,6.666667E-1,-7.364865E-1,1.25E-1,-6.666667E-1,8.333333E-1,5E-1,-8.5714287E-1,-8.3333336E-2,-7.883212E-1,-7.5E-1,8E-1,-0E0,9E-1,8E-1,-6.25E-1,-0E0,-8.244275E-1,-6.666667E-1,6.666667E-1,9.3877554E-1,-5E-1],"categories":[],"categories_nodes":[],"categories_segments":[],"categories_sizes":[],"default_left":[0,0,1,0,1,0,0,0,0,1,0,0,0,0,0,0,0,0,0,0,0,0,0,0,0,0,1,0,0,0,0,0,0,0,0],"id":37,"left_children":[1,3,5,7,9,11,13,-1,-1,15,-1,-1,17,19,-1,21,23,-1,25,-1,-1,27,29,-1,-1,31,33,-1,-1,-1,-1,-1,-1,-1,-1],"loss_changes":[6.954294E1,5.18676E0,8.330521E0,1.95E0,5.0180664E0,5.368429E0,3.5583334E0,0E0,0E0,5.1504135E0,0E0,0E0,5.8154755E0,2.517857E0,0E0,4.9449997E0,5.325E0,0E0,3E0,0E0,0E0,6.2416663E0,3.8994827E0,0E0,0E0,2.6666667E0,3.1836739E0,0E0,0E0,0E0,0E0,0E0,0E0,0E0,0E0],"parents":[2147483647,0,0,1,1,2,2,3,3,4,4,5,5,6,6,9,9,12,12,13,13,15,15,16,16,18,18,21,21,22,22,25,25,26,26],"right_children":[2,4,6,8,10,12,14,-1,-1,16,-1,-1,18,20,-1,22,24,-1,26,-1,-1,28,30,-1,-1,32,34,-1,-1,-1,-1,-1,-1,-1,-1],"split_conditions":[3.5E0,2.5E0,-9.536743E-7,1.5E0,-9.536743E-7,1.5E0,9.5E0,-1.5E-1,2.2500001E-1,-9.536743E-7,2.0000002E-1,-2.0000002E-1,4.000001E0,2.000001E0,2.0000002E-1,1.5E0,1.5E0,-2.0000002E-1,1.5E0,1.5E-1,-2.5714287E-1,1.5E0,1.5E0,-2.2500001E-1,2.4000001E-1,1.5E0,1.5E0,2.4000001E-1,-1.875E-1,-0E0,-2.4732825E-1,-2.0000002E-1,2.0000002E-1,2.8163266E-1,-1.5E-1],"split_indices":[187,488,181,2,3970,641,0,0,0,752,0,0,1356,48,0,135,79,0,488,0,0,3,343,0,0,42,110,0,0,0,0,0,0,0,0],"split_type":[0,0,0,0,0,0,0,0,0,0,0,0,0,0,0,0,0,0,0,0,0,0,0,0,0,0,0,0,0,0,0,0,0,0,0],"sum_hessian":[2.26E2,1.6E2,6.6E1,4E0,1.56E2,5.7E1,9E0,1E0,3E0,1.54E2,2E0,2E0,5.5E1,7E0,2E0,1.47E2,7E0,2E0,5.3E1,1E0,6E0,1.1E1,1.36E2,3E0,4E0,4E0,4.9E1,4E0,7E0,6E0,1.3E2,2E0,2E0,4.8E1,1E0],"tree_param":{"num_deleted":"0","num_feature":"4922","num_nodes":"35","size_leaf_vector":"0"}},{"base_weights":[-7.7575755E-1,3.529412E-1,-9.033708E-1,-8E-1,4.680851E-1,6.666667E-1,-9.119639E-1,-7.5E-1,5.681818E-1,-9.2448515E-1,-0E0,-4E-1,6.75E-1,-9.3317974E-1,2.5E-1,6.666667E-1,-4E-1,5E-1,-7.5E-1,-0E0,7.941176E-1,-9.3764436E-1,5E-1,-5E-1,6.666667E-1,5E-1,-7.5E-1,-4E-1,6.666667E-1,-0E0,9E-1,-9.421296E-1,5E-1],"categories":[],"categories_nodes":[],"categories_segments":[],"categories_sizes":[],"default_left":[0,0,0,0,0,0,1,0,0,1,0,0,0,1,0,0,0,0,0,0,0,1,0,0,0,0,0,0,0,0,0,0,0],"id":38,"left_children":[1,3,5,-1,7,-1,9,-1,11,13,15,17,19,21,23,-1,25,-1,-1,27,29,31,-1,-1,-1,-1,-1,-1,-1,-1,-1,-1,-1],"loss_changes":[7.1617096E1,7.1449313E0,6.6116943E0,0E0,6.1566715E0,0E0,5.0585938E0,0E0,4.8204546E0,4.6957703E0,2.1333334E0,1.95E0,3.216177E0,3.245819E0,1.5833334E0,0E0,1.95E0,0E0,0E0,2.1333334E0,2.8588219E0,3.263153E0,0E0,0E0,0E0,0E0,0E0,0E0,0E0,0E0,0E0,0E0,0E0],"parents":[2147483647,0,0,1,1,2,2,4,4,6,6,8,8,9,9,10,10,11,11,12,12,13,13,14,14,16,16,19,19,20,20,21,21],"right_children":[2,4,6,-1,8,-1,10,-1,12,14,16,18,20,22,24,-1,26,-1,-1,28,30,32,-1,-1,-1,-1,-1,-1,-1,-1,-1,-1,-1],"split_conditions":[4.5E0,1.5E0,1.5E0,-2.4000001E-1,1.5E0,2.0000002E-1,-9.536743E-7,-2.2500001E-1,1.5E0,-9.536743E-7,5.5E0,2.000001E0,1.5E0,3.5E0,1.5E0,2.0000002E-1,2.000001E0,1.5E-1,-2.2500001E-1,5.5E0,1.5E0,3.5E0,1.5E-1,-1.5E-1,2.0000002E-1,1.5E-1,-2.2500001E-1,-1.20000005E-1,2.0000002E-1,-0E0,2.7E-1,-2.826389E-1,1.5E-1],"split_indices":[187,279,1043,0,488,0,181,0,16,2252,0,11,31,41,3,0,6,0,0,0,343,270,0,0,0,0,0,0,0,0,0,0,0],"split_type":[0,0,0,0,0,0,0,0,0,0,0,0,0,0,0,0,0,0,0,0,0,0,0,0,0,0,0,0,0,0,0,0,0],"sum_hessian":[4.94E2,5E1,4.44E2,4E0,4.6E1,2E0,4.42E2,3E0,4.3E1,4.36E2,6E0,4E0,3.9E1,4.33E2,3E0,2E0,4E0,1E0,3E0,6E0,3.3E1,4.32E2,1E0,1E0,2E0,1E0,3E0,4E0,2E0,4E0,2.9E1,4.31E2,1E0],"tree_param":{"num_deleted":"0","num_feature":"4922","num_nodes":"33","size_leaf_vector":"0"}},{"base_weights":[-1.5816326E-1,-5.3333336E-1,6.6129035E-1,3.6363637E-1,-6.08E-1,7.6785713E-1,-2.857143E-1,-6.666667E-1,6.666667E-1,7.5E-1,-6.47541E-1,-6.666667E-1,8.333333E-1,-7.5E-1,2.5E-1,-5E-1,8.75E-1,4E-1,-6.864407E-1,-1.6666667E-1,9.3877554E-1,-5E-1,6.666667E-1,-5E-1,7.5E-1,-7.155172E-1,6.666667E-1,6.666667E-1,-7.5E-1,9.791667E-1,-5E-1,6.666667E-1,-7.4561405E-1],"categories":[],"categories_nodes":[],"categories_segments":[],"categories_sizes":[],"default_left":[0,0,1,0,0,0,0,0,0,0,0,0,0,0,0,0,0,0,1,0,1,0,0,0,0,0,0,0,0,0,0,0,0],"id":39,"left_children":[1,3,5,7,9,11,13,-1,15,-1,17,-1,19,-1,21,-1,-1,23,25,27,29,-1,-1,-1,-1,31,-1,-1,-1,-1,-1,-1,-1],"loss_changes":[6.0609848E1,9.262543E0,6.476383E0,3.878788E0,7.1977386E0,5.8154755E0,1.9285715E0,0E0,2.625E0,0E0,5.2459564E0,0E0,5.850342E0,0E0,1.5833334E0,0E0,0E0,1.95E0,5.119568E0,3.4166667E0,3.3371582E0,0E0,0E0,0E0,0E0,5.3225937E0,0E0,0E0,0E0,0E0,0E0,0E0,0E0],"parents":[2147483647,0,0,1,1,2,2,3,3,4,4,5,5,6,6,8,8,10,10,12,12,14,14,17,17,18,18,19,19,20,20,25,25],"right_children":[2,4,6,8,10,12,14,-1,16,-1,18,-1,20,-1,22,-1,-1,24,26,28,30,-1,-1,-1,-1,32,-1,-1,-1,-1,-1,-1,-1],"split_conditions":[4.5E0,4.000001E0,-9.536743E-7,2.000001E0,2.5E0,1.5E0,6.000001E0,-2.0000002E-1,2.000001E0,2.2500001E-1,4.000001E0,-2.0000002E-1,1.5E0,-2.2500001E-1,1.5E0,-1.5E-1,2.6250002E-1,2.5E0,2.5E0,2.000001E0,6.5E0,-1.5E-1,2.0000002E-1,-1.5E-1,2.2500001E-1,1.5E0,2.0000002E-1,2.0000002E-1,-2.2500001E-1,2.9375002E-1,-1.5E-1,2.0000002E-1,-2.2368422E-1],"split_indices":[187,400,2252,2267,488,1232,28,0,124,0,885,0,1043,0,3,0,0,0,42,36,2,0,0,0,0,156,0,0,0,0,0,0,0],"split_type":[0,0,0,0,0,0,0,0,0,0,0,0,0,0,0,0,0,0,0,0,0,0,0,0,0,0,0,0,0,0,0,0,0],"sum_hessian":[1.95E2,1.34E2,6.1E1,1E1,1.24E2,5.5E1,6E0,2E0,8E0,3E0,1.21E2,2E0,5.3E1,3E0,3E0,1E0,7E0,4E0,1.17E2,5E0,4.8E1,1E0,2E0,1E0,3E0,1.15E2,2E0,2E0,3E0,4.7E1,1E0,2E0,1.13E2],"tree_param":{"num_deleted":"0","num_feature":"4922","num_nodes":"33","size_leaf_vector":"0"}},{"base_weights":[-7.9513186E-1,2.7450982E-1,-9.164786E-1,-8E-1,3.8297874E-1,2.5E-1,-9.25E-1,-7.5E-1,4.7727272E-1,-5E-1,6.666667E-1,2.5E-1,-9.3363845E-1,5.8536583E-1,-7.5E-1,-5E-1,6.666667E-1,-0E0,-9.422633E-1,-6.666667E-1,6.666667E-1,6.666667E-1,-6.666667E-1,-9.467593E-1,5E-1,-6.666667E-1,7.567568E-1,5E-1,-9.512761E-1],"categories":[],"categories_nodes":[],"categories_segments":[],"categories_sizes":[],"default_left":[0,0,0,0,0,0,0,0,1,0,0,0,0,0,0,0,0,0,1,0,0,0,0,0,0,0,0,0,0],"id":40,"left_children":[1,3,5,-1,7,9,11,-1,13,-1,-1,15,17,19,-1,-1,-1,21,23,-1,25,-1,-1,27,-1,-1,-1,-1,-1],"loss_changes":[6.424176E1,6.25048E0,4.6347046E0,0E0,5.37911E0,1.5833334E0,4.6994934E0,0E0,6.2760534E0,0E0,0E0,1.5833334E0,3.518921E0,4.6178875E0,0E0,0E0,0E0,2.6666667E0,3.281128E0,0E0,5.18919E0,0E0,0E0,3.298645E0,0E0,0E0,0E0,0E0,0E0],"parents":[2147483647,0,0,1,1,2,2,4,4,5,5,6,6,8,8,11,11,12,12,13,13,17,17,18,18,20,20,23,23],"right_children":[2,4,6,-1,8,10,12,-1,14,-1,-1,16,18,20,-1,-1,-1,22,24,-1,26,-1,-1,28,-1,-1,-1,-1,-1],"split_conditions":[4.5E0,1.5E0,1.5E0,-2.4000001E-1,1.5E0,2.000001E0,1.5E0,-2.2500001E-1,-9.536743E-7,-1.5E-1,2.0000002E-1,2E0,4.000001E0,1.5E0,-2.2500001E-1,-1.5E-1,2.0000002E-1,6.5E0,3.5E0,-2.0000002E-1,2.000001E0,2.0000002E-1,-2.0000002E-1,2.000001E0,1.5E-1,-2.0000002E-1,2.2702704E-1,1.5E-1,-2.8538284E-1],"split_indices":[187,347,1043,0,488,4,1687,0,769,0,0,2,1543,615,0,0,0,0,270,0,718,0,0,501,0,0,0,0,0],"split_type":[0,0,0,0,0,0,0,0,0,0,0,0,0,0,0,0,0,0,0,0,0,0,0,0,0,0,0,0,0],"sum_hessian":[4.92E2,5E1,4.42E2,4E0,4.6E1,3E0,4.39E2,3E0,4.3E1,1E0,2E0,3E0,4.36E2,4E1,3E0,1E0,2E0,4E0,4.32E2,2E0,3.8E1,2E0,2E0,4.31E2,1E0,2E0,3.6E1,1E0,4.3E2],"tree_param":{"num_deleted":"0","num_feature":"4922","num_nodes":"29","size_leaf_vector":"0"}},{"base_weights":[-6.772009E-1,-5.516129E-1,-9.6268654E-1,6.25E-1,-5.808581E-1,5E-1,-9.7744364E-1,-5E-1,8.5714287E-1,8E-1,-6.020067E-1,5E-1,-9.9242425E-1,5.5555556E-2,-6.41844E-1,-8.75E-1,7.2727275E-1,5E-1,-6.642599E-1,-5E-1,9E-1,-5E-1,8E-1,2.857143E-1,-6.863469E-1],"categories":[],"categories_nodes":[],"categories_segments":[],"categories_sizes":[],"default_left":[0,0,0,0,0,0,0,0,0,0,0,0,0,0,0,0,0,0,0,0,0,0,0,0,0],"id":41,"left_children":[1,3,5,7,9,-1,11,-1,-1,-1,13,-1,-1,15,17,-1,19,21,23,-1,-1,-1,-1,-1,-1],"loss_changes":[1.5352097E1,1.103022E1,3.3811035E0,2.517857E0,9.330177E0,0E0,3.4398956E0,0E0,0E0,0E0,7.8681107E0,0E0,0E0,1.1887627E1,7.550064E0,0E0,2.7818184E0,2.2E0,6.0081253E0,0E0,0E0,0E0,0E0,0E0,0E0],"parents":[2147483647,0,0,1,1,2,2,3,3,4,4,6,6,10,10,13,13,14,14,16,16,17,17,18,18],"right_children":[2,4,6,8,10,-1,12,-1,-1,-1,14,-1,-1,16,18,-1,20,22,24,-1,-1,-1,-1,-1,-1],"split_conditions":[2.05E1,4.000001E0,2.000001E0,2.000001E0,4.000001E0,1.5E-1,2.000001E0,-1.5E-1,2.5714287E-1,2.4000001E-1,2.5E0,1.5E-1,-2.977273E-1,3.5E0,1.5E0,-2.6250002E-1,3.5E0,1.5E0,1.5E0,-1.5E-1,2.7E-1,-1.5E-1,2.4000001E-1,8.5714296E-2,-2.0590408E-1],"split_indices":[0,823,54,12,77,0,279,0,0,0,186,0,0,187,69,0,0,3,1306,0,0,0,0,0,0],"split_type":[0,0,0,0,0,0,0,0,0,0,0,0,0,0,0,0,0,0,0,0,0,0,0,0,0],"sum_hessian":[4.42E2,3.09E2,1.33E2,7E0,3.02E2,1E0,1.32E2,1E0,6E0,4E0,2.98E2,1E0,1.31E2,1.7E1,2.81E2,7E0,1E1,5E0,2.76E2,1E0,9E0,1E0,4E0,6E0,2.7E2],"tree_param":{"num_deleted":"0","num_feature":"4922","num_nodes":"25","size_leaf_vector":"0"}},{"base_weights":[-8.227848E-2,-8.695652E-1,5.147059E-2,5E-1,-9.5454544E-1,-2.875E-1,5.263158E-1,8E-1,-3.5526314E-1,-6.25E-1,7E-1,-4.6153846E-1,2.5E-1,5E-1,-8.5714287E-1,-7.5E-1,8.0851066E-1,-5.322581E-1,7.5E-1,8.333333E-1,-2.857143E-1,8.888889E-1,-6.666667E-1,6.666667E-1,-5.833333E-1,6.666667E-1,-8E-1,-6.666667E-1,9.767442E-1],"categories":[],"categories_nodes":[],"categories_segments":[],"categories_sizes":[],"default_left":[0,0,0,0,0,0,0,0,1,0,0,1,0,0,0,0,1,0,0,0,0,0,0,0,0,0,0,0,0],"id":42,"left_children":[1,3,5,-1,-1,7,9,-1,11,13,15,17,19,-1,-1,-1,21,23,-1,-1,25,27,-1,-1,-1,-1,-1,-1,-1],"loss_changes":[1.6681978E1,3.15415E0,2.204168E1,0E0,0E0,6.1796045E0,1.1835526E1,0E0,5.0040493E0,2.517857E0,8.473404E0,5.968362E0,3.9880953E0,0E0,0E0,0E0,6.1654854E0,4.185484E0,0E0,0E0,3.9619048E0,6.801029E0,0E0,0E0,0E0,0E0,0E0,0E0,0E0],"parents":[2147483647,0,0,1,1,2,2,5,5,6,6,8,8,9,9,10,10,11,11,12,12,16,16,17,17,20,20,21,21],"right_children":[2,4,6,-1,-1,8,10,-1,12,14,16,18,20,-1,-1,-1,22,24,-1,-1,26,28,-1,-1,-1,-1,-1,-1,-1],"split_conditions":[1.5E0,2.000001E0,2.5E0,1.5E-1,-2.8636363E-1,1.5E0,4.000001E0,2.4000001E-1,1.5E0,2.5E0,1.5E0,-9.536743E-7,3.5E0,1.5E-1,-2.5714287E-1,-2.2500001E-1,1.5E0,2.5E0,2.2500001E-1,2.5E-1,2.000001E0,1.5E0,-2.0000002E-1,2.0000002E-1,-1.75E-1,2.0000002E-1,-2.4000001E-1,-2.0000002E-1,2.9302326E-1],"split_indices":[69,93,187,0,0,135,186,0,115,0,823,547,28,0,0,0,48,165,0,0,149,77,0,0,0,0,0,0,0],"split_type":[0,0,0,0,0,0,0,0,0,0,0,0,0,0,0,0,0,0,0,0,0,0,0,0,0,0,0,0,0],"sum_hessian":[1.57E2,2.2E1,1.35E2,1E0,2.1E1,7.9E1,5.6E1,4E0,7.5E1,7E0,4.9E1,6.4E1,1.1E1,1E0,6E0,3E0,4.6E1,6.1E1,3E0,5E0,6E0,4.4E1,2E0,2E0,5.9E1,2E0,4E0,2E0,4.2E1],"tree_param":{"num_deleted":"0","num_feature":"4922","num_nodes":"29","size_leaf_vector":"0"}},{"base_weights":[-4.7213113E-1,2.2222222E-1,-6.502058E-1,-8.75E-1,3.75E-1,7.5E-1,-7.198276E-1,-6.25E-1,5.3061223E-1,-5E-1,9.0909094E-1,8E-1,-7.5E-1,5E-1,-8.5714287E-1,7.941176E-1,-6.25E-2,7.5E-1,-7.733333E-1,9.0625E-1,-6.666667E-1,7.5E-1,-3.0769232E-1,-7.963801E-1,4E-1,9.677419E-1,-5E-1,-5.4545456E-1,6.666667E-1,6.666667E-1,-8.127854E-1,-5E-1,7.5E-1],"categories":[],"categories_nodes":[],"categories_segments":[],"categories_sizes":[],"default_left":[0,0,0,0,0,0,0,0,1,0,0,0,0,0,0,1,0,0,0,1,0,0,1,0,0,0,0,0,0,0,0,0,0],"id":43,"left_children":[1,3,5,-1,7,9,11,13,15,-1,-1,-1,17,-1,-1,19,21,-1,23,25,-1,-1,27,29,31,-1,-1,-1,-1,-1,-1,-1,-1],"loss_changes":[3.7856743E1,1.0888889E1,2.4228691E1,0E0,9.0459175E0,2.840909E0,1.1238792E1,2.517857E0,7.707759E0,0E0,0E0,0E0,8.559998E0,0E0,0E0,6.1734066E0,3.4182692E0,0E0,6.4029083E0,3.251009E0,0E0,0E0,3.3752913E0,5.846222E0,1.95E0,0E0,0E0,0E0,0E0,0E0,0E0,0E0,0E0],"parents":[2147483647,0,0,1,1,2,2,4,4,5,5,6,6,7,7,8,8,12,12,15,15,16,16,18,18,19,19,22,22,23,23,24,24],"right_children":[2,4,6,-1,8,10,12,14,16,-1,-1,-1,18,-1,-1,20,22,-1,24,26,-1,-1,28,30,32,-1,-1,-1,-1,-1,-1,-1,-1],"split_conditions":[2.5E0,4.000001E0,4.000001E0,-2.6250002E-1,1.5E0,1.5E0,1.5E0,2.000001E0,1.5E0,-1.5E-1,2.7272728E-1,2.4000001E-1,1.5E0,1.5E-1,-2.5714287E-1,-9.536743E-7,6.000001E0,2.2500001E-1,1.85E1,1.5E0,-2.0000002E-1,2.2500001E-1,2.5E0,1.5E0,1.5E0,2.9032257E-1,-1.5E-1,-1.6363637E-1,2.0000002E-1,2.0000002E-1,-2.4383563E-1,-1.5E-1,2.2500001E-1],"split_indices":[187,122,186,0,165,1,69,32,115,0,0,0,823,0,0,1360,86,0,0,481,0,0,42,102,6,0,0,0,0,0,0,0,0],"split_type":[0,0,0,0,0,0,0,0,0,0,0,0,0,0,0,0,0,0,0,0,0,0,0,0,0,0,0,0,0,0,0,0,0],"sum_hessian":[3.04E2,6.2E1,2.42E2,7E0,5.5E1,1.1E1,2.31E2,7E0,4.8E1,1E0,1E1,4E0,2.27E2,1E0,6E0,3.3E1,1.5E1,3E0,2.24E2,3.1E1,2E0,3E0,1.2E1,2.2E2,4E0,3E1,1E0,1E1,2E0,2E0,2.18E2,1E0,3E0],"tree_param":{"num_deleted":"0","num_feature":"4922","num_nodes":"33","size_leaf_vector":"0"}},{"base_weights":[-5.478548E-1,-2.1556886E-1,-9.489051E-1,-4.5544556E-1,1.4925373E-1,-9.632353E-1,5E-1,8E-1,-5.154639E-1,-8.4210527E-1,5.3061223E-1,5E-1,-9.777778E-1,7.5E-1,-5.638298E-1,5E-1,-9.444444E-1,-8.333333E-1,7.0454544E-1,-0E0,-9.9248123E-1,-6.1538464E-1,7.5E-1,-7.5E-1,8.292683E-1,-5E-1,5E-1,-6.666667E-1,4E-1,-6.666667E-1,9.230769E-1],"categories":[],"categories_nodes":[],"categories_segments":[],"categories_sizes":[],"default_left":[0,0,1,0,0,0,0,0,0,0,0,0,0,0,1,0,0,0,0,0,0,1,0,0,0,0,0,0,0,0,0],"id":44,"left_children":[1,3,5,7,9,11,-1,-1,13,15,17,-1,19,-1,21,-1,-1,-1,23,25,-1,27,-1,-1,29,-1,-1,-1,-1,-1,-1],"loss_changes":[4.0174255E1,1.4682552E1,3.3261566E0,8.022701E0,2.5777067E1,3.382843E0,0E0,0E0,6.359785E0,3.081871E0,1.2211658E1,0E0,1.9408569E0,0E0,6.828562E0,0E0,0E0,0E0,8.604212E0,1E0,0E0,5.005127E0,0E0,0E0,6.3689804E0,0E0,0E0,0E0,0E0,0E0,0E0],"parents":[2147483647,0,0,1,1,2,2,3,3,4,4,5,5,8,8,9,9,10,10,12,12,14,14,18,18,19,19,21,21,24,24],"right_children":[2,4,6,8,10,12,-1,-1,14,16,18,-1,20,-1,22,-1,-1,-1,24,26,-1,28,-1,-1,30,-1,-1,-1,-1,-1,-1],"split_conditions":[1.95E1,4.5E0,3.1E1,2.5E0,1.5E0,2.000001E0,1.5E-1,2.4000001E-1,3.5E0,2.000001E0,4.000001E0,1.5E-1,2.000001E0,2.2500001E-1,-9.536743E-7,1.5E-1,-2.8333333E-1,-2.5E-1,1.5E0,4E1,-2.977444E-1,1.5E0,2.2500001E-1,-2.2500001E-1,4.000001E0,-1.5E-1,1.5E-1,-2.0000002E-1,1.20000005E-1,-2.0000002E-1,2.769231E-1],"split_indices":[0,187,0,282,69,279,0,0,660,93,186,0,54,0,752,0,0,0,302,0,0,62,0,0,2137,0,0,0,0,0,0],"split_type":[0,0,0,0,0,0,0,0,0,0,0,0,0,0,0,0,0,0,0,0,0,0,0,0,0,0,0,0,0,0,0],"sum_hessian":[3.02E2,1.66E2,1.36E2,1E2,6.6E1,1.35E2,1E0,4E0,9.6E1,1.8E1,4.8E1,1E0,1.34E2,3E0,9.3E1,1E0,1.7E1,5E0,4.3E1,2E0,1.32E2,9E1,3E0,3E0,4E1,1E0,1E0,8.6E1,4E0,2E0,3.8E1],"tree_param":{"num_deleted":"0","num_feature":"4922","num_nodes":"31","size_leaf_vector":"0"}},{"base_weights":[-4.753521E-1,5.9574467E-1,-6.8487394E-1,7.3170733E-1,-2.857143E-1,7.5E-1,-7.5770926E-1,8.5714287E-1,-0E0,-7.5E-1,2.5E-1,-5E-1,9.0909094E-1,8E-1,-7.892377E-1,-2.5E-1,9.6875E-1,4E-1,-6.666667E-1,6.666667E-1,-5E-1,-8.127854E-1,4E-1,-6.666667E-1,5E-1,-5E-1,7.5E-1,6.666667E-1,-8.294931E-1,-5E-1,7.5E-1,1.6666667E-1,-8.537736E-1],"categories":[],"categories_nodes":[],"categories_segments":[],"categories_sizes":[],"default_left":[0,1,0,1,0,0,0,0,1,0,0,0,0,0,0,0,0,0,0,0,0,0,0,0,0,0,0,0,0,0,0,0,0],"id":45,"left_children":[1,3,5,7,9,11,13,15,17,-1,19,-1,-1,-1,21,23,-1,25,-1,-1,-1,27,29,-1,-1,-1,-1,-1,31,-1,-1,-1,-1],"loss_changes":[6.414277E1,5.841797E0,2.5441536E1,3.7630653E0,1.9285715E0,2.840909E0,1.1779831E1,4.566965E0,2.1333334E0,0E0,1.5833334E0,0E0,0E0,0E0,6.569977E0,1.5833334E0,0E0,1.95E0,0E0,0E0,0E0,5.9662933E0,1.95E0,0E0,0E0,0E0,0E0,0E0,5.39093E0,0E0,0E0,0E0,0E0],"parents":[2147483647,0,0,1,1,2,2,3,3,4,4,5,5,6,6,7,7,8,8,10,10,14,14,15,15,17,17,21,21,22,22,28,28],"right_children":[2,4,6,8,10,12,14,16,18,-1,20,-1,-1,-1,22,24,-1,26,-1,-1,-1,28,30,-1,-1,-1,-1,-1,32,-1,-1,-1,-1],"split_conditions":[4.5E0,-9.536743E-7,4.000001E0,1.5E0,2.5E0,2.000001E0,1.5E0,4.000001E0,1.5E0,-2.2500001E-1,8.5E0,-1.5E-1,2.7272728E-1,2.4000001E-1,1.95E1,6.5E0,2.90625E-1,2.5E0,-2.0000002E-1,2.0000002E-1,-1.5E-1,1.5E0,1.5E0,-2.0000002E-1,1.5E-1,-1.5E-1,2.2500001E-1,2.0000002E-1,2.000001E0,-1.5E-1,2.2500001E-1,5.0000004E-2,-2.561321E-1],"split_indices":[187,752,186,35,1,24,69,4,2,0,0,0,0,0,0,0,0,0,0,0,0,378,6,0,0,0,0,0,2109,0,0,0,0],"split_type":[0,0,0,0,0,0,0,0,0,0,0,0,0,0,0,0,0,0,0,0,0,0,0,0,0,0,0,0,0,0,0,0,0],"sum_hessian":[2.83E2,4.6E1,2.37E2,4E1,6E0,1.1E1,2.26E2,3.4E1,6E0,3E0,3E0,1E0,1E1,4E0,2.22E2,3E0,3.1E1,4E0,2E0,2E0,1E0,2.18E2,4E0,2E0,1E0,1E0,3E0,2E0,2.16E2,1E0,3E0,5E0,2.11E2],"tree_param":{"num_deleted":"0","num_feature":"4922","num_nodes":"33","size_leaf_vector":"0"}},{"base_weights":[-6.40625E-1,-3.9673913E-1,-9.6350366E-1,-6.532258E-1,1.3114753E-1,5E-1,-9.7794116E-1,2.857143E-1,-7.033898E-1,-6.666667E-1,5.365854E-1,-0E0,-9.925373E-1,-6.666667E-1,8E-1,-7.3275864E-1,6.666667E-1,-8.4210527E-1,6.666667E-1,-8.5714287E-1,8E-1,-5E-1,5E-1,-7.631579E-1,6.666667E-1,5E-1,-9.444444E-1,8.5294116E-1,-5E-1,-0E0,-8.055556E-1,-5E-1,9.0909094E-1],"categories":[],"categories_nodes":[],"categories_segments":[],"categories_sizes":[],"default_left":[0,0,0,0,0,0,0,0,1,1,0,0,0,0,0,1,0,0,0,0,1,0,0,0,0,0,0,0,0,0,0,0,0],"id":46,"left_children":[1,3,5,7,9,-1,11,13,15,17,19,21,-1,-1,-1,23,-1,25,-1,-1,27,-1,-1,29,-1,-1,-1,31,-1,-1,-1,-1,-1],"loss_changes":[2.4816315E1,2.4998512E1,3.3836975E0,6.0414963E0,2.008903E1,0E0,1.9412842E0,3.9619048E0,5.236458E0,5.4736843E0,1.5737978E1,1E0,0E0,0E0,0E0,5.443592E0,0E0,3.081871E0,0E0,0E0,2.8352947E0,0E0,0E0,3.6885986E0,0E0,0E0,0E0,3.0374336E0,0E0,0E0,0E0,0E0,0E0],"parents":[2147483647,0,0,1,1,2,2,3,3,4,4,6,6,7,7,8,8,9,9,10,10,11,11,15,15,17,17,20,20,23,23,27,27],"right_children":[2,4,6,8,10,-1,12,14,16,18,20,22,-1,-1,-1,24,-1,26,-1,-1,28,-1,-1,30,-1,-1,-1,32,-1,-1,-1,-1,-1],"split_conditions":[1.95E1,4.5E0,2.000001E0,2.5E0,1.5E0,1.5E-1,2.000001E0,1.5E0,-9.536743E-7,1.5E0,4.000001E0,4E1,-2.977612E-1,-2.0000002E-1,2.4000001E-1,-9.536743E-7,2.0000002E-1,2.000001E0,2.0000002E-1,-2.5714287E-1,4.5E0,-1.5E-1,1.5E-1,1.5E0,2.0000002E-1,1.5E-1,-2.8333333E-1,2.000001E0,-1.5E-1,-0E0,-2.4166669E-1,-1.5E-1,2.7272728E-1],"split_indices":[0,187,1677,165,69,0,54,16,570,115,186,0,0,0,0,3970,0,214,0,0,2,0,0,343,0,0,0,53,0,0,0,0,0],"split_type":[0,0,0,0,0,0,0,0,0,0,0,0,0,0,0,0,0,0,0,0,0,0,0,0,0,0,0,0,0,0,0,0,0],"sum_hessian":[3.19E2,1.83E2,1.36E2,1.23E2,6E1,1E0,1.35E2,6E0,1.17E2,2E1,4E1,2E0,1.33E2,2E0,4E0,1.15E2,2E0,1.8E1,2E0,6E0,3.4E1,1E0,1E0,1.13E2,2E0,1E0,1.7E1,3.3E1,1E0,6E0,1.07E2,1E0,3.2E1],"tree_param":{"num_deleted":"0","num_feature":"4922","num_nodes":"33","size_leaf_vector":"0"}},{"base_weights":[-5.3710246E-1,3.5555556E-1,-7.0292884E-1,-5E-1,5.833333E-1,6.1538464E-1,-7.753304E-1,6.666667E-1,-8.75E-1,-4E-1,7.1875E-1,-6.666667E-1,9.0909094E-1,-7.911111E-1,6.666667E-1,-7.5E-1,5E-1,-6.666667E-1,8.333333E-1,-8.0717486E-1,6.666667E-1,9.6153843E-1,-0E0,-8.235294E-1,6.666667E-1,-6.666667E-1,6.666667E-1,-8.472222E-1,1.6666667E-1],"categories":[],"categories_nodes":[],"categories_segments":[],"categories_sizes":[],"default_left":[0,0,0,0,0,0,1,0,0,0,0,0,0,1,0,0,0,0,1,1,0,0,0,0,0,0,0,0,0],"id":47,"left_children":[1,3,5,7,9,11,13,-1,-1,15,17,-1,-1,19,-1,-1,-1,-1,21,23,-1,-1,25,27,-1,-1,-1,-1,-1],"loss_changes":[4.2141357E1,9.061111E0,2.3289177E1,4.9583335E0,5.081249E0,5.501165E0,5.6929626E0,0E0,0E0,1.95E0,5.635418E0,0E0,0E0,5.807022E0,0E0,0E0,0E0,0E0,3.2051277E0,5.9242096E0,0E0,0E0,2.6666667E0,5.325989E0,0E0,0E0,0E0,0E0,0E0],"parents":[2147483647,0,0,1,1,2,2,3,3,4,4,5,5,6,6,9,9,10,10,13,13,18,18,19,19,22,22,23,23],"right_children":[2,4,6,8,10,12,14,-1,-1,16,18,-1,-1,20,-1,-1,-1,-1,22,24,-1,-1,26,28,-1,-1,-1,-1,-1],"split_conditions":[3.5E0,1.5E0,4.000001E0,1.5E0,1.5E0,1.5E0,-9.536743E-7,2.0000002E-1,-2.6250002E-1,1.05E1,4.000001E0,-2.0000002E-1,2.7272728E-1,-9.536743E-7,2.0000002E-1,-2.2500001E-1,1.5E-1,-2.0000002E-1,1.5E0,-9.536743E-7,2.0000002E-1,2.8846154E-1,1.5E0,1.95E1,2.0000002E-1,-2.0000002E-1,2.0000002E-1,-2.5416666E-1,5.0000004E-2],"split_indices":[187,99,186,1,165,69,1472,0,0,0,12,0,0,2252,0,0,0,0,1,3380,0,0,40,0,0,0,0,0,0],"split_type":[0,0,0,0,0,0,0,0,0,0,0,0,0,0,0,0,0,0,0,0,0,0,0,0,0,0,0,0,0],"sum_hessian":[2.82E2,4.4E1,2.38E2,9E0,3.5E1,1.2E1,2.26E2,2E0,7E0,4E0,3.1E1,2E0,1E1,2.24E2,2E0,3E0,1E0,2E0,2.9E1,2.22E2,2E0,2.5E1,4E0,2.2E2,2E0,2E0,2E0,2.15E2,5E0],"tree_param":{"num_deleted":"0","num_feature":"4922","num_nodes":"29","size_leaf_vector":"0"}},{"base_weights":[-2.3841059E-1,-6.105263E-1,3.859649E-1,4E-1,-6.593407E-1,-9.0909094E-1,6.8085104E-1,-5E-1,7.5E-1,6.666667E-1,-6.966292E-1,-7.5E-1,7.9545456E-1,6.666667E-1,-7.356322E-1,-2.5E-1,8.780488E-1,6.666667E-1,-7.764706E-1,-6.666667E-1,5E-1,-5E-1,9.25E-1,5E-1,-7.9761904E-1,-5E-1,9.74359E-1],"categories":[],"categories_nodes":[],"categories_segments":[],"categories_sizes":[],"default_left":[0,0,0,0,0,0,0,0,0,0,0,0,0,0,0,1,0,0,0,0,0,0,0,0,0,0,0],"id":48,"left_children":[1,3,5,7,9,-1,11,-1,-1,-1,13,-1,15,-1,17,19,21,-1,23,-1,-1,-1,25,-1,-1,-1,-1],"loss_changes":[3.5318974E1,4.949913E0,2.2386915E1,1.95E0,4.9639015E0,0E0,8.303677E0,0E0,0E0,0E0,5.222782E0,0E0,4.0188465E0,0E0,5.4999313E0,1.5833334E0,3.115242E0,0E0,2.6934166E0,0E0,0E0,0E0,3.300644E0,0E0,0E0,0E0,0E0],"parents":[2147483647,0,0,1,1,2,2,3,3,4,4,6,6,10,10,12,12,14,14,15,15,16,16,18,18,22,22],"right_children":[2,4,6,8,10,-1,12,-1,-1,-1,14,-1,16,-1,18,20,22,-1,24,-1,-1,-1,26,-1,-1,-1,-1],"split_conditions":[3.5E0,1.5E0,4.000001E0,2.000001E0,2.5E0,-2.7272728E-1,1.5E0,-1.5E-1,2.2500001E-1,2.0000002E-1,1.5E0,-2.2500001E-1,1.5E0,2.0000002E-1,4.000001E0,1.55E1,1.5E0,2.0000002E-1,4.000001E0,-2.0000002E-1,1.5E-1,-1.5E-1,2E0,1.5E-1,-2.3928572E-1,-1.5E-1,2.923077E-1],"split_indices":[187,526,186,39,165,0,1029,0,0,0,327,0,20,0,885,0,8,0,14,0,0,0,493,0,0,0,0],"split_type":[0,0,0,0,0,0,0,0,0,0,0,0,0,0,0,0,0,0,0,0,0,0,0,0,0,0,0],"sum_hessian":[1.5E2,9.4E1,5.6E1,4E0,9E1,1E1,4.6E1,1E0,3E0,2E0,8.8E1,3E0,4.3E1,2E0,8.6E1,3E0,4E1,2E0,8.4E1,2E0,1E0,1E0,3.9E1,1E0,8.3E1,1E0,3.8E1],"tree_param":{"num_deleted":"0","num_feature":"4922","num_nodes":"27","size_leaf_vector":"0"}},{"base_weights":[-6.88E-1,8.125E-1,-7.5277776E-1,-5E-1,9.3333334E-1,-3.773585E-2,-8.733766E-1,-5.833333E-1,1.1904762E-1,-8.9144737E-1,4E-1,5E-1,-7.2727275E-1,5.3333336E-1,-1.0714286E-1,6.666667E-1,-9.039735E-1,7.5E-1,-5E-1,-9E-1,5E-1,-4E-1,9.0909094E-1,-3.181818E-1,5.714286E-1,2.5E-1,-9.16388E-1,5E-1,-7.5E-1,6.666667E-1,-4.5E-1,-5E-1,8.333333E-1,-5E-1,6.666667E-1,-9.290541E-1,2.5E-1],"categories":[],"categories_nodes":[],"categories_segments":[],"categories_sizes":[],"default_left":[0,0,0,0,0,0,1,0,0,0,0,0,1,0,1,0,0,0,0,0,0,0,0,0,0,0,1,0,0,0,0,0,0,0,0,0,0],"id":49,"left_children":[1,3,5,-1,-1,7,9,11,13,15,17,-1,19,21,23,-1,25,-1,-1,-1,-1,27,-1,29,31,33,35,-1,-1,-1,-1,-1,-1,-1,-1,-1,-1],"loss_changes":[3.706128E1,3.0041666E0,3.1011002E1,0E0,0E0,4.6031E0,7.443924E0,2.2348485E0,3.9928575E0,6.5358734E0,1.95E0,0E0,2.7818184E0,5.6242423E0,4.1915584E0,0E0,4.5555267E0,0E0,0E0,0E0,0E0,1.95E0,0E0,3.156061E0,2.3809521E0,1.5833334E0,4.6495667E0,0E0,0E0,0E0,0E0,0E0,0E0,0E0,0E0,0E0,0E0],"parents":[2147483647,0,0,1,1,2,2,5,5,6,6,7,7,8,8,9,9,10,10,12,12,13,13,14,14,16,16,21,21,23,23,24,24,25,25,26,26],"right_children":[2,4,6,-1,-1,8,10,12,14,16,18,-1,20,22,24,-1,26,-1,-1,-1,-1,28,-1,30,32,34,36,-1,-1,-1,-1,-1,-1,-1,-1,-1,-1],"split_conditions":[2.5E0,1.5E0,4.5E0,-1.5E-1,2.8E-1,3.5E0,3.5E0,1.5E0,2.5E0,4.000001E0,1.65E1,1.5E-1,5.5E0,1.5E0,1.5E0,2.0000002E-1,1.5E0,2.2500001E-1,-1.5E-1,-2.7E-1,1.5E-1,3.5E0,2.7272728E-1,1.5E0,4.000001E0,1.5E0,-9.536743E-7,1.5E-1,-2.2500001E-1,2.0000002E-1,-1.35E-1,-1.5E-1,2.5E-1,-1.5E-1,2.0000002E-1,-2.7871624E-1,7.5E-2],"split_indices":[186,50,187,0,0,249,1,11,34,1440,0,0,28,35,115,0,69,0,0,0,0,0,0,92,32,2,1321,0,0,0,0,0,0,0,0,0,0],"split_type":[0,0,0,0,0,0,0,0,0,0,0,0,0,0,0,0,0,0,0,0,0,0,0,0,0,0,0,0,0,0,0,0,0,0,0,0,0],"sum_hessian":[3.74E2,1.5E1,3.59E2,1E0,1.4E1,5.2E1,3.07E2,1.1E1,4.1E1,3.03E2,4E0,1E0,1E1,1.4E1,2.7E1,2E0,3.01E2,3E0,1E0,9E0,1E0,4E0,1E1,2.1E1,6E0,3E0,2.98E2,1E0,3E0,2E0,1.9E1,1E0,5E0,1E0,2E0,2.95E2,3E0],"tree_param":{"num_deleted":"0","num_feature":"4922","num_nodes":"37","size_leaf_vector":"0"}},{"base_weights":[3.0612245E-2,-9.3333334E-1,2.0238096E-1,-5.4545456E-1,3.108108E-1,6.666667E-1,-8.888889E-1,-5E-1,4.3076923E-1,6.666667E-1,-8.75E-1,3.3333335E-2,7.5E-1,5.625E-1,-5.3333336E-1,8.5294116E-1,-6.666667E-1,-6.666667E-1,7.8571427E-1,6.666667E-1,-7.692308E-1,-0E0,9.6666664E-1],"categories":[],"categories_nodes":[],"categories_segments":[],"categories_sizes":[],"default_left":[0,0,0,0,0,0,0,0,0,0,0,0,1,0,0,0,0,0,0,0,0,0,0],"id":50,"left_children":[1,-1,3,5,7,-1,-1,9,11,-1,-1,13,15,17,19,21,-1,-1,-1,-1,-1,-1,-1],"loss_changes":[1.6415306E1,0E0,6.9809E0,5.1717176E0,7.41289E0,0E0,0E0,4.9583335E0,8.221794E0,0E0,0E0,9.295833E0,5.8186283E0,4.9136906E0,4.7589736E0,3.2980385E0,0E0,0E0,0E0,0E0,0E0,0E0,0E0],"parents":[2147483647,0,0,2,2,3,3,4,4,7,7,8,8,11,11,12,12,13,13,14,14,15,15],"right_children":[2,-1,4,6,8,-1,-1,10,12,-1,-1,14,16,18,20,22,-1,-1,-1,-1,-1,-1,-1],"split_conditions":[2.5E0,-2.8E-1,3.5E0,2.5E0,1.5E0,2.0000002E-1,-2.6666668E-1,1.5E0,2.5E0,2.0000002E-1,-2.6250002E-1,8.000001E0,4.5E0,3E0,1.5E0,1.5E0,-2.0000002E-1,-2.0000002E-1,2.3571429E-1,2.0000002E-1,-2.3076925E-1,-0E0,2.9E-1],"split_indices":[186,0,45,241,69,0,0,35,187,0,0,40,1,36,22,31,0,0,0,0,0,0,0],"split_type":[0,0,0,0,0,0,0,0,0,0,0,0,0,0,0,0,0,0,0,0,0,0,0],"sum_hessian":[9.7E1,1.4E1,8.3E1,1E1,7.3E1,2E0,8E0,9E0,6.4E1,2E0,7E0,2.9E1,3.5E1,1.5E1,1.4E1,3.3E1,2E0,2E0,1.3E1,2E0,1.2E1,4E0,2.9E1],"tree_param":{"num_deleted":"0","num_feature":"4922","num_nodes":"23","size_leaf_vector":"0"}},{"base_weights":[-6.9034094E-1,9.411765E-1,-7.708333E-1,1.25E-1,-8.888889E-1,-2.4E-1,6.875E-1,6.666667E-1,-9.016949E-1,-4.7619048E-1,8E-1,-6.666667E-1,9.285714E-1,2.5E-1,-9.143836E-1,6.666667E-1,-6.315789E-1,6.666667E-1,-5E-1,2.5E-1,-9.273356E-1,5E-1,-7.222222E-1,6.666667E-1,-5E-1,-9.340278E-1,5E-1],"categories":[],"categories_nodes":[],"categories_segments":[],"categories_sizes":[],"default_left":[0,0,0,0,0,1,0,0,0,0,0,0,0,0,0,0,0,0,0,0,1,0,0,0,0,0,0],"id":51,"left_children":[1,-1,3,5,7,9,11,-1,13,15,-1,-1,-1,17,19,-1,21,-1,-1,23,25,-1,-1,-1,-1,-1,-1],"loss_changes":[4.6951813E1,0E0,3.5645844E1,8.377501E0,6.517502E0,6.5219045E0,5.8422613E0,0E0,4.539566E0,4.1503763E0,0E0,0E0,0E0,1.5833334E0,4.635544E0,0E0,2.3099418E0,0E0,0E0,1.5833334E0,3.2275238E0,0E0,0E0,0E0,0E0,0E0,0E0],"parents":[2147483647,0,0,2,2,3,3,4,4,5,5,6,6,8,8,9,9,13,13,14,14,16,16,19,19,20,20],"right_children":[2,-1,4,6,8,10,12,-1,14,16,-1,-1,-1,18,20,-1,22,-1,-1,24,26,-1,-1,-1,-1,-1,-1],"split_conditions":[2.5E0,2.8235295E-1,2.5E0,3.5E0,2.000001E0,1.5E0,1.5E0,2.0000002E-1,2.000001E0,1.5E0,2.4000001E-1,-2.0000002E-1,2.7857143E-1,1.1E1,1.5E0,2.0000002E-1,1.5E0,2.0000002E-1,-1.5E-1,1.3E1,1.5E0,1.5E-1,-2.1666667E-1,2.0000002E-1,-1.5E-1,-2.8020835E-1,1.5E-1],"split_indices":[186,0,187,40,89,28,766,0,353,4,0,0,0,0,484,0,36,0,0,0,152,0,0,0,0,0,0],"split_type":[0,0,0,0,0,0,0,0,0,0,0,0,0,0,0,0,0,0,0,0,0,0,0,0,0,0,0],"sum_hessian":[3.51E2,1.6E1,3.35E2,3.9E1,2.96E2,2.4E1,1.5E1,2E0,2.94E2,2E1,4E0,2E0,1.3E1,3E0,2.91E2,2E0,1.8E1,2E0,1E0,3E0,2.88E2,1E0,1.7E1,2E0,1E0,2.87E2,1E0],"tree_param":{"num_deleted":"0",